<?xml version="1.0"?>
<opencv_storage>
<stage8>
  <maxWeakCount>9</maxWeakCount>
  <stageThreshold>-6.0497695207595825e-01</stageThreshold>
  <weakClassifiers>
    <_>
      <internalNodes>
        0 -1 22211 -1.3015803694725037e-01</internalNodes>
      <leafValues>
        -7.7777779102325439e-01 4.8484849929809570e-01</leafValues></_>
    <_>
      <internalNodes>
        0 -1 73265 -9.0430662035942078e-02</internalNodes>
      <leafValues>
        -9.7044688463211060e-01 2.1006853878498077e-01</leafValues></_>
    <_>
      <internalNodes>
        0 -1 24858 -3.6230754107236862e-02</internalNodes>
      <leafValues>
        8.0425751209259033e-01 -2.8773605823516846e-01</leafValues></_>
    <_>
      <internalNodes>
        0 -1 7453 -4.4570311729330570e-05</internalNodes>
      <leafValues>
        4.0980121493339539e-01 -3.7240108847618103e-01</leafValues></_>
    <_>
      <internalNodes>
        0 -1 41358 2.0558049436658621e-03</internalNodes>
      <leafValues>
        2.9587796330451965e-01 -5.5074912309646606e-01</leafValues></_>
    <_>
      <internalNodes>
        0 -1 28332 -2.8353825211524963e-02</internalNodes>
      <leafValues>
        4.4044509530067444e-01 -4.0846338868141174e-01</leafValues></_>
    <_>
      <internalNodes>
        0 -1 54698 -7.0379218086600304e-03</internalNodes>
      <leafValues>
        -8.4800535440444946e-01 1.6162627935409546e-01</leafValues></_>
    <_>
      <internalNodes>
        0 -1 49942 4.3172045843675733e-04</internalNodes>
      <leafValues>
        -3.9258292317390442e-01 3.7357380986213684e-01</leafValues></_>
    <_>
      <internalNodes>
        0 -1 78289 -1.9132844172418118e-03</internalNodes>
      <leafValues>
        -8.6711817979812622e-01 1.8420918285846710e-01</leafValues></_></weakClassifiers></stage8>
</opencv_storage>
