<?xml version="1.0"?>
<opencv_storage>
<stage0>
  <maxWeakCount>5</maxWeakCount>
  <stageThreshold>-3.9016503095626831e-01</stageThreshold>
  <weakClassifiers>
    <_>
      <internalNodes>
        0 -1 30103 1.7169047147035599e-02</internalNodes>
      <leafValues>
        -5.7446807622909546e-01 7.4757283926010132e-01</leafValues></_>
    <_>
      <internalNodes>
        0 -1 2004 -1.3512271642684937e-01</internalNodes>
      <leafValues>
        7.5037401914596558e-01 -5.1008194684982300e-01</leafValues></_>
    <_>
      <internalNodes>
        0 -1 71470 -9.8382756114006042e-02</internalNodes>
      <leafValues>
        3.8890826702117920e-01 -9.6644723415374756e-01</leafValues></_>
    <_>
      <internalNodes>
        0 -1 14852 -5.2905203774571419e-03</internalNodes>
      <leafValues>
        8.6593335866928101e-01 -4.2427158355712891e-01</leafValues></_>
    <_>
      <internalNodes>
        0 -1 8023 6.3333325088024139e-03</internalNodes>
      <leafValues>
        -3.8673177361488342e-01 7.2974830865859985e-01</leafValues></_></weakClassifiers></stage0>
</opencv_storage>
