<?xml version="1.0"?>
<opencv_storage>
<stage6>
  <maxWeakCount>8</maxWeakCount>
  <stageThreshold>-5.2744150161743164e-01</stageThreshold>
  <weakClassifiers>
    <_>
      <internalNodes>
        0 -1 42277 -1.7722010612487793e-01</internalNodes>
      <leafValues>
        -5.0000000000000000e-01 5.9649121761322021e-01</leafValues></_>
    <_>
      <internalNodes>
        0 -1 34171 3.0156769789755344e-03</internalNodes>
      <leafValues>
        -2.8229770064353943e-01 6.2847787141799927e-01</leafValues></_>
    <_>
      <internalNodes>
        0 -1 69584 -1.9278571708127856e-03</internalNodes>
      <leafValues>
        6.4747172594070435e-01 -2.6492843031883240e-01</leafValues></_>
    <_>
      <internalNodes>
        0 -1 51760 -1.2005092576146126e-03</internalNodes>
      <leafValues>
        4.7239664196968079e-01 -4.0241944789886475e-01</leafValues></_>
    <_>
      <internalNodes>
        0 -1 65925 8.4040705114603043e-03</internalNodes>
      <leafValues>
        -2.3032462596893311e-01 9.0052610635757446e-01</leafValues></_>
    <_>
      <internalNodes>
        0 -1 46039 -1.7757248133420944e-03</internalNodes>
      <leafValues>
        5.6979072093963623e-01 -3.1637707352638245e-01</leafValues></_>
    <_>
      <internalNodes>
        0 -1 6337 -2.8156306594610214e-02</internalNodes>
      <leafValues>
        8.9436912536621094e-01 -1.6527549922466278e-01</leafValues></_>
    <_>
      <internalNodes>
        0 -1 63158 -1.1393125168979168e-03</internalNodes>
      <leafValues>
        5.4482251405715942e-01 -3.4847775101661682e-01</leafValues></_></weakClassifiers></stage6>
</opencv_storage>
