<?xml version="1.0"?>
<opencv_storage>
<cascade>
  <stageType>BOOST</stageType>
  <featureType>HAAR</featureType>
  <height>20</height>
  <width>20</width>
  <stageParams>
    <boostType>GAB</boostType>
    <minHitRate>9.9500000476837158e-01</minHitRate>
    <maxFalseAlarm>5.0000000000000000e-01</maxFalseAlarm>
    <weightTrimRate>9.4999999999999996e-01</weightTrimRate>
    <maxDepth>1</maxDepth>
    <maxWeakCount>100</maxWeakCount></stageParams>
  <featureParams>
    <maxCatCount>0</maxCatCount>
    <featSize>1</featSize>
    <mode>BASIC</mode></featureParams>
  <stageNum>50</stageNum>
  <stages>
    <!-- stage 0 -->
    <_>
      <maxWeakCount>3</maxWeakCount>
      <stageThreshold>4.5279818773269653e-01</stageThreshold>
      <weakClassifiers>
        <_>
          <internalNodes>
            0 -1 418 -1.8864750862121582e-01</internalNodes>
          <leafValues>
            7.7619892358779907e-01 -1.</leafValues></_>
        <_>
          <internalNodes>
            0 -1 212 -6.4807891845703125e-02</internalNodes>
          <leafValues>
            -8.9672821760177612e-01 5.7564234733581543e-01</leafValues></_>
        <_>
          <internalNodes>
            0 -1 275 1.0809736326336861e-02</internalNodes>
          <leafValues>
            -6.9118040800094604e-01 5.7332742214202881e-01</leafValues></_></weakClassifiers></_>
    <!-- stage 1 -->
    <_>
      <maxWeakCount>5</maxWeakCount>
      <stageThreshold>2.3446716368198395e-01</stageThreshold>
      <weakClassifiers>
        <_>
          <internalNodes>
            0 -1 515 -2.1215192973613739e-02</internalNodes>
          <leafValues>
            -8.3783781528472900e-01 7.6554173231124878e-01</leafValues></_>
        <_>
          <internalNodes>
            0 -1 392 1.8071522936224937e-02</internalNodes>
          <leafValues>
            -3.7494930624961853e-01 8.4599351882934570e-01</leafValues></_>
        <_>
          <internalNodes>
            0 -1 95 -1.0380559251643717e-04</internalNodes>
          <leafValues>
            5.5552500486373901e-01 -4.9052128195762634e-01</leafValues></_>
        <_>
          <internalNodes>
            0 -1 170 -1.1517250677570701e-03</internalNodes>
          <leafValues>
            6.6160088777542114e-01 -3.5760655999183655e-01</leafValues></_>
        <_>
          <internalNodes>
            0 -1 48 2.1685180254280567e-03</internalNodes>
          <leafValues>
            -3.2720485329627991e-01 8.5273820161819458e-01</leafValues></_></weakClassifiers></_>
    <!-- stage 2 -->
    <_>
      <maxWeakCount>7</maxWeakCount>
      <stageThreshold>-1.6361653804779053e-01</stageThreshold>
      <weakClassifiers>
        <_>
          <internalNodes>
            0 -1 177 -4.4454532861709595e-01</internalNodes>
          <leafValues>
            -9.1111111640930176e-01 7.9459458589553833e-01</leafValues></_>
        <_>
          <internalNodes>
            0 -1 103 5.0456859171390533e-03</internalNodes>
          <leafValues>
            -1.5936714410781860e-01 1.</leafValues></_>
        <_>
          <internalNodes>
            0 -1 640 8.0316746607422829e-04</internalNodes>
          <leafValues>
            -2.3008775711059570e-01 9.5465743541717529e-01</leafValues></_>
        <_>
          <internalNodes>
            0 -1 21 -1.4251993969082832e-02</internalNodes>
          <leafValues>
            7.2656822204589844e-01 -3.2996460795402527e-01</leafValues></_>
        <_>
          <internalNodes>
            0 -1 204 -5.2527904510498047e-02</internalNodes>
          <leafValues>
            -5.9740197658538818e-01 3.8591167330741882e-01</leafValues></_>
        <_>
          <internalNodes>
            0 -1 277 6.8079575430601835e-04</internalNodes>
          <leafValues>
            -2.9834645986557007e-01 8.4033137559890747e-01</leafValues></_>
        <_>
          <internalNodes>
            0 -1 110 -3.1185150146484375e-03</internalNodes>
          <leafValues>
            7.2037273645401001e-01 -3.2635685801506042e-01</leafValues></_></weakClassifiers></_>
    <!-- stage 3 -->
    <_>
      <maxWeakCount>9</maxWeakCount>
      <stageThreshold>-3.0681198835372925e-01</stageThreshold>
      <weakClassifiers>
        <_>
          <internalNodes>
            0 -1 232 -2.2183533757925034e-02</internalNodes>
          <leafValues>
            9.0640395879745483e-01 1.6494844853878021e-01</leafValues></_>
        <_>
          <internalNodes>
            0 -1 105 3.1344802118837833e-03</internalNodes>
          <leafValues>
            -1.5031363070011139e-01 8.0968844890594482e-01</leafValues></_>
        <_>
          <internalNodes>
            0 -1 242 4.1559711098670959e-03</internalNodes>
          <leafValues>
            -1.9706366956233978e-01 8.4141004085540771e-01</leafValues></_>
        <_>
          <internalNodes>
            0 -1 547 -6.2417727895081043e-03</internalNodes>
          <leafValues>
            6.7636805772781372e-01 -2.9828524589538574e-01</leafValues></_>
        <_>
          <internalNodes>
            0 -1 80 -1.2518513947725296e-02</internalNodes>
          <leafValues>
            6.7744117975234985e-01 -2.9555469751358032e-01</leafValues></_>
        <_>
          <internalNodes>
            0 -1 456 9.3615945661440492e-04</internalNodes>
          <leafValues>
            -5.9024995565414429e-01 4.3146339058876038e-01</leafValues></_>
        <_>
          <internalNodes>
            0 -1 619 6.9735338911414146e-04</internalNodes>
          <leafValues>
            -2.5571146607398987e-01 9.3173897266387939e-01</leafValues></_>
        <_>
          <internalNodes>
            0 -1 437 -2.2869263775646687e-03</internalNodes>
          <leafValues>
            8.0363094806671143e-01 -2.1622759103775024e-01</leafValues></_>
        <_>
          <internalNodes>
            0 -1 146 7.0753954350948334e-03</internalNodes>
          <leafValues>
            -2.3152299225330353e-01 7.9076588153839111e-01</leafValues></_></weakClassifiers></_>
    <!-- stage 4 -->
    <_>
      <maxWeakCount>9</maxWeakCount>
      <stageThreshold>-6.1486333608627319e-01</stageThreshold>
      <weakClassifiers>
        <_>
          <internalNodes>
            0 -1 217 -2.8101794421672821e-02</internalNodes>
          <leafValues>
            -2.5714287161827087e-01 7.8867924213409424e-01</leafValues></_>
        <_>
          <internalNodes>
            0 -1 267 -1.9249022006988525e-02</internalNodes>
          <leafValues>
            5.6756323575973511e-01 -3.7744915485382080e-01</leafValues></_>
        <_>
          <internalNodes>
            0 -1 136 -3.5608485341072083e-03</internalNodes>
          <leafValues>
            8.4522342681884766e-01 -1.8955576419830322e-01</leafValues></_>
        <_>
          <internalNodes>
            0 -1 89 -4.1307746432721615e-03</internalNodes>
          <leafValues>
            6.9738459587097168e-01 -2.0490118861198425e-01</leafValues></_>
        <_>
          <internalNodes>
            0 -1 618 6.9041119422763586e-04</internalNodes>
          <leafValues>
            -2.4045884609222412e-01 6.2893074750900269e-01</leafValues></_>
        <_>
          <internalNodes>
            0 -1 553 1.8159775063395500e-02</internalNodes>
          <leafValues>
            -2.0248576998710632e-01 8.1783199310302734e-01</leafValues></_>
        <_>
          <internalNodes>
            0 -1 255 -4.0990900248289108e-02</internalNodes>
          <leafValues>
            -6.0686880350112915e-01 2.5985786318778992e-01</leafValues></_>
        <_>
          <internalNodes>
            0 -1 163 -3.6196961998939514e-02</internalNodes>
          <leafValues>
            9.0128076076507568e-01 -1.8036647140979767e-01</leafValues></_>
        <_>
          <internalNodes>
            0 -1 382 -2.2089127451181412e-03</internalNodes>
          <leafValues>
            5.3891253471374512e-01 -2.7084618806838989e-01</leafValues></_></weakClassifiers></_>
    <!-- stage 5 -->
    <_>
      <maxWeakCount>10</maxWeakCount>
      <stageThreshold>-5.7613074779510498e-01</stageThreshold>
      <weakClassifiers>
        <_>
          <internalNodes>
            0 -1 158 1.6507191583514214e-02</internalNodes>
          <leafValues>
            8.0506825447082520e-01 -1.4942528307437897e-01</leafValues></_>
        <_>
          <internalNodes>
            0 -1 427 8.5431393235921860e-03</internalNodes>
          <leafValues>
            -3.2088911533355713e-01 5.8058828115463257e-01</leafValues></_>
        <_>
          <internalNodes>
            0 -1 161 -5.3780548274517059e-02</internalNodes>
          <leafValues>
            6.2651312351226807e-01 -2.8794318437576294e-01</leafValues></_>
        <_>
          <internalNodes>
            0 -1 462 -8.9458748698234558e-03</internalNodes>
          <leafValues>
            6.7572957277297974e-01 -1.8566571176052094e-01</leafValues></_>
        <_>
          <internalNodes>
            0 -1 174 -5.7577766478061676e-02</internalNodes>
          <leafValues>
            6.2344694137573242e-01 -2.3454444110393524e-01</leafValues></_>
        <_>
          <internalNodes>
            0 -1 279 -6.9596856832504272e-02</internalNodes>
          <leafValues>
            1. -1.4958982169628143e-01</leafValues></_>
        <_>
          <internalNodes>
            0 -1 396 8.0331675708293915e-02</internalNodes>
          <leafValues>
            -1.6000618040561676e-01 8.1245285272598267e-01</leafValues></_>
        <_>
          <internalNodes>
            0 -1 431 -1.0793044930323958e-03</internalNodes>
          <leafValues>
            -8.5643351078033447e-01 2.0082786679267883e-01</leafValues></_>
        <_>
          <internalNodes>
            0 -1 585 -8.7958795484155416e-04</internalNodes>
          <leafValues>
            -7.5969809293746948e-01 1.9064459204673767e-01</leafValues></_>
        <_>
          <internalNodes>
            0 -1 474 5.6738115381449461e-04</internalNodes>
          <leafValues>
            3.1765419244766235e-01 -4.5199853181838989e-01</leafValues></_></weakClassifiers></_>
    <!-- stage 6 -->
    <_>
      <maxWeakCount>11</maxWeakCount>
      <stageThreshold>-4.2459186911582947e-01</stageThreshold>
      <weakClassifiers>
        <_>
          <internalNodes>
            0 -1 281 -6.8588697910308838e-01</internalNodes>
          <leafValues>
            -5.0000000000000000e-01 7.5000000000000000e-01</leafValues></_>
        <_>
          <internalNodes>
            0 -1 294 3.5897560417652130e-02</internalNodes>
          <leafValues>
            -2.3752811551094055e-01 6.7927169799804688e-01</leafValues></_>
        <_>
          <internalNodes>
            0 -1 468 -2.3226477205753326e-03</internalNodes>
          <leafValues>
            6.4372450113296509e-01 -2.4887233972549438e-01</leafValues></_>
        <_>
          <internalNodes>
            0 -1 486 2.4711112491786480e-03</internalNodes>
          <leafValues>
            -2.3823113739490509e-01 7.3602998256683350e-01</leafValues></_>
        <_>
          <internalNodes>
            0 -1 87 -2.6484904810786247e-04</internalNodes>
          <leafValues>
            4.8262789845466614e-01 -3.5883918404579163e-01</leafValues></_>
        <_>
          <internalNodes>
            0 -1 550 -2.3803035728633404e-03</internalNodes>
          <leafValues>
            6.7534404993057251e-01 -2.4269121885299683e-01</leafValues></_>
        <_>
          <internalNodes>
            0 -1 596 -1.6773613169789314e-02</internalNodes>
          <leafValues>
            9.4366157054901123e-01 -1.7085528373718262e-01</leafValues></_>
        <_>
          <internalNodes>
            0 -1 129 -8.8094696402549744e-03</internalNodes>
          <leafValues>
            5.7061129808425903e-01 -2.8290680050849915e-01</leafValues></_>
        <_>
          <internalNodes>
            0 -1 176 -2.2806527093052864e-02</internalNodes>
          <leafValues>
            6.8719851970672607e-01 -2.2399203479290009e-01</leafValues></_>
        <_>
          <internalNodes>
            0 -1 398 -1.0540475696325302e-01</internalNodes>
          <leafValues>
            -6.3339221477508545e-01 2.9009780287742615e-01</leafValues></_>
        <_>
          <internalNodes>
            0 -1 495 -1.3031903654336929e-04</internalNodes>
          <leafValues>
            5.3715807199478149e-01 -3.4668016433715820e-01</leafValues></_></weakClassifiers></_>
    <!-- stage 7 -->
    <_>
      <maxWeakCount>10</maxWeakCount>
      <stageThreshold>-6.6305361688137054e-02</stageThreshold>
      <weakClassifiers>
        <_>
          <internalNodes>
            0 -1 8 3.6860173940658569e-01</internalNodes>
          <leafValues>
            7.5670838356018066e-01 -5.6097561120986938e-01</leafValues></_>
        <_>
          <internalNodes>
            0 -1 57 -7.2821239009499550e-03</internalNodes>
          <leafValues>
            8.2397383451461792e-01 -1.6342122852802277e-01</leafValues></_>
        <_>
          <internalNodes>
            0 -1 9 2.1477533504366875e-02</internalNodes>
          <leafValues>
            -1.4371907711029053e-01 8.8164848089218140e-01</leafValues></_>
        <_>
          <internalNodes>
            0 -1 28 -8.2440776750445366e-03</internalNodes>
          <leafValues>
            6.9991701841354370e-01 -3.1130158901214600e-01</leafValues></_>
        <_>
          <internalNodes>
            0 -1 406 3.7544639781117439e-04</internalNodes>
          <leafValues>
            -3.2643872499465942e-01 5.4124635457992554e-01</leafValues></_>
        <_>
          <internalNodes>
            0 -1 25 -1.9135010242462158e-01</internalNodes>
          <leafValues>
            6.4581930637359619e-01 -2.5912150740623474e-01</leafValues></_>
        <_>
          <internalNodes>
            0 -1 312 -2.3125957231968641e-03</internalNodes>
          <leafValues>
            5.5718630552291870e-01 -3.0479755997657776e-01</leafValues></_>
        <_>
          <internalNodes>
            0 -1 510 -2.4066820740699768e-02</internalNodes>
          <leafValues>
            -4.2226231098175049e-01 4.3998092412948608e-01</leafValues></_>
        <_>
          <internalNodes>
            0 -1 84 -3.4147841506637633e-04</internalNodes>
          <leafValues>
            4.8789364099502563e-01 -3.4681192040443420e-01</leafValues></_>
        <_>
          <internalNodes>
            0 -1 15 2.0063765347003937e-02</internalNodes>
          <leafValues>
            -2.4182927608489990e-01 7.3315834999084473e-01</leafValues></_></weakClassifiers></_>
    <!-- stage 8 -->
    <_>
      <maxWeakCount>10</maxWeakCount>
      <stageThreshold>-2.4283212423324585e-01</stageThreshold>
      <weakClassifiers>
        <_>
          <internalNodes>
            0 -1 17 1.7287565395236015e-02</internalNodes>
          <leafValues>
            8.1891345977783203e-01 -6.7961163818836212e-02</leafValues></_>
        <_>
          <internalNodes>
            0 -1 88 4.0948897600173950e-02</internalNodes>
          <leafValues>
            5.1360821723937988e-01 -5.2549701929092407e-01</leafValues></_>
        <_>
          <internalNodes>
            0 -1 2 -7.9586580395698547e-03</internalNodes>
          <leafValues>
            8.2836067676544189e-01 -1.9392791390419006e-01</leafValues></_>
        <_>
          <internalNodes>
            0 -1 647 2.9655280523002148e-03</internalNodes>
          <leafValues>
            4.4758686423301697e-01 -3.6407756805419922e-01</leafValues></_>
        <_>
          <internalNodes>
            0 -1 94 5.1262632012367249e-02</internalNodes>
          <leafValues>
            -2.0503556728363037e-01 7.9350823163986206e-01</leafValues></_>
        <_>
          <internalNodes>
            0 -1 560 -7.4963184306398034e-04</internalNodes>
          <leafValues>
            7.0900481939315796e-01 -2.3396551609039307e-01</leafValues></_>
        <_>
          <internalNodes>
            0 -1 507 -7.3190495371818542e-02</internalNodes>
          <leafValues>
            -7.4355119466781616e-01 2.5338146090507507e-01</leafValues></_>
        <_>
          <internalNodes>
            0 -1 5 4.9517806619405746e-03</internalNodes>
          <leafValues>
            3.6162397265434265e-01 -4.4105604290962219e-01</leafValues></_>
        <_>
          <internalNodes>
            0 -1 11 1.9676893134601414e-04</internalNodes>
          <leafValues>
            3.4335854649543762e-01 -5.1410591602325439e-01</leafValues></_>
        <_>
          <internalNodes>
            0 -1 410 -4.6985049266368151e-04</internalNodes>
          <leafValues>
            -4.5180600881576538e-01 3.4585618972778320e-01</leafValues></_></weakClassifiers></_>
    <!-- stage 9 -->
    <_>
      <maxWeakCount>11</maxWeakCount>
      <stageThreshold>-1.5724959969520569e-01</stageThreshold>
      <weakClassifiers>
        <_>
          <internalNodes>
            0 -1 519 -1.0626683384180069e-01</internalNodes>
          <leafValues>
            7.4377226829528809e-01 -4.7368422150611877e-01</leafValues></_>
        <_>
          <internalNodes>
            0 -1 100 -5.0832802662625909e-04</internalNodes>
          <leafValues>
            5.7915812730789185e-01 -3.1430459022521973e-01</leafValues></_>
        <_>
          <internalNodes>
            0 -1 171 1.1851489543914795e-03</internalNodes>
          <leafValues>
            -2.0497012138366699e-01 7.1266782283782959e-01</leafValues></_>
        <_>
          <internalNodes>
            0 -1 497 -8.4056286141276360e-03</internalNodes>
          <leafValues>
            5.3743648529052734e-01 -2.9603433609008789e-01</leafValues></_>
        <_>
          <internalNodes>
            0 -1 259 9.1973533853888512e-03</internalNodes>
          <leafValues>
            -2.5627729296684265e-01 6.8411475419998169e-01</leafValues></_>
        <_>
          <internalNodes>
            0 -1 361 -2.0899055525660515e-03</internalNodes>
          <leafValues>
            5.0936645269393921e-01 -2.9824310541152954e-01</leafValues></_>
        <_>
          <internalNodes>
            0 -1 264 7.5247222557663918e-03</internalNodes>
          <leafValues>
            -3.7652978301048279e-01 3.3024615049362183e-01</leafValues></_>
        <_>
          <internalNodes>
            0 -1 230 -4.0222786366939545e-02</internalNodes>
          <leafValues>
            -9.4407218694686890e-01 1.5650172531604767e-01</leafValues></_>
        <_>
          <internalNodes>
            0 -1 189 -3.4420348703861237e-02</internalNodes>
          <leafValues>
            2.2462813556194305e-01 -6.0270392894744873e-01</leafValues></_>
        <_>
          <internalNodes>
            0 -1 274 -1.5526287257671356e-01</internalNodes>
          <leafValues>
            -5.8329075574874878e-01 2.0354603230953217e-01</leafValues></_>
        <_>
          <internalNodes>
            0 -1 560 4.0371809154748917e-03</internalNodes>
          <leafValues>
            -2.1242658793926239e-01 6.3474804162979126e-01</leafValues></_></weakClassifiers></_>
    <!-- stage 10 -->
    <_>
      <maxWeakCount>9</maxWeakCount>
      <stageThreshold>6.5025687217712402e-02</stageThreshold>
      <weakClassifiers>
        <_>
          <internalNodes>
            0 -1 156 -3.0565023422241211e-01</internalNodes>
          <leafValues>
            -1. 7.3913043737411499e-01</leafValues></_>
        <_>
          <internalNodes>
            0 -1 319 1.0466235689818859e-02</internalNodes>
          <leafValues>
            -2.1755144000053406e-01 5.9461528062820435e-01</leafValues></_>
        <_>
          <internalNodes>
            0 -1 104 7.7298190444707870e-03</internalNodes>
          <leafValues>
            -2.9716011881828308e-01 5.9016013145446777e-01</leafValues></_>
        <_>
          <internalNodes>
            0 -1 488 -1.0654222965240479e-01</internalNodes>
          <leafValues>
            -8.4261882305145264e-01 2.1925963461399078e-01</leafValues></_>
        <_>
          <internalNodes>
            0 -1 581 -1.5398385003209114e-03</internalNodes>
          <leafValues>
            7.6159924268722534e-01 -2.3343065381050110e-01</leafValues></_>
        <_>
          <internalNodes>
            0 -1 576 3.2884231768548489e-03</internalNodes>
          <leafValues>
            -2.7549603581428528e-01 5.3227019309997559e-01</leafValues></_>
        <_>
          <internalNodes>
            0 -1 604 5.9676787350326777e-04</internalNodes>
          <leafValues>
            -2.0841130614280701e-01 6.2254673242568970e-01</leafValues></_>
        <_>
          <internalNodes>
            0 -1 195 1.0720806196331978e-02</internalNodes>
          <leafValues>
            -1.5443183481693268e-01 7.4170285463333130e-01</leafValues></_>
        <_>
          <internalNodes>
            0 -1 237 -6.4003071747720242e-03</internalNodes>
          <leafValues>
            5.0027048587799072e-01 -3.1464922428131104e-01</leafValues></_></weakClassifiers></_>
    <!-- stage 11 -->
    <_>
      <maxWeakCount>11</maxWeakCount>
      <stageThreshold>-3.8360199332237244e-01</stageThreshold>
      <weakClassifiers>
        <_>
          <internalNodes>
            0 -1 372 1.3729196507483721e-03</internalNodes>
          <leafValues>
            7.2173911333084106e-01 -6.0000002384185791e-01</leafValues></_>
        <_>
          <internalNodes>
            0 -1 60 -7.0801498368382454e-03</internalNodes>
          <leafValues>
            8.3512789011001587e-01 -1.4971980452537537e-01</leafValues></_>
        <_>
          <internalNodes>
            0 -1 93 2.5210332125425339e-02</internalNodes>
          <leafValues>
            -1.8026526272296906e-01 7.2856247425079346e-01</leafValues></_>
        <_>
          <internalNodes>
            0 -1 131 -1.1392766982316971e-01</internalNodes>
          <leafValues>
            9.8351317644119263e-01 -1.7840591073036194e-01</leafValues></_>
        <_>
          <internalNodes>
            0 -1 601 1.5531157143414021e-02</internalNodes>
          <leafValues>
            -1.7227098345756531e-01 6.7438220977783203e-01</leafValues></_>
        <_>
          <internalNodes>
            0 -1 106 2.3774665896780789e-04</internalNodes>
          <leafValues>
            2.5244322419166565e-01 -6.4386439323425293e-01</leafValues></_>
        <_>
          <internalNodes>
            0 -1 578 -1.6887467354536057e-02</internalNodes>
          <leafValues>
            7.1171349287033081e-01 -2.0973719656467438e-01</leafValues></_>
        <_>
          <internalNodes>
            0 -1 283 -3.4586363472044468e-03</internalNodes>
          <leafValues>
            -2.3763002455234528e-01 4.9542123079299927e-01</leafValues></_>
        <_>
          <internalNodes>
            0 -1 503 -1.4219537843018770e-03</internalNodes>
          <leafValues>
            5.9568774700164795e-01 -2.3473900556564331e-01</leafValues></_>
        <_>
          <internalNodes>
            0 -1 18 3.2378369942307472e-03</internalNodes>
          <leafValues>
            2.2933763265609741e-01 -6.0863560438156128e-01</leafValues></_>
        <_>
          <internalNodes>
            0 -1 535 1.0855240747332573e-02</internalNodes>
          <leafValues>
            -2.2435380518436432e-01 5.9863895177841187e-01</leafValues></_></weakClassifiers></_>
    <!-- stage 12 -->
    <_>
      <maxWeakCount>13</maxWeakCount>
      <stageThreshold>-2.2035729885101318e-01</stageThreshold>
      <weakClassifiers>
        <_>
          <internalNodes>
            0 -1 198 -1.4082053303718567e-01</internalNodes>
          <leafValues>
            -5.8333331346511841e-01 7.1875000000000000e-01</leafValues></_>
        <_>
          <internalNodes>
            0 -1 263 2.6177545078098774e-03</internalNodes>
          <leafValues>
            -1.0308848321437836e-01 7.5058257579803467e-01</leafValues></_>
        <_>
          <internalNodes>
            0 -1 211 -1.7686502542346716e-03</internalNodes>
          <leafValues>
            5.9200841188430786e-01 -2.5990852713584900e-01</leafValues></_>
        <_>
          <internalNodes>
            0 -1 527 -1.3810839736834168e-03</internalNodes>
          <leafValues>
            4.7624066472053528e-01 -3.3476623892784119e-01</leafValues></_>
        <_>
          <internalNodes>
            0 -1 238 5.1276809535920620e-03</internalNodes>
          <leafValues>
            -1.7039841413497925e-01 8.3721482753753662e-01</leafValues></_>
        <_>
          <internalNodes>
            0 -1 35 -1.9292080774903297e-02</internalNodes>
          <leafValues>
            4.6080255508422852e-01 -3.2433313131332397e-01</leafValues></_>
        <_>
          <internalNodes>
            0 -1 12 -1.9403560087084770e-02</internalNodes>
          <leafValues>
            -7.2669732570648193e-01 2.1712577342987061e-01</leafValues></_>
        <_>
          <internalNodes>
            0 -1 436 -1.9477601163089275e-03</internalNodes>
          <leafValues>
            8.2204419374465942e-01 -1.9064968824386597e-01</leafValues></_>
        <_>
          <internalNodes>
            0 -1 352 -1.7268994823098183e-02</internalNodes>
          <leafValues>
            7.6969802379608154e-01 -1.3530677556991577e-01</leafValues></_>
        <_>
          <internalNodes>
            0 -1 565 -4.5902302372269332e-04</internalNodes>
          <leafValues>
            4.4636294245719910e-01 -2.6029315590858459e-01</leafValues></_>
        <_>
          <internalNodes>
            0 -1 142 -4.2120702564716339e-02</internalNodes>
          <leafValues>
            6.1984103918075562e-01 -2.2617036104202271e-01</leafValues></_>
        <_>
          <internalNodes>
            0 -1 43 -1.8059287685900927e-04</internalNodes>
          <leafValues>
            3.0609577894210815e-01 -4.9440014362335205e-01</leafValues></_>
        <_>
          <internalNodes>
            0 -1 334 5.3208312019705772e-03</internalNodes>
          <leafValues>
            -1.4870990812778473e-01 9.4700634479522705e-01</leafValues></_></weakClassifiers></_>
    <!-- stage 13 -->
    <_>
      <maxWeakCount>13</maxWeakCount>
      <stageThreshold>-2.3543083667755127e-01</stageThreshold>
      <weakClassifiers>
        <_>
          <internalNodes>
            0 -1 308 -5.8631733059883118e-02</internalNodes>
          <leafValues>
            7.4100720882415771e-01 -2.7272728085517883e-01</leafValues></_>
        <_>
          <internalNodes>
            0 -1 45 -6.6630914807319641e-02</internalNodes>
          <leafValues>
            7.8065389394760132e-01 -5.6587219238281250e-02</leafValues></_>
        <_>
          <internalNodes>
            0 -1 299 4.0054055862128735e-03</internalNodes>
          <leafValues>
            -2.4813647568225861e-01 5.3744584321975708e-01</leafValues></_>
        <_>
          <internalNodes>
            0 -1 126 1.3174664974212646e-01</internalNodes>
          <leafValues>
            -1.3442867994308472e-01 9.1735577583312988e-01</leafValues></_>
        <_>
          <internalNodes>
            0 -1 450 1.8278034403920174e-03</internalNodes>
          <leafValues>
            -3.4101957082748413e-01 3.8466009497642517e-01</leafValues></_>
        <_>
          <internalNodes>
            0 -1 358 -2.7307774871587753e-03</internalNodes>
          <leafValues>
            4.1648516058921814e-01 -3.4428128600120544e-01</leafValues></_>
        <_>
          <internalNodes>
            0 -1 6 -1.6217887401580811e-02</internalNodes>
          <leafValues>
            5.7000601291656494e-01 -1.9997732341289520e-01</leafValues></_>
        <_>
          <internalNodes>
            0 -1 160 1.5946108847856522e-02</internalNodes>
          <leafValues>
            -2.4581657350063324e-01 5.8179384469985962e-01</leafValues></_>
        <_>
          <internalNodes>
            0 -1 642 -3.3941171132028103e-03</internalNodes>
          <leafValues>
            -8.5763067007064819e-01 1.5763616561889648e-01</leafValues></_>
        <_>
          <internalNodes>
            0 -1 293 -2.1331692114472389e-03</internalNodes>
          <leafValues>
            -7.4706172943115234e-01 1.3224963843822479e-01</leafValues></_>
        <_>
          <internalNodes>
            0 -1 378 -2.8963754884898663e-03</internalNodes>
          <leafValues>
            4.9901852011680603e-01 -2.3437435925006866e-01</leafValues></_>
        <_>
          <internalNodes>
            0 -1 568 -2.1420302800834179e-03</internalNodes>
          <leafValues>
            -7.9349184036254883e-01 1.4976225793361664e-01</leafValues></_>
        <_>
          <internalNodes>
            0 -1 505 -2.2562943398952484e-02</internalNodes>
          <leafValues>
            6.3324725627899170e-01 -1.9122579693794250e-01</leafValues></_></weakClassifiers></_>
    <!-- stage 14 -->
    <_>
      <maxWeakCount>9</maxWeakCount>
      <stageThreshold>3.3318459987640381e-02</stageThreshold>
      <weakClassifiers>
        <_>
          <internalNodes>
            0 -1 44 -2.4449780583381653e-02</internalNodes>
          <leafValues>
            7.5227683782577515e-01 -2.5490197539329529e-01</leafValues></_>
        <_>
          <internalNodes>
            0 -1 36 -3.6453746259212494e-02</internalNodes>
          <leafValues>
            7.7371031045913696e-01 -1.3163948059082031e-01</leafValues></_>
        <_>
          <internalNodes>
            0 -1 344 -2.1960648894309998e-01</internalNodes>
          <leafValues>
            9.4267416000366211e-01 -1.2145432084798813e-01</leafValues></_>
        <_>
          <internalNodes>
            0 -1 641 -2.4198838509619236e-03</internalNodes>
          <leafValues>
            -7.4417018890380859e-01 2.3330004513263702e-01</leafValues></_>
        <_>
          <internalNodes>
            0 -1 534 2.5236185640096664e-02</internalNodes>
          <leafValues>
            -2.4577648937702179e-01 6.9079011678695679e-01</leafValues></_>
        <_>
          <internalNodes>
            0 -1 493 -4.1932687163352966e-02</internalNodes>
          <leafValues>
            6.9974851608276367e-01 -2.4782308936119080e-01</leafValues></_>
        <_>
          <internalNodes>
            0 -1 602 1.4706328511238098e-02</internalNodes>
          <leafValues>
            -1.8430265784263611e-01 7.9135710000991821e-01</leafValues></_>
        <_>
          <internalNodes>
            0 -1 306 -9.0286098420619965e-02</internalNodes>
          <leafValues>
            9.0203434228897095e-01 -1.3009789586067200e-01</leafValues></_>
        <_>
          <internalNodes>
            0 -1 258 -6.4309425652027130e-03</internalNodes>
          <leafValues>
            -7.9651427268981934e-01 2.1294704079627991e-01</leafValues></_></weakClassifiers></_>
    <!-- stage 15 -->
    <_>
      <maxWeakCount>16</maxWeakCount>
      <stageThreshold>-1.2833894789218903e-01</stageThreshold>
      <weakClassifiers>
        <_>
          <internalNodes>
            0 -1 569 -6.8656299263238907e-03</internalNodes>
          <leafValues>
            -3.6842104792594910e-01 7.3665481805801392e-01</leafValues></_>
        <_>
          <internalNodes>
            0 -1 42 -2.6138555258512497e-02</internalNodes>
          <leafValues>
            8.7882727384567261e-01 -6.8835867568850517e-03</leafValues></_>
        <_>
          <internalNodes>
            0 -1 172 -3.1589239835739136e-01</internalNodes>
          <leafValues>
            -2.2273327410221100e-01 5.2292752265930176e-01</leafValues></_>
        <_>
          <internalNodes>
            0 -1 448 -3.9888350293040276e-03</internalNodes>
          <leafValues>
            5.8466780185699463e-01 -2.3547548055648804e-01</leafValues></_>
        <_>
          <internalNodes>
            0 -1 101 1.2972230091691017e-02</internalNodes>
          <leafValues>
            -1.7431613802909851e-01 7.3690503835678101e-01</leafValues></_>
        <_>
          <internalNodes>
            0 -1 152 3.4007601789198816e-04</internalNodes>
          <leafValues>
            2.0769999921321869e-01 -6.1835038661956787e-01</leafValues></_>
        <_>
          <internalNodes>
            0 -1 364 9.5185898244380951e-03</internalNodes>
          <leafValues>
            -1.5111118555068970e-01 8.7523573637008667e-01</leafValues></_>
        <_>
          <internalNodes>
            0 -1 429 1.1849076254293323e-03</internalNodes>
          <leafValues>
            -2.5105479359626770e-01 5.4776895046234131e-01</leafValues></_>
        <_>
          <internalNodes>
            0 -1 416 -4.8892886843532324e-04</internalNodes>
          <leafValues>
            -5.6027740240097046e-01 2.2591090202331543e-01</leafValues></_>
        <_>
          <internalNodes>
            0 -1 64 4.2912866920232773e-03</internalNodes>
          <leafValues>
            -2.4740448594093323e-01 5.2169436216354370e-01</leafValues></_>
        <_>
          <internalNodes>
            0 -1 180 -4.4311098754405975e-03</internalNodes>
          <leafValues>
            6.5009421110153198e-01 -2.0813080668449402e-01</leafValues></_>
        <_>
          <internalNodes>
            0 -1 634 2.1833609789609909e-03</internalNodes>
          <leafValues>
            -2.0371437072753906e-01 5.0627213716506958e-01</leafValues></_>
        <_>
          <internalNodes>
            0 -1 345 -1.6892174258828163e-02</internalNodes>
          <leafValues>
            -6.3647735118865967e-01 1.9806165993213654e-01</leafValues></_>
        <_>
          <internalNodes>
            0 -1 496 -3.9576563984155655e-02</internalNodes>
          <leafValues>
            7.7608323097229004e-01 -1.7475408315658569e-01</leafValues></_>
        <_>
          <internalNodes>
            0 -1 119 1.8222564831376076e-03</internalNodes>
          <leafValues>
            2.9606443643569946e-01 -4.8474174737930298e-01</leafValues></_>
        <_>
          <internalNodes>
            0 -1 639 -1.9461225019767880e-04</internalNodes>
          <leafValues>
            -3.9641815423965454e-01 2.7764022350311279e-01</leafValues></_></weakClassifiers></_>
    <!-- stage 16 -->
    <_>
      <maxWeakCount>11</maxWeakCount>
      <stageThreshold>-3.9386838674545288e-01</stageThreshold>
      <weakClassifiers>
        <_>
          <internalNodes>
            0 -1 492 -6.3834711909294128e-02</internalNodes>
          <leafValues>
            7.3239433765411377e-01 -5.0000000000000000e-01</leafValues></_>
        <_>
          <internalNodes>
            0 -1 404 -2.2265340667217970e-03</internalNodes>
          <leafValues>
            -5.2414828538894653e-01 4.0719321370124817e-01</leafValues></_>
        <_>
          <internalNodes>
            0 -1 335 2.3849163204431534e-02</internalNodes>
          <leafValues>
            -2.4732169508934021e-01 7.1525239944458008e-01</leafValues></_>
        <_>
          <internalNodes>
            0 -1 107 1.7037244106177241e-04</internalNodes>
          <leafValues>
            3.0462908744812012e-01 -5.1785141229629517e-01</leafValues></_>
        <_>
          <internalNodes>
            0 -1 466 -1.8805373460054398e-02</internalNodes>
          <leafValues>
            6.0847306251525879e-01 -2.4864718317985535e-01</leafValues></_>
        <_>
          <internalNodes>
            0 -1 415 5.6726489216089249e-02</internalNodes>
          <leafValues>
            -2.3568651080131531e-01 6.8964725732803345e-01</leafValues></_>
        <_>
          <internalNodes>
            0 -1 143 -3.5840436816215515e-02</internalNodes>
          <leafValues>
            4.7205001115798950e-01 -2.9314053058624268e-01</leafValues></_>
        <_>
          <internalNodes>
            0 -1 290 1.6109997406601906e-02</internalNodes>
          <leafValues>
            -1.4086602628231049e-01 8.3403092622756958e-01</leafValues></_>
        <_>
          <internalNodes>
            0 -1 246 8.6663495749235153e-03</internalNodes>
          <leafValues>
            2.9431784152984619e-01 -4.4836336374282837e-01</leafValues></_>
        <_>
          <internalNodes>
            0 -1 168 -9.6743386238813400e-03</internalNodes>
          <leafValues>
            3.0167555809020996e-01 -3.9844939112663269e-01</leafValues></_>
        <_>
          <internalNodes>
            0 -1 200 -5.1816948689520359e-04</internalNodes>
          <leafValues>
            -5.4314297437667847e-01 2.5418892502784729e-01</leafValues></_></weakClassifiers></_>
    <!-- stage 17 -->
    <_>
      <maxWeakCount>10</maxWeakCount>
      <stageThreshold>-6.1809509992599487e-01</stageThreshold>
      <weakClassifiers>
        <_>
          <internalNodes>
            0 -1 367 -3.8024568930268288e-03</internalNodes>
          <leafValues>
            -6.9999998807907104e-01 7.1379309892654419e-01</leafValues></_>
        <_>
          <internalNodes>
            0 -1 393 1.6497372090816498e-01</internalNodes>
          <leafValues>
            -9.3737326562404633e-02 9.1704934835433960e-01</leafValues></_>
        <_>
          <internalNodes>
            0 -1 310 5.0157413352280855e-04</internalNodes>
          <leafValues>
            -1.7075790464878082e-01 6.6197669506072998e-01</leafValues></_>
        <_>
          <internalNodes>
            0 -1 54 -5.3822631016373634e-03</internalNodes>
          <leafValues>
            5.0599330663681030e-01 -3.4674203395843506e-01</leafValues></_>
        <_>
          <internalNodes>
            0 -1 511 4.8816138878464699e-03</internalNodes>
          <leafValues>
            -3.4506687521934509e-01 4.2144379019737244e-01</leafValues></_>
        <_>
          <internalNodes>
            0 -1 573 -2.8671496547758579e-03</internalNodes>
          <leafValues>
            6.4510947465896606e-01 -2.8578245639801025e-01</leafValues></_>
        <_>
          <internalNodes>
            0 -1 343 -5.7493485510349274e-02</internalNodes>
          <leafValues>
            4.0239754319190979e-01 -3.4221264719963074e-01</leafValues></_>
        <_>
          <internalNodes>
            0 -1 122 3.9650246500968933e-02</internalNodes>
          <leafValues>
            -1.7203240096569061e-01 8.8435703516006470e-01</leafValues></_>
        <_>
          <internalNodes>
            0 -1 268 1.3566188863478601e-04</internalNodes>
          <leafValues>
            -2.5157579779624939e-01 4.9427944421768188e-01</leafValues></_>
        <_>
          <internalNodes>
            0 -1 502 5.4485425353050232e-02</internalNodes>
          <leafValues>
            -2.1727144718170166e-01 6.7601925134658813e-01</leafValues></_></weakClassifiers></_>
    <!-- stage 18 -->
    <_>
      <maxWeakCount>12</maxWeakCount>
      <stageThreshold>-3.7835597991943359e-01</stageThreshold>
      <weakClassifiers>
        <_>
          <internalNodes>
            0 -1 68 -5.9545531868934631e-02</internalNodes>
          <leafValues>
            -4.1176471114158630e-01 7.3144876956939697e-01</leafValues></_>
        <_>
          <internalNodes>
            0 -1 592 1.2353761121630669e-02</internalNodes>
          <leafValues>
            -1.2714672088623047e-01 7.0849323272705078e-01</leafValues></_>
        <_>
          <internalNodes>
            0 -1 419 -3.5962875699624419e-04</internalNodes>
          <leafValues>
            -4.0433955192565918e-01 3.7779662013053894e-01</leafValues></_>
        <_>
          <internalNodes>
            0 -1 151 1.6028504818677902e-02</internalNodes>
          <leafValues>
            -1.7056660354137421e-01 8.5521411895751953e-01</leafValues></_>
        <_>
          <internalNodes>
            0 -1 544 -3.6940656602382660e-02</internalNodes>
          <leafValues>
            7.0615792274475098e-01 -2.2759744524955750e-01</leafValues></_>
        <_>
          <internalNodes>
            0 -1 480 2.4207839742302895e-03</internalNodes>
          <leafValues>
            -2.3176078498363495e-01 6.0587453842163086e-01</leafValues></_>
        <_>
          <internalNodes>
            0 -1 196 -1.2027399241924286e-01</internalNodes>
          <leafValues>
            3.2944753766059875e-01 -4.6301135420799255e-01</leafValues></_>
        <_>
          <internalNodes>
            0 -1 622 1.0665187146514654e-03</internalNodes>
          <leafValues>
            -2.8400981426239014e-01 5.5559223890304565e-01</leafValues></_>
        <_>
          <internalNodes>
            0 -1 288 -2.4683866649866104e-02</internalNodes>
          <leafValues>
            6.9152027368545532e-01 -1.6862708330154419e-01</leafValues></_>
        <_>
          <internalNodes>
            0 -1 529 2.2519737482070923e-02</internalNodes>
          <leafValues>
            -2.1768905222415924e-01 6.6596472263336182e-01</leafValues></_>
        <_>
          <internalNodes>
            0 -1 481 -1.0112160816788673e-03</internalNodes>
          <leafValues>
            5.1234841346740723e-01 -2.6499572396278381e-01</leafValues></_>
        <_>
          <internalNodes>
            0 -1 630 8.1685837358236313e-03</internalNodes>
          <leafValues>
            -1.2465565651655197e-01 1.</leafValues></_></weakClassifiers></_>
    <!-- stage 19 -->
    <_>
      <maxWeakCount>13</maxWeakCount>
      <stageThreshold>-8.1872731447219849e-02</stageThreshold>
      <weakClassifiers>
        <_>
          <internalNodes>
            0 -1 300 4.2446237057447433e-04</internalNodes>
          <leafValues>
            7.6744186878204346e-01 4.7619048506021500e-02</leafValues></_>
        <_>
          <internalNodes>
            0 -1 123 -1.9147118926048279e-01</internalNodes>
          <leafValues>
            6.7406141757965088e-01 -1.7159420251846313e-01</leafValues></_>
        <_>
          <internalNodes>
            0 -1 434 -1.6113074123859406e-01</internalNodes>
          <leafValues>
            2.2014832496643066e-01 -7.7788621187210083e-01</leafValues></_>
        <_>
          <internalNodes>
            0 -1 567 2.4093483807519078e-04</internalNodes>
          <leafValues>
            -3.5319340229034424e-01 4.2317453026771545e-01</leafValues></_>
        <_>
          <internalNodes>
            0 -1 150 -6.7895825486630201e-04</internalNodes>
          <leafValues>
            -5.4921746253967285e-01 2.2874619066715240e-01</leafValues></_>
        <_>
          <internalNodes>
            0 -1 215 1.1711192317306995e-02</internalNodes>
          <leafValues>
            -1.5279924869537354e-01 8.4589511156082153e-01</leafValues></_>
        <_>
          <internalNodes>
            0 -1 30 -4.3103441596031189e-02</internalNodes>
          <leafValues>
            7.3034071922302246e-01 -1.6484138369560242e-01</leafValues></_>
        <_>
          <internalNodes>
            0 -1 207 2.9534255154430866e-03</internalNodes>
          <leafValues>
            -2.5020289421081543e-01 5.0660336017608643e-01</leafValues></_>
        <_>
          <internalNodes>
            0 -1 348 6.5769955515861511e-02</internalNodes>
          <leafValues>
            -1.4109943807125092e-01 7.8156536817550659e-01</leafValues></_>
        <_>
          <internalNodes>
            0 -1 63 3.0705390963703394e-04</internalNodes>
          <leafValues>
            2.6193279027938843e-01 -4.6419936418533325e-01</leafValues></_>
        <_>
          <internalNodes>
            0 -1 459 -4.1317823342978954e-04</internalNodes>
          <leafValues>
            -7.7257865667343140e-01 1.5482336282730103e-01</leafValues></_>
        <_>
          <internalNodes>
            0 -1 487 3.8843310903757811e-04</internalNodes>
          <leafValues>
            -4.2587456107139587e-01 2.7862244844436646e-01</leafValues></_>
        <_>
          <internalNodes>
            0 -1 1 -3.1313044019043446e-03</internalNodes>
          <leafValues>
            -6.8451195955276489e-01 2.0750327408313751e-01</leafValues></_></weakClassifiers></_>
    <!-- stage 20 -->
    <_>
      <maxWeakCount>14</maxWeakCount>
      <stageThreshold>-2.4095113575458527e-01</stageThreshold>
      <weakClassifiers>
        <_>
          <internalNodes>
            0 -1 303 1.0662082582712173e-02</internalNodes>
          <leafValues>
            7.2076791524887085e-01 -4.8148149251937866e-01</leafValues></_>
        <_>
          <internalNodes>
            0 -1 193 -5.8862842619419098e-02</internalNodes>
          <leafValues>
            4.5505961775779724e-01 -1.9902105629444122e-01</leafValues></_>
        <_>
          <internalNodes>
            0 -1 587 -7.1734806988388300e-04</internalNodes>
          <leafValues>
            -4.6264520287513733e-01 2.4770298600196838e-01</leafValues></_>
        <_>
          <internalNodes>
            0 -1 99 1.7826224211603403e-03</internalNodes>
          <leafValues>
            -1.8124812841415405e-01 6.4856481552124023e-01</leafValues></_>
        <_>
          <internalNodes>
            0 -1 184 4.7569681191816926e-04</internalNodes>
          <leafValues>
            1.7278739809989929e-01 -5.8738154172897339e-01</leafValues></_>
        <_>
          <internalNodes>
            0 -1 73 -3.2030932605266571e-02</internalNodes>
          <leafValues>
            5.4981034994125366e-01 -2.3299278318881989e-01</leafValues></_>
        <_>
          <internalNodes>
            0 -1 59 7.5551494956016541e-03</internalNodes>
          <leafValues>
            -1.7953953146934509e-01 5.9426581859588623e-01</leafValues></_>
        <_>
          <internalNodes>
            0 -1 494 -1.7879261868074536e-03</internalNodes>
          <leafValues>
            -8.7121868133544922e-01 1.3146790862083435e-01</leafValues></_>
        <_>
          <internalNodes>
            0 -1 4 -7.9506840556859970e-03</internalNodes>
          <leafValues>
            -6.2832367420196533e-01 1.6296781599521637e-01</leafValues></_>
        <_>
          <internalNodes>
            0 -1 566 -1.3386668637394905e-02</internalNodes>
          <leafValues>
            -6.9490748643875122e-01 1.2419821321964264e-01</leafValues></_>
        <_>
          <internalNodes>
            0 -1 457 -2.4133991973940283e-04</internalNodes>
          <leafValues>
            4.4770088791847229e-01 -2.6683470606803894e-01</leafValues></_>
        <_>
          <internalNodes>
            0 -1 546 1.9219430396333337e-04</internalNodes>
          <leafValues>
            -3.3355081081390381e-01 3.3171662688255310e-01</leafValues></_>
        <_>
          <internalNodes>
            0 -1 463 -2.0805953070521355e-02</internalNodes>
          <leafValues>
            7.6500451564788818e-01 -1.5016739070415497e-01</leafValues></_>
        <_>
          <internalNodes>
            0 -1 525 -1.6487745568156242e-02</internalNodes>
          <leafValues>
            8.6273443698883057e-01 -1.0783807188272476e-01</leafValues></_></weakClassifiers></_>
    <!-- stage 21 -->
    <_>
      <maxWeakCount>12</maxWeakCount>
      <stageThreshold>-3.6585533618927002e-01</stageThreshold>
      <weakClassifiers>
        <_>
          <internalNodes>
            0 -1 287 -2.2221930325031281e-02</internalNodes>
          <leafValues>
            -7.3913043737411499e-01 7.2270363569259644e-01</leafValues></_>
        <_>
          <internalNodes>
            0 -1 50 -1.7130043357610703e-02</internalNodes>
          <leafValues>
            8.4429043531417847e-01 -1.0338216274976730e-01</leafValues></_>
        <_>
          <internalNodes>
            0 -1 475 -1.4345562085509300e-02</internalNodes>
          <leafValues>
            9.8015463352203369e-01 -7.7008888125419617e-02</leafValues></_>
        <_>
          <internalNodes>
            0 -1 531 -2.9723375337198377e-04</internalNodes>
          <leafValues>
            -3.6245438456535339e-01 3.3677846193313599e-01</leafValues></_>
        <_>
          <internalNodes>
            0 -1 354 -2.4154025595635176e-03</internalNodes>
          <leafValues>
            -4.4881606101989746e-01 2.9782450199127197e-01</leafValues></_>
        <_>
          <internalNodes>
            0 -1 383 1.2368746101856232e-03</internalNodes>
          <leafValues>
            1.5693444013595581e-01 -7.9749858379364014e-01</leafValues></_>
        <_>
          <internalNodes>
            0 -1 132 -4.1529748588800430e-02</internalNodes>
          <leafValues>
            7.9109442234039307e-01 -1.8474210798740387e-01</leafValues></_>
        <_>
          <internalNodes>
            0 -1 623 -1.2452872470021248e-03</internalNodes>
          <leafValues>
            -7.2402000427246094e-01 1.6386583447456360e-01</leafValues></_>
        <_>
          <internalNodes>
            0 -1 148 3.2570089388173074e-05</internalNodes>
          <leafValues>
            2.3891074955463409e-01 -5.2828109264373779e-01</leafValues></_>
        <_>
          <internalNodes>
            0 -1 353 1.8509067595005035e-02</internalNodes>
          <leafValues>
            -2.4984331429004669e-01 5.4008108377456665e-01</leafValues></_>
        <_>
          <internalNodes>
            0 -1 58 -1.6304317861795425e-02</internalNodes>
          <leafValues>
            2.4626603722572327e-01 -6.0011285543441772e-01</leafValues></_>
        <_>
          <internalNodes>
            0 -1 321 3.4039258025586605e-04</internalNodes>
          <leafValues>
            2.9890269041061401e-01 -4.0595027804374695e-01</leafValues></_></weakClassifiers></_>
    <!-- stage 22 -->
    <_>
      <maxWeakCount>14</maxWeakCount>
      <stageThreshold>-2.4792248010635376e-01</stageThreshold>
      <weakClassifiers>
        <_>
          <internalNodes>
            0 -1 266 1.7804805189371109e-02</internalNodes>
          <leafValues>
            7.1134018898010254e-01 -7.7777779102325439e-01</leafValues></_>
        <_>
          <internalNodes>
            0 -1 60 -5.3476338507607579e-04</internalNodes>
          <leafValues>
            4.6232119202613831e-01 -2.8948211669921875e-01</leafValues></_>
        <_>
          <internalNodes>
            0 -1 564 2.4818168021738529e-03</internalNodes>
          <leafValues>
            -3.6860215663909912e-01 3.4711420536041260e-01</leafValues></_>
        <_>
          <internalNodes>
            0 -1 424 1.4714242890477180e-02</internalNodes>
          <leafValues>
            -2.1807123720645905e-01 5.5970203876495361e-01</leafValues></_>
        <_>
          <internalNodes>
            0 -1 538 -2.0180441439151764e-02</internalNodes>
          <leafValues>
            1. -1.3310457766056061e-01</leafValues></_>
        <_>
          <internalNodes>
            0 -1 460 -6.1368697788566351e-04</internalNodes>
          <leafValues>
            -6.1092585325241089e-01 2.2935938835144043e-01</leafValues></_>
        <_>
          <internalNodes>
            0 -1 248 -1.2095685303211212e-01</internalNodes>
          <leafValues>
            -1.8459972739219666e-01 7.9921180009841919e-01</leafValues></_>
        <_>
          <internalNodes>
            0 -1 337 3.9232289418578148e-04</internalNodes>
          <leafValues>
            2.4778419733047485e-01 -5.7236653566360474e-01</leafValues></_>
        <_>
          <internalNodes>
            0 -1 373 1.0466336971148849e-03</internalNodes>
          <leafValues>
            -3.9672857522964478e-01 4.5644041895866394e-01</leafValues></_>
        <_>
          <internalNodes>
            0 -1 139 -1.0310132056474686e-02</internalNodes>
          <leafValues>
            3.6423957347869873e-01 -3.6557081341743469e-01</leafValues></_>
        <_>
          <internalNodes>
            0 -1 498 6.8166038545314223e-05</internalNodes>
          <leafValues>
            -3.2924517989158630e-01 3.8703387975692749e-01</leafValues></_>
        <_>
          <internalNodes>
            0 -1 62 1.2537960428744555e-03</internalNodes>
          <leafValues>
            -2.8455820679664612e-01 3.8798063993453979e-01</leafValues></_>
        <_>
          <internalNodes>
            0 -1 397 -4.0345322340726852e-03</internalNodes>
          <leafValues>
            7.1666306257247925e-01 -1.4116415381431580e-01</leafValues></_>
        <_>
          <internalNodes>
            0 -1 23 -5.8373104780912399e-02</internalNodes>
          <leafValues>
            6.2198239564895630e-01 -1.6064701974391937e-01</leafValues></_></weakClassifiers></_>
    <!-- stage 23 -->
    <_>
      <maxWeakCount>15</maxWeakCount>
      <stageThreshold>-3.2610231637954712e-01</stageThreshold>
      <weakClassifiers>
        <_>
          <internalNodes>
            0 -1 459 -2.2458433522842824e-04</internalNodes>
          <leafValues>
            1.3333334028720856e-01 7.6078432798385620e-01</leafValues></_>
        <_>
          <internalNodes>
            0 -1 95 3.0865267035551369e-05</internalNodes>
          <leafValues>
            4.1049608588218689e-01 -3.5936278104782104e-01</leafValues></_>
        <_>
          <internalNodes>
            0 -1 233 1.1614372022449970e-02</internalNodes>
          <leafValues>
            -1.7910684645175934e-01 7.6122373342514038e-01</leafValues></_>
        <_>
          <internalNodes>
            0 -1 270 -9.8798416554927826e-02</internalNodes>
          <leafValues>
            6.3717412948608398e-01 -2.5623142719268799e-01</leafValues></_>
        <_>
          <internalNodes>
            0 -1 326 3.2682865858078003e-03</internalNodes>
          <leafValues>
            3.1149533390998840e-01 -5.2149480581283569e-01</leafValues></_>
        <_>
          <internalNodes>
            0 -1 636 1.5262307133525610e-03</internalNodes>
          <leafValues>
            -3.2389035820960999e-01 3.4334897994995117e-01</leafValues></_>
        <_>
          <internalNodes>
            0 -1 19 -8.7906876578927040e-03</internalNodes>
          <leafValues>
            -6.1737805604934692e-01 2.3135086894035339e-01</leafValues></_>
        <_>
          <internalNodes>
            0 -1 461 -8.9296133955940604e-04</internalNodes>
          <leafValues>
            -6.9084215164184570e-01 1.5529015660285950e-01</leafValues></_>
        <_>
          <internalNodes>
            0 -1 324 8.3546787500381470e-03</internalNodes>
          <leafValues>
            -3.4576302766799927e-01 3.6741155385971069e-01</leafValues></_>
        <_>
          <internalNodes>
            0 -1 134 -2.4669934064149857e-02</internalNodes>
          <leafValues>
            4.6825250983238220e-01 -3.1505665183067322e-01</leafValues></_>
        <_>
          <internalNodes>
            0 -1 3 -3.7249354645609856e-03</internalNodes>
          <leafValues>
            -8.4961444139480591e-01 1.3992287218570709e-01</leafValues></_>
        <_>
          <internalNodes>
            0 -1 649 2.2536679171025753e-04</internalNodes>
          <leafValues>
            2.9836502671241760e-01 -4.4688215851783752e-01</leafValues></_>
        <_>
          <internalNodes>
            0 -1 226 2.4878187105059624e-04</internalNodes>
          <leafValues>
            2.2073858976364136e-01 -5.6341731548309326e-01</leafValues></_>
        <_>
          <internalNodes>
            0 -1 549 2.4524182081222534e-03</internalNodes>
          <leafValues>
            -2.5752055644989014e-01 5.1184868812561035e-01</leafValues></_>
        <_>
          <internalNodes>
            0 -1 247 -1.5042168088257313e-03</internalNodes>
          <leafValues>
            -6.8254292011260986e-01 1.9656823575496674e-01</leafValues></_></weakClassifiers></_>
    <!-- stage 24 -->
    <_>
      <maxWeakCount>13</maxWeakCount>
      <stageThreshold>-3.6601245403289795e-01</stageThreshold>
      <weakClassifiers>
        <_>
          <internalNodes>
            0 -1 220 1.2069977819919586e-03</internalNodes>
          <leafValues>
            7.3214286565780640e-01 -2.5000000000000000e-01</leafValues></_>
        <_>
          <internalNodes>
            0 -1 351 1.1655924026854336e-04</internalNodes>
          <leafValues>
            -1.7962545156478882e-01 5.6497091054916382e-01</leafValues></_>
        <_>
          <internalNodes>
            0 -1 609 2.2617310285568237e-02</internalNodes>
          <leafValues>
            -1.9109421968460083e-01 6.0809952020645142e-01</leafValues></_>
        <_>
          <internalNodes>
            0 -1 298 9.0069114230573177e-04</internalNodes>
          <leafValues>
            1.7171344161033630e-01 -7.3069727420806885e-01</leafValues></_>
        <_>
          <internalNodes>
            0 -1 38 2.1916100755333900e-02</internalNodes>
          <leafValues>
            -1.7923687398433685e-01 9.6017885208129883e-01</leafValues></_>
        <_>
          <internalNodes>
            0 -1 494 6.2250712653622031e-04</internalNodes>
          <leafValues>
            2.6618620753288269e-01 -4.5803880691528320e-01</leafValues></_>
        <_>
          <internalNodes>
            0 -1 545 -3.3855237998068333e-03</internalNodes>
          <leafValues>
            4.3223351240158081e-01 -2.8124251961708069e-01</leafValues></_>
        <_>
          <internalNodes>
            0 -1 37 -3.5660929977893829e-02</internalNodes>
          <leafValues>
            4.0113642811775208e-01 -3.0177950859069824e-01</leafValues></_>
        <_>
          <internalNodes>
            0 -1 16 9.7008779644966125e-02</internalNodes>
          <leafValues>
            -1.5087905526161194e-01 8.4906768798828125e-01</leafValues></_>
        <_>
          <internalNodes>
            0 -1 253 -7.3659332701936364e-04</internalNodes>
          <leafValues>
            -6.1342352628707886e-01 2.2178432345390320e-01</leafValues></_>
        <_>
          <internalNodes>
            0 -1 385 -2.0367396064102650e-03</internalNodes>
          <leafValues>
            -4.6704173088073730e-01 2.3371818661689758e-01</leafValues></_>
        <_>
          <internalNodes>
            0 -1 169 1.6037438064813614e-02</internalNodes>
          <leafValues>
            -2.1796841919422150e-01 5.1681393384933472e-01</leafValues></_>
        <_>
          <internalNodes>
            0 -1 625 -3.9706152165308595e-04</internalNodes>
          <leafValues>
            -5.1116448640823364e-01 2.3449359834194183e-01</leafValues></_></weakClassifiers></_>
    <!-- stage 25 -->
    <_>
      <maxWeakCount>14</maxWeakCount>
      <stageThreshold>-1.7833164334297180e-01</stageThreshold>
      <weakClassifiers>
        <_>
          <internalNodes>
            0 -1 624 -2.3333267308771610e-03</internalNodes>
          <leafValues>
            -3.3333334326744080e-01 7.1378707885742188e-01</leafValues></_>
        <_>
          <internalNodes>
            0 -1 92 -4.9963581841439009e-04</internalNodes>
          <leafValues>
            4.1342106461524963e-01 -3.2366219162940979e-01</leafValues></_>
        <_>
          <internalNodes>
            0 -1 56 -4.9590268172323704e-03</internalNodes>
          <leafValues>
            4.2589879035949707e-01 -2.4546098709106445e-01</leafValues></_>
        <_>
          <internalNodes>
            0 -1 121 1.8005911260843277e-02</internalNodes>
          <leafValues>
            -1.4593169093132019e-01 7.2041910886764526e-01</leafValues></_>
        <_>
          <internalNodes>
            0 -1 213 -1.9636296201497316e-04</internalNodes>
          <leafValues>
            -4.3545934557914734e-01 2.7430602908134460e-01</leafValues></_>
        <_>
          <internalNodes>
            0 -1 225 1.9215715583413839e-03</internalNodes>
          <leafValues>
            -2.6878741383552551e-01 3.8816529512405396e-01</leafValues></_>
        <_>
          <internalNodes>
            0 -1 555 7.1184216067194939e-03</internalNodes>
          <leafValues>
            -2.2465018928050995e-01 5.2795797586441040e-01</leafValues></_>
        <_>
          <internalNodes>
            0 -1 403 -6.2205540016293526e-03</internalNodes>
          <leafValues>
            7.9016476869583130e-01 -1.8856105208396912e-01</leafValues></_>
        <_>
          <internalNodes>
            0 -1 632 1.4492790214717388e-03</internalNodes>
          <leafValues>
            -1.9448028504848480e-01 6.1623722314834595e-01</leafValues></_>
        <_>
          <internalNodes>
            0 -1 417 3.3755244221538305e-03</internalNodes>
          <leafValues>
            -2.9207590222358704e-01 4.4908338785171509e-01</leafValues></_>
        <_>
          <internalNodes>
            0 -1 245 -1.2617558240890503e-03</internalNodes>
          <leafValues>
            4.6011656522750854e-01 -2.4481946229934692e-01</leafValues></_>
        <_>
          <internalNodes>
            0 -1 520 -4.8984336899593472e-04</internalNodes>
          <leafValues>
            3.7738218903541565e-01 -2.8592428565025330e-01</leafValues></_>
        <_>
          <internalNodes>
            0 -1 346 6.5158971119672060e-04</internalNodes>
          <leafValues>
            2.8890687227249146e-01 -4.3724665045738220e-01</leafValues></_>
        <_>
          <internalNodes>
            0 -1 509 8.7083244579844177e-05</internalNodes>
          <leafValues>
            -3.9746361970901489e-01 3.2328662276268005e-01</leafValues></_></weakClassifiers></_>
    <!-- stage 26 -->
    <_>
      <maxWeakCount>12</maxWeakCount>
      <stageThreshold>-1.2457295320928097e-02</stageThreshold>
      <weakClassifiers>
        <_>
          <internalNodes>
            0 -1 543 1.3235609047114849e-02</internalNodes>
          <leafValues>
            7.0497429370880127e-01 -6.4705884456634521e-01</leafValues></_>
        <_>
          <internalNodes>
            0 -1 125 -3.5040829330682755e-02</internalNodes>
          <leafValues>
            7.8626054525375366e-01 -2.5120839476585388e-02</leafValues></_>
        <_>
          <internalNodes>
            0 -1 102 1.3745959848165512e-02</internalNodes>
          <leafValues>
            -1.9232869148254395e-01 6.4354443550109863e-01</leafValues></_>
        <_>
          <internalNodes>
            0 -1 577 -9.9220424890518188e-03</internalNodes>
          <leafValues>
            8.7584269046783447e-01 -1.2241164594888687e-01</leafValues></_>
        <_>
          <internalNodes>
            0 -1 412 -2.1486058831214905e-02</internalNodes>
          <leafValues>
            5.3833276033401489e-01 -2.0067313313484192e-01</leafValues></_>
        <_>
          <internalNodes>
            0 -1 524 -2.1822075359523296e-03</internalNodes>
          <leafValues>
            4.2749634385108948e-01 -3.1760662794113159e-01</leafValues></_>
        <_>
          <internalNodes>
            0 -1 414 -3.7210851907730103e-02</internalNodes>
          <leafValues>
            -7.1683275699615479e-01 1.4699639379978180e-01</leafValues></_>
        <_>
          <internalNodes>
            0 -1 483 3.9782524108886719e-03</internalNodes>
          <leafValues>
            -2.1318262815475464e-01 5.3125911951065063e-01</leafValues></_>
        <_>
          <internalNodes>
            0 -1 216 2.2214386612176895e-02</internalNodes>
          <leafValues>
            -1.4823041856288910e-01 8.8381201028823853e-01</leafValues></_>
        <_>
          <internalNodes>
            0 -1 598 1.6939617693424225e-02</internalNodes>
          <leafValues>
            2.0343507826328278e-01 -6.6821235418319702e-01</leafValues></_>
        <_>
          <internalNodes>
            0 -1 557 7.6946858316659927e-03</internalNodes>
          <leafValues>
            -2.2023677825927734e-01 5.6060320138931274e-01</leafValues></_>
        <_>
          <internalNodes>
            0 -1 599 4.3472466059029102e-03</internalNodes>
          <leafValues>
            -2.4831463396549225e-01 4.7207382321357727e-01</leafValues></_></weakClassifiers></_>
    <!-- stage 27 -->
    <_>
      <maxWeakCount>15</maxWeakCount>
      <stageThreshold>-6.5339997410774231e-02</stageThreshold>
      <weakClassifiers>
        <_>
          <internalNodes>
            0 -1 155 -2.1989296376705170e-01</internalNodes>
          <leafValues>
            -5.0000000000000000e-01 7.1527779102325439e-01</leafValues></_>
        <_>
          <internalNodes>
            0 -1 374 1.7497854423709214e-04</internalNodes>
          <leafValues>
            -2.9954302310943604e-01 4.7764965891838074e-01</leafValues></_>
        <_>
          <internalNodes>
            0 -1 350 -1.9823104958049953e-04</internalNodes>
          <leafValues>
            -3.4397479891777039e-01 3.9344680309295654e-01</leafValues></_>
        <_>
          <internalNodes>
            0 -1 219 3.9198480546474457e-02</internalNodes>
          <leafValues>
            -1.4535558223724365e-01 9.0543121099472046e-01</leafValues></_>
        <_>
          <internalNodes>
            0 -1 85 -8.4571857005357742e-03</internalNodes>
          <leafValues>
            -5.0519227981567383e-01 2.6894885301589966e-01</leafValues></_>
        <_>
          <internalNodes>
            0 -1 439 -1.2760732788592577e-03</internalNodes>
          <leafValues>
            3.6625039577484131e-01 -3.5618832707405090e-01</leafValues></_>
        <_>
          <internalNodes>
            0 -1 323 -1.6006050864234567e-03</internalNodes>
          <leafValues>
            -3.2529124617576599e-01 3.7576562166213989e-01</leafValues></_>
        <_>
          <internalNodes>
            0 -1 613 -4.5344457030296326e-03</internalNodes>
          <leafValues>
            -6.6349416971206665e-01 1.6540397703647614e-01</leafValues></_>
        <_>
          <internalNodes>
            0 -1 513 1.9723167642951012e-03</internalNodes>
          <leafValues>
            -2.2650450468063354e-01 5.0432926416397095e-01</leafValues></_>
        <_>
          <internalNodes>
            0 -1 108 4.9124233191832900e-04</internalNodes>
          <leafValues>
            2.6409366726875305e-01 -4.1357761621475220e-01</leafValues></_>
        <_>
          <internalNodes>
            0 -1 401 -6.3942391425371170e-03</internalNodes>
          <leafValues>
            1.8260586261749268e-01 -5.8381843566894531e-01</leafValues></_>
        <_>
          <internalNodes>
            0 -1 485 -2.6060963864438236e-04</internalNodes>
          <leafValues>
            -3.2047456502914429e-01 3.5887470841407776e-01</leafValues></_>
        <_>
          <internalNodes>
            0 -1 443 1.9024815410375595e-03</internalNodes>
          <leafValues>
            1.8265697360038757e-01 -6.5999472141265869e-01</leafValues></_>
        <_>
          <internalNodes>
            0 -1 563 -1.8775195349007845e-03</internalNodes>
          <leafValues>
            7.5303089618682861e-01 -1.8453754484653473e-01</leafValues></_>
        <_>
          <internalNodes>
            0 -1 595 -1.5224283561110497e-03</internalNodes>
          <leafValues>
            4.4180813431739807e-01 -2.0159380137920380e-01</leafValues></_></weakClassifiers></_>
    <!-- stage 28 -->
    <_>
      <maxWeakCount>16</maxWeakCount>
      <stageThreshold>-2.1823856234550476e-01</stageThreshold>
      <weakClassifiers>
        <_>
          <internalNodes>
            0 -1 311 -6.7135654389858246e-02</internalNodes>
          <leafValues>
            -3.8461539149284363e-01 7.1428573131561279e-01</leafValues></_>
        <_>
          <internalNodes>
            0 -1 458 -7.4189030565321445e-03</internalNodes>
          <leafValues>
            5.9874182939529419e-01 -9.1613747179508209e-02</leafValues></_>
        <_>
          <internalNodes>
            0 -1 202 1.5936393290758133e-02</internalNodes>
          <leafValues>
            -1.1329542100429535e-01 7.1306937932968140e-01</leafValues></_>
        <_>
          <internalNodes>
            0 -1 362 -7.2660925798118114e-04</internalNodes>
          <leafValues>
            -6.1712491512298584e-01 1.5827164053916931e-01</leafValues></_>
        <_>
          <internalNodes>
            0 -1 376 -1.7306361114606261e-03</internalNodes>
          <leafValues>
            -4.8863285779953003e-01 1.6749578714370728e-01</leafValues></_>
        <_>
          <internalNodes>
            0 -1 273 -4.1994571685791016e-02</internalNodes>
          <leafValues>
            1.3505506515502930e-01 -5.6454390287399292e-01</leafValues></_>
        <_>
          <internalNodes>
            0 -1 330 -3.8341496139764786e-02</internalNodes>
          <leafValues>
            -4.8403945565223694e-01 1.9991619884967804e-01</leafValues></_>
        <_>
          <internalNodes>
            0 -1 408 1.8652741564437747e-03</internalNodes>
          <leafValues>
            -2.5505560636520386e-01 3.6510398983955383e-01</leafValues></_>
        <_>
          <internalNodes>
            0 -1 629 -5.1014095544815063e-02</internalNodes>
          <leafValues>
            -7.5545603036880493e-01 1.4515605568885803e-01</leafValues></_>
        <_>
          <internalNodes>
            0 -1 409 5.5972242262214422e-04</internalNodes>
          <leafValues>
            1.6338631510734558e-01 -5.7046848535537720e-01</leafValues></_>
        <_>
          <internalNodes>
            0 -1 551 -1.8411183264106512e-03</internalNodes>
          <leafValues>
            3.6301732063293457e-01 -2.8001731634140015e-01</leafValues></_>
        <_>
          <internalNodes>
            0 -1 644 -1.4011713210493326e-03</internalNodes>
          <leafValues>
            -6.3737279176712036e-01 1.6602855920791626e-01</leafValues></_>
        <_>
          <internalNodes>
            0 -1 536 -1.8481017649173737e-01</internalNodes>
          <leafValues>
            4.4572633504867554e-01 -2.0840387046337128e-01</leafValues></_>
        <_>
          <internalNodes>
            0 -1 522 -7.3297916969750077e-05</internalNodes>
          <leafValues>
            3.5022926330566406e-01 -2.8642597794532776e-01</leafValues></_>
        <_>
          <internalNodes>
            0 -1 20 -5.0232606008648872e-03</internalNodes>
          <leafValues>
            -7.2672313451766968e-01 1.3173143565654755e-01</leafValues></_>
        <_>
          <internalNodes>
            0 -1 291 -1.3474861625581980e-03</internalNodes>
          <leafValues>
            3.9330750703811646e-01 -2.7879929542541504e-01</leafValues></_></weakClassifiers></_>
    <!-- stage 29 -->
    <_>
      <maxWeakCount>15</maxWeakCount>
      <stageThreshold>-2.5653969496488571e-02</stageThreshold>
      <weakClassifiers>
        <_>
          <internalNodes>
            0 -1 113 4.5655131340026855e-02</internalNodes>
          <leafValues>
            7.0154374837875366e-01 -5.2941179275512695e-01</leafValues></_>
        <_>
          <internalNodes>
            0 -1 539 4.0288707241415977e-03</internalNodes>
          <leafValues>
            -8.3978973329067230e-02 6.4628207683563232e-01</leafValues></_>
        <_>
          <internalNodes>
            0 -1 388 -3.6015440127812326e-04</internalNodes>
          <leafValues>
            4.5056015253067017e-01 -2.7005612850189209e-01</leafValues></_>
        <_>
          <internalNodes>
            0 -1 605 2.4842179846018553e-03</internalNodes>
          <leafValues>
            -1.9906044006347656e-01 5.0897389650344849e-01</leafValues></_>
        <_>
          <internalNodes>
            0 -1 165 -6.8336054682731628e-02</internalNodes>
          <leafValues>
            7.0772570371627808e-01 -1.8404360115528107e-01</leafValues></_>
        <_>
          <internalNodes>
            0 -1 82 -5.5378628894686699e-04</internalNodes>
          <leafValues>
            5.1152938604354858e-01 -2.1425661444664001e-01</leafValues></_>
        <_>
          <internalNodes>
            0 -1 528 -2.5286711752414703e-03</internalNodes>
          <leafValues>
            7.6950180530548096e-01 -1.1902045458555222e-01</leafValues></_>
        <_>
          <internalNodes>
            0 -1 394 1.0444762185215950e-02</internalNodes>
          <leafValues>
            -3.6804348230361938e-01 3.3146467804908752e-01</leafValues></_>
        <_>
          <internalNodes>
            0 -1 428 -7.9039903357625008e-04</internalNodes>
          <leafValues>
            5.4236119985580444e-01 -2.3169487714767456e-01</leafValues></_>
        <_>
          <internalNodes>
            0 -1 325 -7.8628852963447571e-02</internalNodes>
          <leafValues>
            -2.2490359842777252e-01 4.8232081532478333e-01</leafValues></_>
        <_>
          <internalNodes>
            0 -1 356 6.2908476684242487e-04</internalNodes>
          <leafValues>
            -1.3268242776393890e-01 7.0142990350723267e-01</leafValues></_>
        <_>
          <internalNodes>
            0 -1 166 -1.1763884127140045e-01</internalNodes>
          <leafValues>
            6.8125981092453003e-01 -1.2507176399230957e-01</leafValues></_>
        <_>
          <internalNodes>
            0 -1 512 -1.0381395928561687e-02</internalNodes>
          <leafValues>
            6.6532713174819946e-01 -1.2105999886989594e-01</leafValues></_>
        <_>
          <internalNodes>
            0 -1 179 -3.3169806003570557e-02</internalNodes>
          <leafValues>
            7.1672338247299194e-01 -1.1539486795663834e-01</leafValues></_>
        <_>
          <internalNodes>
            0 -1 147 -2.0776008022949100e-04</internalNodes>
          <leafValues>
            -4.2833328247070313e-01 2.4681077897548676e-01</leafValues></_></weakClassifiers></_>
    <!-- stage 30 -->
    <_>
      <maxWeakCount>15</maxWeakCount>
      <stageThreshold>-1.4423228800296783e-01</stageThreshold>
      <weakClassifiers>
        <_>
          <internalNodes>
            0 -1 315 -1.8700712826102972e-03</internalNodes>
          <leafValues>
            1.5151515603065491e-01 7.6846307516098022e-01</leafValues></_>
        <_>
          <internalNodes>
            0 -1 127 -9.4443764537572861e-03</internalNodes>
          <leafValues>
            4.9210235476493835e-01 -1.8304076790809631e-01</leafValues></_>
        <_>
          <internalNodes>
            0 -1 181 5.3853772580623627e-02</internalNodes>
          <leafValues>
            -9.9169917404651642e-02 9.5763182640075684e-01</leafValues></_>
        <_>
          <internalNodes>
            0 -1 72 -1.9303247332572937e-02</internalNodes>
          <leafValues>
            3.8007396459579468e-01 -4.3169343471527100e-01</leafValues></_>
        <_>
          <internalNodes>
            0 -1 381 -5.5155744776129723e-03</internalNodes>
          <leafValues>
            -6.3445669412612915e-01 2.0337587594985962e-01</leafValues></_>
        <_>
          <internalNodes>
            0 -1 262 1.5313162293750793e-04</internalNodes>
          <leafValues>
            2.7097979187965393e-01 -4.0921616554260254e-01</leafValues></_>
        <_>
          <internalNodes>
            0 -1 433 -6.3120471313595772e-03</internalNodes>
          <leafValues>
            -5.5220407247543335e-01 2.1124739944934845e-01</leafValues></_>
        <_>
          <internalNodes>
            0 -1 318 -7.5208966154605150e-04</internalNodes>
          <leafValues>
            -3.4458106756210327e-01 2.9477486014366150e-01</leafValues></_>
        <_>
          <internalNodes>
            0 -1 244 -1.8922932446002960e-01</internalNodes>
          <leafValues>
            8.0544346570968628e-01 -1.6260227560997009e-01</leafValues></_>
        <_>
          <internalNodes>
            0 -1 400 -1.0781624354422092e-02</internalNodes>
          <leafValues>
            -3.6870786547660828e-01 3.1773504614830017e-01</leafValues></_>
        <_>
          <internalNodes>
            0 -1 438 -1.1699784547090530e-02</internalNodes>
          <leafValues>
            -5.9274941682815552e-01 1.8474490940570831e-01</leafValues></_>
        <_>
          <internalNodes>
            0 -1 128 -8.6201548576354980e-02</internalNodes>
          <leafValues>
            2.9299449920654297e-01 -3.5546651482582092e-01</leafValues></_>
        <_>
          <internalNodes>
            0 -1 249 -7.8495023772120476e-03</internalNodes>
          <leafValues>
            6.6928446292877197e-01 -1.5679915249347687e-01</leafValues></_>
        <_>
          <internalNodes>
            0 -1 228 -6.6838075872510672e-04</internalNodes>
          <leafValues>
            -4.8714426159858704e-01 2.1385920047760010e-01</leafValues></_>
        <_>
          <internalNodes>
            0 -1 473 -9.7980275750160217e-02</internalNodes>
          <leafValues>
            1.3801467418670654e-01 -7.2601068019866943e-01</leafValues></_></weakClassifiers></_>
    <!-- stage 31 -->
    <_>
      <maxWeakCount>13</maxWeakCount>
      <stageThreshold>-2.4607351422309875e-01</stageThreshold>
      <weakClassifiers>
        <_>
          <internalNodes>
            0 -1 96 1.3216708321124315e-03</internalNodes>
          <leafValues>
            7.3960214853286743e-01 -1.9148936867713928e-01</leafValues></_>
        <_>
          <internalNodes>
            0 -1 380 -5.2067942917346954e-02</internalNodes>
          <leafValues>
            5.2390533685684204e-01 -9.1660596430301666e-02</leafValues></_>
        <_>
          <internalNodes>
            0 -1 71 -1.9068083493039012e-03</internalNodes>
          <leafValues>
            5.0877225399017334e-01 -2.0778401196002960e-01</leafValues></_>
        <_>
          <internalNodes>
            0 -1 476 9.8180389031767845e-03</internalNodes>
          <leafValues>
            -1.0557454824447632e-01 9.0186023712158203e-01</leafValues></_>
        <_>
          <internalNodes>
            0 -1 355 -4.1941426694393158e-02</internalNodes>
          <leafValues>
            7.5782847404479980e-01 -1.5572066605091095e-01</leafValues></_>
        <_>
          <internalNodes>
            0 -1 532 1.8588282167911530e-02</internalNodes>
          <leafValues>
            -1.4393985271453857e-01 7.8486835956573486e-01</leafValues></_>
        <_>
          <internalNodes>
            0 -1 580 1.8028935883194208e-03</internalNodes>
          <leafValues>
            -2.2329159080982208e-01 3.4828063845634460e-01</leafValues></_>
        <_>
          <internalNodes>
            0 -1 335 -1.5523018315434456e-02</internalNodes>
          <leafValues>
            8.2961106300354004e-01 -1.2829981744289398e-01</leafValues></_>
        <_>
          <internalNodes>
            0 -1 260 2.7447551838122308e-04</internalNodes>
          <leafValues>
            2.5635474920272827e-01 -4.8770430684089661e-01</leafValues></_>
        <_>
          <internalNodes>
            0 -1 10 -1.3854651479050517e-04</internalNodes>
          <leafValues>
            -3.9679241180419922e-01 2.5141972303390503e-01</leafValues></_>
        <_>
          <internalNodes>
            0 -1 81 1.5309116570279002e-03</internalNodes>
          <leafValues>
            -2.5241926312446594e-01 3.5908582806587219e-01</leafValues></_>
        <_>
          <internalNodes>
            0 -1 570 5.3078643977642059e-03</internalNodes>
          <leafValues>
            -1.2962451577186584e-01 8.3122199773788452e-01</leafValues></_>
        <_>
          <internalNodes>
            0 -1 575 6.0134334489703178e-03</internalNodes>
          <leafValues>
            -1.7489004135131836e-01 5.9307688474655151e-01</leafValues></_></weakClassifiers></_>
    <!-- stage 32 -->
    <_>
      <maxWeakCount>18</maxWeakCount>
      <stageThreshold>-2.5639137625694275e-01</stageThreshold>
      <weakClassifiers>
        <_>
          <internalNodes>
            0 -1 514 -2.2519733756780624e-02</internalNodes>
          <leafValues>
            -1.7647059261798859e-01 7.1731448173522949e-01</leafValues></_>
        <_>
          <internalNodes>
            0 -1 235 -4.6640848740935326e-03</internalNodes>
          <leafValues>
            8.4038978815078735e-01 1.0201581753790379e-02</leafValues></_>
        <_>
          <internalNodes>
            0 -1 313 5.6588248116895556e-04</internalNodes>
          <leafValues>
            -2.2344060242176056e-01 4.3665730953216553e-01</leafValues></_>
        <_>
          <internalNodes>
            0 -1 371 7.5063225813210011e-04</internalNodes>
          <leafValues>
            -2.0920282602310181e-01 4.4998648762702942e-01</leafValues></_>
        <_>
          <internalNodes>
            0 -1 607 2.3975474759936333e-02</internalNodes>
          <leafValues>
            -1.2749244272708893e-01 8.3993518352508545e-01</leafValues></_>
        <_>
          <internalNodes>
            0 -1 197 -6.7577764391899109e-02</internalNodes>
          <leafValues>
            1.8210370838642120e-01 -5.3386217355728149e-01</leafValues></_>
        <_>
          <internalNodes>
            0 -1 426 -2.7541704475879669e-02</internalNodes>
          <leafValues>
            -2.8810277581214905e-01 3.7066188454627991e-01</leafValues></_>
        <_>
          <internalNodes>
            0 -1 222 -4.2874789796769619e-03</internalNodes>
          <leafValues>
            6.2923371791839600e-01 -1.6370992362499237e-01</leafValues></_>
        <_>
          <internalNodes>
            0 -1 75 -1.6101920045912266e-03</internalNodes>
          <leafValues>
            4.1658306121826172e-01 -2.3856890201568604e-01</leafValues></_>
        <_>
          <internalNodes>
            0 -1 39 -1.1842937674373388e-03</internalNodes>
          <leafValues>
            3.7368860840797424e-01 -2.7939131855964661e-01</leafValues></_>
        <_>
          <internalNodes>
            0 -1 535 1.3797284103929996e-02</internalNodes>
          <leafValues>
            -2.3571410775184631e-01 4.9312004446983337e-01</leafValues></_>
        <_>
          <internalNodes>
            0 -1 112 2.1545041818171740e-03</internalNodes>
          <leafValues>
            -2.0757919549942017e-01 4.8317438364028931e-01</leafValues></_>
        <_>
          <internalNodes>
            0 -1 347 1.4306495431810617e-03</internalNodes>
          <leafValues>
            -3.1455594301223755e-01 3.1746047735214233e-01</leafValues></_>
        <_>
          <internalNodes>
            0 -1 205 -3.8781540933996439e-04</internalNodes>
          <leafValues>
            4.4417592883110046e-01 -2.5290569663047791e-01</leafValues></_>
        <_>
          <internalNodes>
            0 -1 432 -3.9657796733081341e-03</internalNodes>
          <leafValues>
            -8.4784126281738281e-01 1.3157828152179718e-01</leafValues></_>
        <_>
          <internalNodes>
            0 -1 574 1.9379921723157167e-03</internalNodes>
          <leafValues>
            -1.6572387516498566e-01 7.5922626256942749e-01</leafValues></_>
        <_>
          <internalNodes>
            0 -1 572 -1.5664574457332492e-03</internalNodes>
          <leafValues>
            5.7728797197341919e-01 -1.5934242308139801e-01</leafValues></_>
        <_>
          <internalNodes>
            0 -1 379 2.3973278701305389e-02</internalNodes>
          <leafValues>
            2.1590700745582581e-01 -4.9492964148521423e-01</leafValues></_></weakClassifiers></_>
    <!-- stage 33 -->
    <_>
      <maxWeakCount>18</maxWeakCount>
      <stageThreshold>-2.6360324025154114e-01</stageThreshold>
      <weakClassifiers>
        <_>
          <internalNodes>
            0 -1 610 -7.3061375878751278e-03</internalNodes>
          <leafValues>
            -4.7368422150611877e-01 7.0395869016647339e-01</leafValues></_>
        <_>
          <internalNodes>
            0 -1 322 7.4595669284462929e-03</internalNodes>
          <leafValues>
            -2.4315825104713440e-01 4.0433740615844727e-01</leafValues></_>
        <_>
          <internalNodes>
            0 -1 554 -1.2711006402969360e-01</internalNodes>
          <leafValues>
            -4.5434942841529846e-01 2.5346857309341431e-01</leafValues></_>
        <_>
          <internalNodes>
            0 -1 357 1.8144918140023947e-03</internalNodes>
          <leafValues>
            -2.0688810944557190e-01 5.9430259466171265e-01</leafValues></_>
        <_>
          <internalNodes>
            0 -1 33 4.4592849910259247e-02</internalNodes>
          <leafValues>
            -1.4554241299629211e-01 7.8630536794662476e-01</leafValues></_>
        <_>
          <internalNodes>
            0 -1 70 -1.1900730896741152e-03</internalNodes>
          <leafValues>
            3.3383849263191223e-01 -3.3743748068809509e-01</leafValues></_>
        <_>
          <internalNodes>
            0 -1 157 -1.8094483017921448e-01</internalNodes>
          <leafValues>
            4.2360159754753113e-01 -2.3096220195293427e-01</leafValues></_>
        <_>
          <internalNodes>
            0 -1 116 -1.0776417329907417e-03</internalNodes>
          <leafValues>
            -6.4095175266265869e-01 1.7442879080772400e-01</leafValues></_>
        <_>
          <internalNodes>
            0 -1 338 -5.8532878756523132e-04</internalNodes>
          <leafValues>
            -5.3330057859420776e-01 1.6769337654113770e-01</leafValues></_>
        <_>
          <internalNodes>
            0 -1 635 6.9449394941329956e-03</internalNodes>
          <leafValues>
            -1.5985207259654999e-01 6.4729815721511841e-01</leafValues></_>
        <_>
          <internalNodes>
            0 -1 425 -2.1382854320108891e-03</internalNodes>
          <leafValues>
            4.5598375797271729e-01 -2.1945065259933472e-01</leafValues></_>
        <_>
          <internalNodes>
            0 -1 444 6.2005173414945602e-02</internalNodes>
          <leafValues>
            -1.1276052147150040e-01 7.7122628688812256e-01</leafValues></_>
        <_>
          <internalNodes>
            0 -1 615 8.3729159086942673e-04</internalNodes>
          <leafValues>
            2.1443238854408264e-01 -4.2923903465270996e-01</leafValues></_>
        <_>
          <internalNodes>
            0 -1 141 -4.7087870538234711e-02</internalNodes>
          <leafValues>
            5.6003457307815552e-01 -1.7312121391296387e-01</leafValues></_>
        <_>
          <internalNodes>
            0 -1 506 -2.7554843574762344e-02</internalNodes>
          <leafValues>
            8.8040959835052490e-01 -9.6591718494892120e-02</leafValues></_>
        <_>
          <internalNodes>
            0 -1 210 -8.1402279436588287e-02</internalNodes>
          <leafValues>
            -7.8820683062076569e-02 8.7619864940643311e-01</leafValues></_>
        <_>
          <internalNodes>
            0 -1 518 -3.7289981264621019e-03</internalNodes>
          <leafValues>
            -4.0348154306411743e-01 2.8560119867324829e-01</leafValues></_>
        <_>
          <internalNodes>
            0 -1 430 2.5169576983898878e-03</internalNodes>
          <leafValues>
            -3.0136597156524658e-01 3.4013223648071289e-01</leafValues></_></weakClassifiers></_>
    <!-- stage 34 -->
    <_>
      <maxWeakCount>16</maxWeakCount>
      <stageThreshold>-3.1093791127204895e-01</stageThreshold>
      <weakClassifiers>
        <_>
          <internalNodes>
            0 -1 159 -3.8166560232639313e-02</internalNodes>
          <leafValues>
            -4.5454546809196472e-01 7.0934253931045532e-01</leafValues></_>
        <_>
          <internalNodes>
            0 -1 365 -1.7103726277127862e-03</internalNodes>
          <leafValues>
            5.5838221311569214e-01 -1.5829320251941681e-01</leafValues></_>
        <_>
          <internalNodes>
            0 -1 111 -1.2341337278485298e-02</internalNodes>
          <leafValues>
            5.8883255720138550e-01 -1.7541521787643433e-01</leafValues></_>
        <_>
          <internalNodes>
            0 -1 295 1.5274897217750549e-02</internalNodes>
          <leafValues>
            -1.4756873250007629e-01 8.0616712570190430e-01</leafValues></_>
        <_>
          <internalNodes>
            0 -1 194 1.7813444137573242e-02</internalNodes>
          <leafValues>
            -1.0774265974760056e-01 6.8019986152648926e-01</leafValues></_>
        <_>
          <internalNodes>
            0 -1 187 -3.4097850322723389e-02</internalNodes>
          <leafValues>
            5.6833642721176147e-01 -1.5174609422683716e-01</leafValues></_>
        <_>
          <internalNodes>
            0 -1 472 3.8102529942989349e-02</internalNodes>
          <leafValues>
            -1.3202416896820068e-01 7.7055716514587402e-01</leafValues></_>
        <_>
          <internalNodes>
            0 -1 402 -3.5586470039561391e-04</internalNodes>
          <leafValues>
            -4.9577170610427856e-01 2.3537197709083557e-01</leafValues></_>
        <_>
          <internalNodes>
            0 -1 86 -2.6614971458911896e-02</internalNodes>
          <leafValues>
            5.8169764280319214e-01 -1.9955927133560181e-01</leafValues></_>
        <_>
          <internalNodes>
            0 -1 292 1.6825487837195396e-03</internalNodes>
          <leafValues>
            -2.9226091504096985e-01 4.9425908923149109e-01</leafValues></_>
        <_>
          <internalNodes>
            0 -1 369 -4.1880493517965078e-04</internalNodes>
          <leafValues>
            -5.7954770326614380e-01 1.7918866872787476e-01</leafValues></_>
        <_>
          <internalNodes>
            0 -1 0 5.1364698447287083e-04</internalNodes>
          <leafValues>
            2.5110289454460144e-01 -4.0311861038208008e-01</leafValues></_>
        <_>
          <internalNodes>
            0 -1 301 -1.0731190443038940e-02</internalNodes>
          <leafValues>
            2.0494830608367920e-01 -4.1148757934570313e-01</leafValues></_>
        <_>
          <internalNodes>
            0 -1 451 2.6506062597036362e-02</internalNodes>
          <leafValues>
            -1.3028675317764282e-01 8.3052074909210205e-01</leafValues></_>
        <_>
          <internalNodes>
            0 -1 79 9.0586423175409436e-04</internalNodes>
          <leafValues>
            3.4514197707176208e-01 -2.9386717081069946e-01</leafValues></_>
        <_>
          <internalNodes>
            0 -1 76 -2.4109769146889448e-03</internalNodes>
          <leafValues>
            3.0171754956245422e-01 -3.0600199103355408e-01</leafValues></_></weakClassifiers></_>
    <!-- stage 35 -->
    <_>
      <maxWeakCount>17</maxWeakCount>
      <stageThreshold>-3.4231582283973694e-01</stageThreshold>
      <weakClassifiers>
        <_>
          <internalNodes>
            0 -1 149 3.3571239328011870e-04</internalNodes>
          <leafValues>
            7.4859285354614258e-01 1.4925372786819935e-02</leafValues></_>
        <_>
          <internalNodes>
            0 -1 339 -4.9433425068855286e-02</internalNodes>
          <leafValues>
            4.5809960365295410e-01 -2.0416738092899323e-01</leafValues></_>
        <_>
          <internalNodes>
            0 -1 144 7.2692990303039551e-02</internalNodes>
          <leafValues>
            -8.5454829037189484e-02 9.5854926109313965e-01</leafValues></_>
        <_>
          <internalNodes>
            0 -1 46 1.2454723939299583e-02</internalNodes>
          <leafValues>
            -1.1761739850044250e-01 9.2257463932037354e-01</leafValues></_>
        <_>
          <internalNodes>
            0 -1 140 1.4391732111107558e-04</internalNodes>
          <leafValues>
            -2.0561124384403229e-01 4.3696728348731995e-01</leafValues></_>
        <_>
          <internalNodes>
            0 -1 221 9.1427291044965386e-04</internalNodes>
          <leafValues>
            1.8271331489086151e-01 -5.8694124221801758e-01</leafValues></_>
        <_>
          <internalNodes>
            0 -1 442 -1.2331783073022962e-03</internalNodes>
          <leafValues>
            -4.6218156814575195e-01 2.0776122808456421e-01</leafValues></_>
        <_>
          <internalNodes>
            0 -1 440 -1.6952191945165396e-03</internalNodes>
          <leafValues>
            4.4162124395370483e-01 -1.9985802471637726e-01</leafValues></_>
        <_>
          <internalNodes>
            0 -1 590 -3.3841126423794776e-05</internalNodes>
          <leafValues>
            3.7541604042053223e-01 -2.9162681102752686e-01</leafValues></_>
        <_>
          <internalNodes>
            0 -1 213 -4.0409780922345817e-04</internalNodes>
          <leafValues>
            -4.7208988666534424e-01 2.0130214095115662e-01</leafValues></_>
        <_>
          <internalNodes>
            0 -1 32 -5.8758892118930817e-02</internalNodes>
          <leafValues>
            8.2314640283584595e-01 -1.2905979156494141e-01</leafValues></_>
        <_>
          <internalNodes>
            0 -1 561 -6.6561195999383926e-03</internalNodes>
          <leafValues>
            -6.3479083776473999e-01 1.6705472767353058e-01</leafValues></_>
        <_>
          <internalNodes>
            0 -1 77 1.8149042734876275e-03</internalNodes>
          <leafValues>
            -1.8528583645820618e-01 5.6002843379974365e-01</leafValues></_>
        <_>
          <internalNodes>
            0 -1 333 -1.0892869904637337e-03</internalNodes>
          <leafValues>
            4.8670849204063416e-01 -1.9574706256389618e-01</leafValues></_>
        <_>
          <internalNodes>
            0 -1 421 -4.7686975449323654e-03</internalNodes>
          <leafValues>
            -5.1530951261520386e-01 2.0226681232452393e-01</leafValues></_>
        <_>
          <internalNodes>
            0 -1 360 5.4861207900103182e-05</internalNodes>
          <leafValues>
            -3.0155587196350098e-01 2.8984084725379944e-01</leafValues></_>
        <_>
          <internalNodes>
            0 -1 280 -1.3339459896087646e-02</internalNodes>
          <leafValues>
            9.2934435606002808e-01 -1.0230926424264908e-01</leafValues></_></weakClassifiers></_>
    <!-- stage 36 -->
    <_>
      <maxWeakCount>16</maxWeakCount>
      <stageThreshold>-1.5108178555965424e-01</stageThreshold>
      <weakClassifiers>
        <_>
          <internalNodes>
            0 -1 261 1.0274290107190609e-03</internalNodes>
          <leafValues>
            7.0588237047195435e-01 -3.6363637447357178e-01</leafValues></_>
        <_>
          <internalNodes>
            0 -1 14 -2.4451721459627151e-02</internalNodes>
          <leafValues>
            6.9831568002700806e-01 -6.5330222249031067e-02</leafValues></_>
        <_>
          <internalNodes>
            0 -1 328 -6.0668808873742819e-04</internalNodes>
          <leafValues>
            -2.9022979736328125e-01 3.1481209397315979e-01</leafValues></_>
        <_>
          <internalNodes>
            0 -1 504 8.3522479981184006e-03</internalNodes>
          <leafValues>
            -2.1560803055763245e-01 4.3256586790084839e-01</leafValues></_>
        <_>
          <internalNodes>
            0 -1 435 6.2084780074656010e-03</internalNodes>
          <leafValues>
            -1.9159580767154694e-01 5.6707805395126343e-01</leafValues></_>
        <_>
          <internalNodes>
            0 -1 579 8.2735577598214149e-04</internalNodes>
          <leafValues>
            -3.2284763455390930e-01 3.2399827241897583e-01</leafValues></_>
        <_>
          <internalNodes>
            0 -1 541 1.0244836448691785e-04</internalNodes>
          <leafValues>
            -2.8572010993957520e-01 3.2722622156143188e-01</leafValues></_>
        <_>
          <internalNodes>
            0 -1 487 3.7998156622052193e-03</internalNodes>
          <leafValues>
            2.7917468547821045e-01 -3.3710703253746033e-01</leafValues></_>
        <_>
          <internalNodes>
            0 -1 407 3.1014257110655308e-03</internalNodes>
          <leafValues>
            -2.6702252030372620e-01 3.8213574886322021e-01</leafValues></_>
        <_>
          <internalNodes>
            0 -1 455 -4.9682952463626862e-02</internalNodes>
          <leafValues>
            -4.2863592505455017e-01 2.2150030732154846e-01</leafValues></_>
        <_>
          <internalNodes>
            0 -1 449 8.8840574026107788e-03</internalNodes>
          <leafValues>
            -1.5615993738174438e-01 6.6763669252395630e-01</leafValues></_>
        <_>
          <internalNodes>
            0 -1 521 -5.9843109920620918e-03</internalNodes>
          <leafValues>
            6.2030863761901855e-01 -1.2382499128580093e-01</leafValues></_>
        <_>
          <internalNodes>
            0 -1 600 1.4331698417663574e-02</internalNodes>
          <leafValues>
            -1.5869069099426270e-01 5.5254775285720825e-01</leafValues></_>
        <_>
          <internalNodes>
            0 -1 631 -1.7688691150397062e-04</internalNodes>
          <leafValues>
            -4.0971118211746216e-01 2.8623470664024353e-01</leafValues></_>
        <_>
          <internalNodes>
            0 -1 340 -3.8808699697256088e-02</internalNodes>
          <leafValues>
            2.9276210069656372e-01 -3.7743607163429260e-01</leafValues></_>
        <_>
          <internalNodes>
            0 -1 447 1.8499363213777542e-02</internalNodes>
          <leafValues>
            -1.1279691755771637e-01 8.7103146314620972e-01</leafValues></_></weakClassifiers></_>
    <!-- stage 37 -->
    <_>
      <maxWeakCount>15</maxWeakCount>
      <stageThreshold>-3.0167746543884277e-01</stageThreshold>
      <weakClassifiers>
        <_>
          <internalNodes>
            0 -1 188 -5.4225492477416992e-01</internalNodes>
          <leafValues>
            -8.5714286565780640e-01 7.0307165384292603e-01</leafValues></_>
        <_>
          <internalNodes>
            0 -1 337 4.5629794476553798e-04</internalNodes>
          <leafValues>
            3.2326373457908630e-01 -4.2825695872306824e-01</leafValues></_>
        <_>
          <internalNodes>
            0 -1 489 9.5138617325574160e-04</internalNodes>
          <leafValues>
            -2.5762748718261719e-01 3.6692041158676147e-01</leafValues></_>
        <_>
          <internalNodes>
            0 -1 533 2.6462715119123459e-02</internalNodes>
          <leafValues>
            -1.4442251622676849e-01 6.8881684541702271e-01</leafValues></_>
        <_>
          <internalNodes>
            0 -1 209 -7.2995416820049286e-02</internalNodes>
          <leafValues>
            -5.1537311077117920e-01 1.8400405347347260e-01</leafValues></_>
        <_>
          <internalNodes>
            0 -1 162 -1.3812083750963211e-02</internalNodes>
          <leafValues>
            3.6216327548027039e-01 -2.8191179037094116e-01</leafValues></_>
        <_>
          <internalNodes>
            0 -1 627 1.5941713936626911e-03</internalNodes>
          <leafValues>
            -1.6841965913772583e-01 5.8971071243286133e-01</leafValues></_>
        <_>
          <internalNodes>
            0 -1 186 4.6849590726196766e-03</internalNodes>
          <leafValues>
            -1.6553661227226257e-01 5.4816508293151855e-01</leafValues></_>
        <_>
          <internalNodes>
            0 -1 490 -2.4680973729118705e-04</internalNodes>
          <leafValues>
            -5.4281431436538696e-01 2.1793657541275024e-01</leafValues></_>
        <_>
          <internalNodes>
            0 -1 633 -2.6041553355753422e-03</internalNodes>
          <leafValues>
            -6.4671230316162109e-01 1.2643697857856750e-01</leafValues></_>
        <_>
          <internalNodes>
            0 -1 586 1.3148104771971703e-03</internalNodes>
          <leafValues>
            2.1961084008216858e-01 -4.4134113192558289e-01</leafValues></_>
        <_>
          <internalNodes>
            0 -1 206 8.3139975322410464e-04</internalNodes>
          <leafValues>
            -2.1947377920150757e-01 4.1774228215217590e-01</leafValues></_>
        <_>
          <internalNodes>
            0 -1 272 -7.5750839896500111e-03</internalNodes>
          <leafValues>
            4.4823214411735535e-01 -2.0561955869197845e-01</leafValues></_>
        <_>
          <internalNodes>
            0 -1 199 -1.1133514344692230e-02</internalNodes>
          <leafValues>
            4.7220915555953979e-01 -2.1665029227733612e-01</leafValues></_>
        <_>
          <internalNodes>
            0 -1 593 -2.4501577019691467e-02</internalNodes>
          <leafValues>
            -3.6539673805236816e-01 2.9991444945335388e-01</leafValues></_></weakClassifiers></_>
    <!-- stage 38 -->
    <_>
