<?xml version="1.0"?>
<opencv_storage>
<stage45>
  <maxWeakCount>17</maxWeakCount>
  <stageThreshold>-1.6592201590538025e-01</stageThreshold>
  <weakClassifiers>
    <_>
      <internalNodes>
        0 -1 2106 -7.7124428749084473e-01</internalNodes>
      <leafValues>
        7.1378707885742188e-01 -3.3333334326744080e-01</leafValues></_>
    <_>
      <internalNodes>
        0 -1 75239 -3.7463242188096046e-04</internalNodes>
      <leafValues>
        -1.7836458981037140e-01 4.2926168441772461e-01</leafValues></_>
    <_>
      <internalNodes>
        0 -1 26863 -8.9199870824813843e-02</internalNodes>
      <leafValues>
        -1.2905840575695038e-01 7.3853600025177002e-01</leafValues></_>
    <_>
      <internalNodes>
        0 -1 22444 3.6601007450371981e-03</internalNodes>
      <leafValues>
        -1.5750141441822052e-01 6.3099598884582520e-01</leafValues></_>
    <_>
      <internalNodes>
        0 -1 21596 -5.9370941016823053e-05</internalNodes>
      <leafValues>
        2.5638490915298462e-01 -3.9572617411613464e-01</leafValues></_>
    <_>
      <internalNodes>
        0 -1 9159 -4.2419604957103729e-02</internalNodes>
      <leafValues>
        8.3326560258865356e-01 -1.5120694041252136e-01</leafValues></_>
    <_>
      <internalNodes>
        0 -1 64908 -5.2565252408385277e-03</internalNodes>
      <leafValues>
        6.4531123638153076e-01 -1.1863105744123459e-01</leafValues></_>
    <_>
      <internalNodes>
        0 -1 8066 3.8952343165874481e-02</internalNodes>
      <leafValues>
        1.8979103863239288e-01 -5.3128367662429810e-01</leafValues></_>
    <_>
      <internalNodes>
        0 -1 77692 -1.1882293969392776e-02</internalNodes>
      <leafValues>
        -3.2863578200340271e-01 2.7587178349494934e-01</leafValues></_>
    <_>
      <internalNodes>
        0 -1 39940 1.2129059061408043e-02</internalNodes>
      <leafValues>
        1.4637807011604309e-01 -5.7480025291442871e-01</leafValues></_>
    <_>
      <internalNodes>
        0 -1 18340 3.1667677685618401e-03</internalNodes>
      <leafValues>
        -2.1199885010719299e-01 4.3229293823242188e-01</leafValues></_>
    <_>
      <internalNodes>
        0 -1 76441 -1.8180361948907375e-03</internalNodes>
      <leafValues>
        -4.5625001192092896e-01 1.9520671665668488e-01</leafValues></_>
    <_>
      <internalNodes>
        0 -1 61672 1.2973869219422340e-02</internalNodes>
      <leafValues>
        -1.2836958467960358e-01 8.4596836566925049e-01</leafValues></_>
    <_>
      <internalNodes>
        0 -1 46544 9.2650076840072870e-04</internalNodes>
      <leafValues>
        -1.0085691511631012e-01 7.0809996128082275e-01</leafValues></_>
    <_>
      <internalNodes>
        0 -1 6919 -1.6473530558869243e-04</internalNodes>
      <leafValues>
        2.8073006868362427e-01 -3.4584161639213562e-01</leafValues></_>
    <_>
      <internalNodes>
        0 -1 22802 1.5948510263115168e-03</internalNodes>
      <leafValues>
        -2.2966769337654114e-01 4.7305566072463989e-01</leafValues></_>
    <_>
      <internalNodes>
        0 -1 77628 1.5826902817934752e-03</internalNodes>
      <leafValues>
        -1.4735980331897736e-01 6.3936263322830200e-01</leafValues></_></weakClassifiers></stage45>
</opencv_storage>
