<?xml version="1.0"?>
<opencv_storage>
<stage9>
  <maxWeakCount>18</maxWeakCount>
  <stageThreshold>-6.5267735719680786e-01</stageThreshold>
  <weakClassifiers>
    <_>
      <internalNodes>
        0 -1 70341 -7.2764024138450623e-02</internalNodes>
      <leafValues>
        -3.2394367456436157e-01 6.7061358690261841e-01</leafValues></_>
    <_>
      <internalNodes>
        0 -1 54621 5.7250233367085457e-03</internalNodes>
      <leafValues>
        -2.7110895514488220e-01 4.9822515249252319e-01</leafValues></_>
    <_>
      <internalNodes>
        0 -1 40710 -9.9866436794400215e-03</internalNodes>
      <leafValues>
        4.3503561615943909e-01 -3.8586291670799255e-01</leafValues></_>
    <_>
      <internalNodes>
        0 -1 34294 5.7056359946727753e-03</internalNodes>
      <leafValues>
        -2.8313353657722473e-01 3.7980014085769653e-01</leafValues></_>
    <_>
      <internalNodes>
        0 -1 2850 -3.0581012368202209e-02</internalNodes>
      <leafValues>
        7.2969114780426025e-01 -1.7051869630813599e-01</leafValues></_>
    <_>
      <internalNodes>
        0 -1 21260 -3.5993687808513641e-02</internalNodes>
      <leafValues>
        5.3064680099487305e-01 -2.5398021936416626e-01</leafValues></_>
    <_>
      <internalNodes>
        0 -1 28027 7.6790433377027512e-03</internalNodes>
      <leafValues>
        -1.9697757065296173e-01 6.8463993072509766e-01</leafValues></_>
    <_>
      <internalNodes>
        0 -1 65944 -3.4653950482606888e-02</internalNodes>
      <leafValues>
        5.1310014724731445e-01 -1.9899293780326843e-01</leafValues></_>
    <_>
      <internalNodes>
        0 -1 72139 7.9651717096567154e-03</internalNodes>
      <leafValues>
        -1.7438703775405884e-01 6.6223877668380737e-01</leafValues></_>
    <_>
      <internalNodes>
        0 -1 68303 9.2364698648452759e-03</internalNodes>
      <leafValues>
        -1.5717616677284241e-01 5.5555826425552368e-01</leafValues></_>
    <_>
      <internalNodes>
        0 -1 72324 1.2090789154171944e-02</internalNodes>
      <leafValues>
        -2.2666096687316895e-01 4.4723048806190491e-01</leafValues></_>
    <_>
      <internalNodes>
        0 -1 1242 2.5236541405320168e-03</internalNodes>
      <leafValues>
        -2.2625678777694702e-01 3.5953530669212341e-01</leafValues></_>
    <_>
      <internalNodes>
        0 -1 50099 -3.6845167633146048e-03</internalNodes>
      <leafValues>
        6.9915199279785156e-01 -1.2411019206047058e-01</leafValues></_>
    <_>
      <internalNodes>
        0 -1 64533 -1.4476069249212742e-02</internalNodes>
      <leafValues>
        -3.9020740985870361e-01 2.5184914469718933e-01</leafValues></_>
    <_>
      <internalNodes>
        0 -1 76523 -1.1386130005121231e-02</internalNodes>
      <leafValues>
        1.1259836703538895e-01 -7.7398115396499634e-01</leafValues></_>
    <_>
      <internalNodes>
        0 -1 73630 -1.4745511114597321e-02</internalNodes>
      <leafValues>
        4.1341495513916016e-01 -2.1698786318302155e-01</leafValues></_>
    <_>
      <internalNodes>
        0 -1 75894 2.4616234004497528e-02</internalNodes>
      <leafValues>
        -1.5629446506500244e-01 5.8143013715744019e-01</leafValues></_>
    <_>
      <internalNodes>
        0 -1 21476 -6.1035538092255592e-03</internalNodes>
      <leafValues>
        6.6704910993576050e-01 -1.3426420092582703e-01</leafValues></_></weakClassifiers></stage9>
</opencv_storage>
