<?xml version="1.0"?>
<opencv_storage>
<stage22>
  <maxWeakCount>18</maxWeakCount>
  <stageThreshold>-2.7431833744049072e-01</stageThreshold>
  <weakClassifiers>
    <_>
      <internalNodes>
        0 -1 68880 -1.9258742034435272e-01</internalNodes>
      <leafValues>
        -1. 6.3432073593139648e-01</leafValues></_>
    <_>
      <internalNodes>
        0 -1 4867 -3.5638650879263878e-03</internalNodes>
      <leafValues>
        6.3808745145797729e-01 -9.7524844110012054e-02</leafValues></_>
    <_>
      <internalNodes>
        0 -1 66798 -4.9317157268524170e-01</internalNodes>
      <leafValues>
        -2.6495814323425293e-01 4.1813224554061890e-01</leafValues></_>
    <_>
      <internalNodes>
        0 -1 14754 -2.2169281146489084e-04</internalNodes>
      <leafValues>
        2.7637791633605957e-01 -4.1844120621681213e-01</leafValues></_>
    <_>
      <internalNodes>
        0 -1 331 5.2267927676439285e-03</internalNodes>
      <leafValues>
        1.8746365606784821e-01 -5.8016598224639893e-01</leafValues></_>
    <_>
      <internalNodes>
        0 -1 58733 5.4580476135015488e-03</internalNodes>
      <leafValues>
        -2.4337933957576752e-01 3.6680102348327637e-01</leafValues></_>
    <_>
      <internalNodes>
        0 -1 64510 -4.3150512501597404e-03</internalNodes>
      <leafValues>
        -4.5410588383674622e-01 1.8691161274909973e-01</leafValues></_>
    <_>
      <internalNodes>
        0 -1 78149 5.9702369617298245e-04</internalNodes>
      <leafValues>
        -3.4482285380363464e-01 2.3518629372119904e-01</leafValues></_>
    <_>
      <internalNodes>
        0 -1 21044 4.1867764666676521e-03</internalNodes>
      <leafValues>
        -1.4183683693408966e-01 6.5535020828247070e-01</leafValues></_>
    <_>
      <internalNodes>
        0 -1 21720 8.9373541995882988e-03</internalNodes>
      <leafValues>
        -1.2479238212108612e-01 5.6562501192092896e-01</leafValues></_>
    <_>
      <internalNodes>
        0 -1 54612 -4.7199326218105853e-04</internalNodes>
      <leafValues>
        -5.1769191026687622e-01 1.8369641900062561e-01</leafValues></_>
    <_>
      <internalNodes>
        0 -1 34162 -7.5000799261033535e-03</internalNodes>
      <leafValues>
        7.4616301059722900e-01 -1.2946656346321106e-01</leafValues></_>
    <_>
      <internalNodes>
        0 -1 42918 -3.8364671170711517e-02</internalNodes>
      <leafValues>
        -1.8831482529640198e-01 4.2165553569793701e-01</leafValues></_>
    <_>
      <internalNodes>
        0 -1 17813 8.9734523498918861e-05</internalNodes>
      <leafValues>
        -2.0644947886466980e-01 4.0790507197380066e-01</leafValues></_>
    <_>
      <internalNodes>
        0 -1 50183 -5.0645500421524048e-02</internalNodes>
      <leafValues>
        7.6535844802856445e-01 -9.7733162343502045e-02</leafValues></_>
    <_>
      <internalNodes>
        0 -1 2397 -4.8160158097743988e-02</internalNodes>
      <leafValues>
        7.3518085479736328e-01 -8.4002599120140076e-02</leafValues></_>
    <_>
      <internalNodes>
        0 -1 73504 -6.3231773674488068e-04</internalNodes>
      <leafValues>
        -4.3685621023178101e-01 1.9818295538425446e-01</leafValues></_>
    <_>
      <internalNodes>
        0 -1 58595 -7.0431944914162159e-04</internalNodes>
      <leafValues>
        -5.0261765718460083e-01 1.3264907896518707e-01</leafValues></_></weakClassifiers></stage22>
</opencv_storage>
