<?xml version="1.0"?>
<opencv_storage>
<stage36>
  <maxWeakCount>21</maxWeakCount>
  <stageThreshold>-3.8654646277427673e-01</stageThreshold>
  <weakClassifiers>
    <_>
      <internalNodes>
        0 -1 25784 -6.9019179791212082e-03</internalNodes>
      <leafValues>
        -4.1176471114158630e-01 6.5437304973602295e-01</leafValues></_>
    <_>
      <internalNodes>
        0 -1 67728 2.1033104509115219e-02</internalNodes>
      <leafValues>
        -9.6584558486938477e-02 5.3217166662216187e-01</leafValues></_>
    <_>
      <internalNodes>
        0 -1 39998 1.9155168905854225e-02</internalNodes>
      <leafValues>
        -1.7478346824645996e-01 5.0185227394104004e-01</leafValues></_>
    <_>
      <internalNodes>
        0 -1 16768 -1.9718354567885399e-02</internalNodes>
      <leafValues>
        4.3017253279685974e-01 -1.7353527247905731e-01</leafValues></_>
    <_>
      <internalNodes>
        0 -1 77731 -3.7582167424261570e-03</internalNodes>
      <leafValues>
        7.1610569953918457e-01 -9.5677696168422699e-02</leafValues></_>
    <_>
      <internalNodes>
        0 -1 78393 -5.5937739089131355e-03</internalNodes>
      <leafValues>
        1.0001399368047714e-01 -9.1125732660293579e-01</leafValues></_>
    <_>
      <internalNodes>
        0 -1 24777 1.5189581317827106e-03</internalNodes>
      <leafValues>
        -1.6435582935810089e-01 4.3501046299934387e-01</leafValues></_>
    <_>
      <internalNodes>
        0 -1 60305 -4.7299553989432752e-04</internalNodes>
      <leafValues>
        2.2652730345726013e-01 -3.2351863384246826e-01</leafValues></_>
    <_>
      <internalNodes>
        0 -1 21285 2.9166031163185835e-03</internalNodes>
      <leafValues>
        -1.2952773272991180e-01 5.0561541318893433e-01</leafValues></_>
    <_>
      <internalNodes>
        0 -1 8529 -4.9607396125793457e-02</internalNodes>
      <leafValues>
        4.5546627044677734e-01 -1.5010771155357361e-01</leafValues></_>
    <_>
      <internalNodes>
        0 -1 7554 -2.1242392249405384e-03</internalNodes>
      <leafValues>
        3.3856549859046936e-01 -2.4014934897422791e-01</leafValues></_>
    <_>
      <internalNodes>
        0 -1 77509 8.5056270472705364e-04</internalNodes>
      <leafValues>
        -2.5787961483001709e-01 2.8255504369735718e-01</leafValues></_>
    <_>
      <internalNodes>
        0 -1 45025 -3.5456952173262835e-04</internalNodes>
      <leafValues>
        -4.9250882863998413e-01 1.5061900019645691e-01</leafValues></_>
    <_>
      <internalNodes>
        0 -1 78219 3.2418423797935247e-03</internalNodes>
      <leafValues>
        8.4988795220851898e-02 -7.4061530828475952e-01</leafValues></_>
    <_>
      <internalNodes>
        0 -1 37124 -3.0624751001596451e-02</internalNodes>
      <leafValues>
        1. -8.1476286053657532e-02</leafValues></_>
    <_>
      <internalNodes>
        0 -1 50322 -2.6625338941812515e-03</internalNodes>
      <leafValues>
        4.5866388082504272e-01 -1.0881330817937851e-01</leafValues></_>
    <_>
      <internalNodes>
        0 -1 45346 3.6284774541854858e-03</internalNodes>
      <leafValues>
        -1.5937469899654388e-01 4.3254801630973816e-01</leafValues></_>
    <_>
      <internalNodes>
        0 -1 72269 3.5859337076544762e-03</internalNodes>
      <leafValues>
        -1.7748950421810150e-01 3.8316863775253296e-01</leafValues></_>
    <_>
      <internalNodes>
        0 -1 67579 5.0665222108364105e-02</internalNodes>
      <leafValues>
        -1.1793859302997589e-01 5.2379918098449707e-01</leafValues></_>
    <_>
      <internalNodes>
        0 -1 65831 -9.9148899316787720e-02</internalNodes>
      <leafValues>
        1.4567279815673828e-01 -5.7969951629638672e-01</leafValues></_>
    <_>
      <internalNodes>
        0 -1 77013 -6.7670404678210616e-04</internalNodes>
      <leafValues>
        4.6271362900733948e-01 -1.5772306919097900e-01</leafValues></_></weakClassifiers></stage36>
</opencv_storage>
