<?xml version="1.0"?>
<opencv_storage>
<stage17>
  <maxWeakCount>18</maxWeakCount>
  <stageThreshold>-2.9286515712738037e-01</stageThreshold>
  <weakClassifiers>
    <_>
      <internalNodes>
        0 -1 46870 -1.0930750286206603e-03</internalNodes>
      <leafValues>
        -3.7313431501388550e-01 6.6988211870193481e-01</leafValues></_>
    <_>
      <internalNodes>
        0 -1 41800 3.5601372364908457e-03</internalNodes>
      <leafValues>
        2.8913739323616028e-01 -5.2287501096725464e-01</leafValues></_>
    <_>
      <internalNodes>
        0 -1 24352 -9.2200130224227905e-02</internalNodes>
      <leafValues>
        7.3599487543106079e-01 -1.5582576394081116e-01</leafValues></_>
    <_>
      <internalNodes>
        0 -1 78056 -7.9722125083208084e-03</internalNodes>
      <leafValues>
        -6.9239121675491333e-01 1.5320155024528503e-01</leafValues></_>
    <_>
      <internalNodes>
        0 -1 72787 -5.3658830001950264e-03</internalNodes>
      <leafValues>
        -7.5773876905441284e-01 1.0630819201469421e-01</leafValues></_>
    <_>
      <internalNodes>
        0 -1 78435 -9.6116191707551479e-04</internalNodes>
      <leafValues>
        -6.0054224729537964e-01 9.5316164195537567e-02</leafValues></_>
    <_>
      <internalNodes>
        0 -1 76591 2.1127415820956230e-03</internalNodes>
      <leafValues>
        1.1671085655689240e-01 -7.2635400295257568e-01</leafValues></_>
    <_>
      <internalNodes>
        0 -1 42783 1.4221999049186707e-01</internalNodes>
      <leafValues>
        -1.6353015601634979e-01 6.3633221387863159e-01</leafValues></_>
    <_>
      <internalNodes>
        0 -1 74475 -1.0014208033680916e-02</internalNodes>
      <leafValues>
        2.5432947278022766e-01 -3.6609557271003723e-01</leafValues></_>
    <_>
      <internalNodes>
        0 -1 648 3.0464431270956993e-02</internalNodes>
      <leafValues>
        -2.3469243943691254e-01 5.1807898283004761e-01</leafValues></_>
    <_>
      <internalNodes>
        0 -1 50376 -7.8668549656867981e-02</internalNodes>
      <leafValues>
        4.5560511946678162e-01 -2.2384399175643921e-01</leafValues></_>
    <_>
      <internalNodes>
        0 -1 50847 -8.0169050488620996e-04</internalNodes>
      <leafValues>
        -5.4027116298675537e-01 1.7218716442584991e-01</leafValues></_>
    <_>
      <internalNodes>
        0 -1 33913 -2.0595658570528030e-02</internalNodes>
      <leafValues>
        4.9355080723762512e-01 -1.9401542842388153e-01</leafValues></_>
    <_>
      <internalNodes>
        0 -1 50851 -2.2187873255461454e-03</internalNodes>
      <leafValues>
        -5.5210041999816895e-01 1.6260884702205658e-01</leafValues></_>
    <_>
      <internalNodes>
        0 -1 69725 3.7374287843704224e-02</internalNodes>
      <leafValues>
        -1.8645085394382477e-01 5.6384211778640747e-01</leafValues></_>
    <_>
      <internalNodes>
        0 -1 78272 -1.4338346663862467e-03</internalNodes>
      <leafValues>
        -6.6334623098373413e-01 1.4895312488079071e-01</leafValues></_>
    <_>
      <internalNodes>
        0 -1 15776 -1.1722576618194580e-01</internalNodes>
      <leafValues>
        6.4881652593612671e-01 -1.5871407091617584e-01</leafValues></_>
    <_>
      <internalNodes>
        0 -1 25183 3.1827235943637788e-04</internalNodes>
      <leafValues>
        -2.0381891727447510e-01 4.8149561882019043e-01</leafValues></_></weakClassifiers></stage17>
</opencv_storage>
