<?xml version="1.0"?>
<opencv_storage>
<stage15>
  <maxWeakCount>19</maxWeakCount>
  <stageThreshold>-5.3282648324966431e-01</stageThreshold>
  <weakClassifiers>
    <_>
      <internalNodes>
        0 -1 14514 1.3417003210633993e-03</internalNodes>
      <leafValues>
        7.7218937873840332e-01 2.4074074625968933e-01</leafValues></_>
    <_>
      <internalNodes>
        0 -1 34023 3.0774589627981186e-02</internalNodes>
      <leafValues>
        -1.9455605745315552e-01 5.0145471096038818e-01</leafValues></_>
    <_>
      <internalNodes>
        0 -1 1008 5.3721278905868530e-02</internalNodes>
      <leafValues>
        -2.3257531225681305e-01 6.2793451547622681e-01</leafValues></_>
    <_>
      <internalNodes>
        0 -1 2850 -2.6618374511599541e-02</internalNodes>
      <leafValues>
        5.8233761787414551e-01 -2.1221908926963806e-01</leafValues></_>
    <_>
      <internalNodes>
        0 -1 30790 1.0520268697291613e-03</internalNodes>
      <leafValues>
        -3.2275396585464478e-01 3.3676323294639587e-01</leafValues></_>
    <_>
      <internalNodes>
        0 -1 42909 -1.9669444300234318e-03</internalNodes>
      <leafValues>
        -6.5229862928390503e-01 1.5974594652652740e-01</leafValues></_>
    <_>
      <internalNodes>
        0 -1 21736 5.2909413352608681e-04</internalNodes>
      <leafValues>
        1.6458848118782043e-01 -5.8829700946807861e-01</leafValues></_>
    <_>
      <internalNodes>
        0 -1 74533 5.8006579056382179e-03</internalNodes>
      <leafValues>
        -2.8846359252929688e-01 2.9839396476745605e-01</leafValues></_>
    <_>
      <internalNodes>
        0 -1 38699 1.2369923060759902e-03</internalNodes>
      <leafValues>
        1.2477680295705795e-01 -6.8875008821487427e-01</leafValues></_>
    <_>
      <internalNodes>
        0 -1 44891 7.6156258583068848e-02</internalNodes>
      <leafValues>
        -1.1034977436065674e-01 1.</leafValues></_>
    <_>
      <internalNodes>
        0 -1 58785 -3.8091219961643219e-02</internalNodes>
      <leafValues>
        6.0189360380172729e-01 -1.5137442946434021e-01</leafValues></_>
    <_>
      <internalNodes>
        0 -1 15536 -2.1192558109760284e-02</internalNodes>
      <leafValues>
        8.3703297376632690e-01 -1.0094717144966125e-01</leafValues></_>
    <_>
      <internalNodes>
        0 -1 39344 -1.3467241078615189e-03</internalNodes>
      <leafValues>
        -4.1070142388343811e-01 2.3119619488716125e-01</leafValues></_>
    <_>
      <internalNodes>
        0 -1 4915 1.9957382231950760e-02</internalNodes>
      <leafValues>
        -1.3461720943450928e-01 6.3849592208862305e-01</leafValues></_>
    <_>
      <internalNodes>
        0 -1 62057 3.6702328361570835e-04</internalNodes>
      <leafValues>
        -1.8052767217159271e-01 4.2041915655136108e-01</leafValues></_>
    <_>
      <internalNodes>
        0 -1 55008 -8.7798165623098612e-04</internalNodes>
      <leafValues>
        -6.1105948686599731e-01 1.2921260297298431e-01</leafValues></_>
    <_>
      <internalNodes>
        0 -1 10234 -1.3314701616764069e-02</internalNodes>
      <leafValues>
        8.1992936134338379e-01 -1.2006855010986328e-01</leafValues></_>
    <_>
      <internalNodes>
        0 -1 56523 -6.4375504851341248e-02</internalNodes>
      <leafValues>
        8.3575320243835449e-01 -7.0585951209068298e-02</leafValues></_>
    <_>
      <internalNodes>
        0 -1 4756 -8.6519658565521240e-02</internalNodes>
      <leafValues>
        8.0773013830184937e-01 -7.1133725345134735e-02</leafValues></_></weakClassifiers></stage15>
</opencv_storage>
