<?xml version="1.0"?>
<opencv_storage>
<stage41>
  <maxWeakCount>26</maxWeakCount>
  <stageThreshold>-2.4375440180301666e-01</stageThreshold>
  <weakClassifiers>
    <_>
      <internalNodes>
        0 -1 73729 1.3899672776460648e-02</internalNodes>
      <leafValues>
        6.3598757982254028e-01 -4.5454546809196472e-01</leafValues></_>
    <_>
      <internalNodes>
        0 -1 7604 -8.6065483628772199e-05</internalNodes>
      <leafValues>
        2.8796347975730896e-01 -2.7448603510856628e-01</leafValues></_>
    <_>
      <internalNodes>
        0 -1 2336 2.6315916329622269e-03</internalNodes>
      <leafValues>
        -1.7311409115791321e-01 3.6643731594085693e-01</leafValues></_>
    <_>
      <internalNodes>
        0 -1 41498 -6.8676635622978210e-02</internalNodes>
      <leafValues>
        7.3817175626754761e-01 -9.0835578739643097e-02</leafValues></_>
    <_>
      <internalNodes>
        0 -1 24755 -1.1565136909484863e-01</internalNodes>
      <leafValues>
        9.5468652248382568e-01 -9.8448619246482849e-02</leafValues></_>
    <_>
      <internalNodes>
        0 -1 58580 9.4389012083411217e-03</internalNodes>
      <leafValues>
        -2.8275561332702637e-01 2.8387826681137085e-01</leafValues></_>
    <_>
      <internalNodes>
        0 -1 1508 -1.4492674730718136e-02</internalNodes>
      <leafValues>
        5.1862150430679321e-01 -1.2823775410652161e-01</leafValues></_>
    <_>
      <internalNodes>
        0 -1 72859 -8.0357193946838379e-02</internalNodes>
      <leafValues>
        -7.5702476501464844e-01 7.5911298394203186e-02</leafValues></_>
    <_>
      <internalNodes>
        0 -1 56453 7.4582593515515327e-04</internalNodes>
      <leafValues>
        -1.2292419373989105e-01 5.4028993844985962e-01</leafValues></_>
    <_>
      <internalNodes>
        0 -1 22501 -1.5989784151315689e-02</internalNodes>
      <leafValues>
        5.1852244138717651e-01 -9.2920474708080292e-02</leafValues></_>
    <_>
      <internalNodes>
        0 -1 54483 2.0503101870417595e-02</internalNodes>
      <leafValues>
        -9.1443002223968506e-02 6.3999778032302856e-01</leafValues></_>
    <_>
      <internalNodes>
        0 -1 58534 5.7066639419645071e-04</internalNodes>
      <leafValues>
        -2.1765471994876862e-01 2.9790270328521729e-01</leafValues></_>
    <_>
      <internalNodes>
        0 -1 42161 -5.6818767916411161e-04</internalNodes>
      <leafValues>
        -6.1542528867721558e-01 1.1394494771957397e-01</leafValues></_>
    <_>
      <internalNodes>
        0 -1 42161 1.2696075718849897e-03</internalNodes>
      <leafValues>
        8.6500629782676697e-02 -6.4882695674896240e-01</leafValues></_>
    <_>
      <internalNodes>
        0 -1 66578 6.4831934869289398e-03</internalNodes>
      <leafValues>
        -1.0132792592048645e-01 6.5440827608108521e-01</leafValues></_>
    <_>
      <internalNodes>
        0 -1 21680 3.2261788146570325e-04</internalNodes>
      <leafValues>
        -1.9880251586437225e-01 3.2148763537406921e-01</leafValues></_>
    <_>
      <internalNodes>
        0 -1 71634 -2.6037167757749557e-02</internalNodes>
      <leafValues>
        2.2699265182018280e-01 -2.8105923533439636e-01</leafValues></_>
    <_>
      <internalNodes>
        0 -1 70760 -2.6683732867240906e-02</internalNodes>
      <leafValues>
        8.0242788791656494e-01 -8.8608555495738983e-02</leafValues></_>
    <_>
      <internalNodes>
        0 -1 14752 -1.0559008223935962e-03</internalNodes>
      <leafValues>
        -3.7285104393959045e-01 1.6626770794391632e-01</leafValues></_>
    <_>
      <internalNodes>
        0 -1 21014 4.2395005002617836e-03</internalNodes>
      <leafValues>
        -1.2099574506282806e-01 5.4364937543869019e-01</leafValues></_>
    <_>
      <internalNodes>
        0 -1 15589 -9.0677589178085327e-03</internalNodes>
      <leafValues>
        5.2834844589233398e-01 -1.1974686384201050e-01</leafValues></_>
    <_>
      <internalNodes>
        0 -1 39927 7.5486451387405396e-03</internalNodes>
      <leafValues>
        -1.7944698035717010e-01 3.8991454243659973e-01</leafValues></_>
    <_>
      <internalNodes>
        0 -1 280 4.2240969836711884e-02</internalNodes>
      <leafValues>
        1.1749788373708725e-01 -5.3591978549957275e-01</leafValues></_>
    <_>
      <internalNodes>
        0 -1 18687 -6.2028955668210983e-02</internalNodes>
      <leafValues>
        6.5603786706924438e-01 -9.7377300262451172e-02</leafValues></_>
    <_>
      <internalNodes>
        0 -1 60991 -4.0898895822465420e-03</internalNodes>
      <leafValues>
        -4.1738745570182800e-01 1.7302569746971130e-01</leafValues></_>
    <_>
      <internalNodes>
        0 -1 59967 6.1387091409415007e-04</internalNodes>
      <leafValues>
        -1.7349603772163391e-01 4.0112212300300598e-01</leafValues></_></weakClassifiers></stage41>
</opencv_storage>
