<?xml version="1.0"?>
<opencv_storage>
<stage32>
  <maxWeakCount>22</maxWeakCount>
  <stageThreshold>-4.3336936831474304e-01</stageThreshold>
  <weakClassifiers>
    <_>
      <internalNodes>
        0 -1 40703 -3.9195585995912552e-02</internalNodes>
      <leafValues>
        -4.5945945382118225e-01 6.4070612192153931e-01</leafValues></_>
    <_>
      <internalNodes>
        0 -1 74635 1.1235252022743225e-02</internalNodes>
      <leafValues>
        -1.3276383280754089e-01 4.8311734199523926e-01</leafValues></_>
    <_>
      <internalNodes>
        0 -1 54382 3.4827891737222672e-02</internalNodes>
      <leafValues>
        -1.0130950808525085e-01 7.9265546798706055e-01</leafValues></_>
    <_>
      <internalNodes>
        0 -1 59542 -4.9321830272674561e-02</internalNodes>
      <leafValues>
        4.5911338925361633e-01 -1.4954940974712372e-01</leafValues></_>
    <_>
      <internalNodes>
        0 -1 5305 -5.0926784751936793e-05</internalNodes>
      <leafValues>
        2.8144079446792603e-01 -2.8147622942924500e-01</leafValues></_>
    <_>
      <internalNodes>
        0 -1 25815 3.4897271543741226e-03</internalNodes>
      <leafValues>
        -2.6422029733657837e-01 3.4412148594856262e-01</leafValues></_>
    <_>
      <internalNodes>
        0 -1 65721 7.2019896470010281e-04</internalNodes>
      <leafValues>
        -2.2691805660724640e-01 3.3371350169181824e-01</leafValues></_>
    <_>
      <internalNodes>
        0 -1 76932 -1.2758156517520547e-03</internalNodes>
      <leafValues>
        5.6631141901016235e-01 -1.4443038403987885e-01</leafValues></_>
    <_>
      <internalNodes>
        0 -1 21014 4.4812839478254318e-03</internalNodes>
      <leafValues>
        -9.5338374376296997e-02 6.7077326774597168e-01</leafValues></_>
    <_>
      <internalNodes>
        0 -1 23625 -1.0447330772876740e-01</internalNodes>
      <leafValues>
        1.0168851166963577e-01 -8.2990729808807373e-01</leafValues></_>
    <_>
      <internalNodes>
        0 -1 39366 -7.0172809064388275e-03</internalNodes>
      <leafValues>
        -5.9383386373519897e-01 9.4251707196235657e-02</leafValues></_>
    <_>
      <internalNodes>
        0 -1 7428 -3.5290084779262543e-02</internalNodes>
      <leafValues>
        5.3824424743652344e-01 -1.3757377862930298e-01</leafValues></_>
    <_>
      <internalNodes>
        0 -1 6475 -1.7909323796629906e-03</internalNodes>
      <leafValues>
        2.9263916611671448e-01 -2.4955303966999054e-01</leafValues></_>
    <_>
      <internalNodes>
        0 -1 8358 -4.8809852451086044e-03</internalNodes>
      <leafValues>
        4.2672342061996460e-01 -1.6892050206661224e-01</leafValues></_>
    <_>
      <internalNodes>
        0 -1 10604 5.8760745450854301e-03</internalNodes>
      <leafValues>
        -1.2635950744152069e-01 6.0796260833740234e-01</leafValues></_>
    <_>
      <internalNodes>
        0 -1 7686 -3.5896846093237400e-03</internalNodes>
      <leafValues>
        -6.2060850858688354e-01 1.3057024776935577e-01</leafValues></_>
    <_>
      <internalNodes>
        0 -1 4474 -2.2948347032070160e-02</internalNodes>
      <leafValues>
        -6.7435812950134277e-01 8.6426578462123871e-02</leafValues></_>
    <_>
      <internalNodes>
        0 -1 16711 -2.4641146883368492e-03</internalNodes>
      <leafValues>
        5.1170986890792847e-01 -1.4356154203414917e-01</leafValues></_>
    <_>
      <internalNodes>
        0 -1 6035 1.0504765808582306e-01</internalNodes>
      <leafValues>
        -7.1484163403511047e-02 7.5426638126373291e-01</leafValues></_>
    <_>
      <internalNodes>
        0 -1 65757 1.9026168156415224e-03</internalNodes>
      <leafValues>
        1.5077164769172668e-01 -4.8352241516113281e-01</leafValues></_>
    <_>
      <internalNodes>
        0 -1 75714 -1.3932242291048169e-03</internalNodes>
      <leafValues>
        4.2250785231590271e-01 -1.6766163706779480e-01</leafValues></_>
    <_>
      <internalNodes>
        0 -1 65955 4.1124016046524048e-02</internalNodes>
      <leafValues>
        -3.2719796895980835e-01 2.6901334524154663e-01</leafValues></_></weakClassifiers></stage32>
</opencv_storage>
