<?xml version="1.0"?>
<opencv_storage>
<stage45>
  <maxWeakCount>28</maxWeakCount>
  <stageThreshold>-3.5721349716186523e-01</stageThreshold>
  <weakClassifiers>
    <_>
      <internalNodes>
        0 -1 28547 -1.3317365646362305e+00</internalNodes>
      <leafValues>
        -7.1428573131561279e-01 6.3786005973815918e-01</leafValues></_>
    <_>
      <internalNodes>
        0 -1 69461 8.1048626452684402e-03</internalNodes>
      <leafValues>
        -1.4368291944265366e-02 6.6335630416870117e-01</leafValues></_>
    <_>
      <internalNodes>
        0 -1 58975 -3.1019542366266251e-03</internalNodes>
      <leafValues>
        -7.2027671337127686e-01 8.6183071136474609e-02</leafValues></_>
    <_>
      <internalNodes>
        0 -1 11793 1.1949704959988594e-02</internalNodes>
      <leafValues>
        -1.3945901393890381e-01 4.6805551648139954e-01</leafValues></_>
    <_>
      <internalNodes>
        0 -1 68716 -1.1895557690877467e-04</internalNodes>
      <leafValues>
        2.4637183547019958e-01 -2.4372018873691559e-01</leafValues></_>
    <_>
      <internalNodes>
        0 -1 73694 -1.2399245752021670e-03</internalNodes>
      <leafValues>
        3.4537234902381897e-01 -2.1838310360908508e-01</leafValues></_>
    <_>
      <internalNodes>
        0 -1 58587 -1.3100987416692078e-04</internalNodes>
      <leafValues>
        -3.5339015722274780e-01 1.7138078808784485e-01</leafValues></_>
    <_>
      <internalNodes>
        0 -1 24217 3.9881346747279167e-03</internalNodes>
      <leafValues>
        -1.1448912322521210e-01 5.5426496267318726e-01</leafValues></_>
    <_>
      <internalNodes>
        0 -1 75392 4.7575104981660843e-03</internalNodes>
      <leafValues>
        -1.6123767197132111e-01 3.4591069817543030e-01</leafValues></_>
    <_>
      <internalNodes>
        0 -1 73611 -1.1481584049761295e-02</internalNodes>
      <leafValues>
        4.0459451079368591e-01 -2.0482039451599121e-01</leafValues></_>
    <_>
      <internalNodes>
        0 -1 44670 8.0748501932248473e-04</internalNodes>
      <leafValues>
        1.9401149451732635e-01 -2.9419785737991333e-01</leafValues></_>
    <_>
      <internalNodes>
        0 -1 58732 -1.7680115997791290e-02</internalNodes>
      <leafValues>
        -6.7386710643768311e-01 8.4621928632259369e-02</leafValues></_>
    <_>
      <internalNodes>
        0 -1 69408 5.7538254186511040e-03</internalNodes>
      <leafValues>
        -8.4647588431835175e-02 7.9824709892272949e-01</leafValues></_>
    <_>
      <internalNodes>
        0 -1 968 -1.0719776898622513e-01</internalNodes>
      <leafValues>
        8.3752924203872681e-01 -4.3837431818246841e-02</leafValues></_>
    <_>
      <internalNodes>
        0 -1 74931 -2.5661615654826164e-03</internalNodes>
      <leafValues>
        5.7864135503768921e-01 -9.2233523726463318e-02</leafValues></_>
    <_>
      <internalNodes>
        0 -1 78113 1.6420972533524036e-03</internalNodes>
      <leafValues>
        -2.0585837960243225e-01 2.8707641363143921e-01</leafValues></_>
    <_>
      <internalNodes>
        0 -1 58662 1.3613693881779909e-03</internalNodes>
      <leafValues>
        -2.0980240404605865e-01 3.2539319992065430e-01</leafValues></_>
    <_>
      <internalNodes>
        0 -1 7149 -1.3800358865410089e-03</internalNodes>
      <leafValues>
        3.3522260189056396e-01 -1.9410873949527740e-01</leafValues></_>
    <_>
      <internalNodes>
        0 -1 73161 -1.2233242159709334e-03</internalNodes>
      <leafValues>
        4.5205458998680115e-01 -1.4713840186595917e-01</leafValues></_>
    <_>
      <internalNodes>
        0 -1 63718 3.5810865461826324e-02</internalNodes>
      <leafValues>
        -6.2973916530609131e-02 8.1597083806991577e-01</leafValues></_>
    <_>
      <internalNodes>
        0 -1 68487 8.2648918032646179e-04</internalNodes>
      <leafValues>
        -1.9804683327674866e-01 3.2632330060005188e-01</leafValues></_>
    <_>
      <internalNodes>
        0 -1 46483 -3.6397413350641727e-04</internalNodes>
      <leafValues>
        -4.1487631201744080e-01 1.3633987307548523e-01</leafValues></_>
    <_>
      <internalNodes>
        0 -1 33247 8.7905593682080507e-04</internalNodes>
      <leafValues>
        -1.5515322983264923e-01 3.7173789739608765e-01</leafValues></_>
    <_>
      <internalNodes>
        0 -1 21892 -4.1654100641608238e-03</internalNodes>
      <leafValues>
        3.9066949486732483e-01 -1.3775530457496643e-01</leafValues></_>
    <_>
      <internalNodes>
        0 -1 13982 -1.0264703072607517e-02</internalNodes>
      <leafValues>
        -3.5069197416305542e-01 1.6311162710189819e-01</leafValues></_>
    <_>
      <internalNodes>
        0 -1 72649 4.3082050979137421e-03</internalNodes>
      <leafValues>
        8.4586188197135925e-02 -6.9240891933441162e-01</leafValues></_>
    <_>
      <internalNodes>
        0 -1 38841 5.4870015010237694e-03</internalNodes>
      <leafValues>
        -1.1880864202976227e-01 5.3946185111999512e-01</leafValues></_>
    <_>
      <internalNodes>
        0 -1 21738 6.1130558606237173e-04</internalNodes>
      <leafValues>
        1.5585274994373322e-01 -4.0726718306541443e-01</leafValues></_></weakClassifiers></stage45>
</opencv_storage>
