<?xml version="1.0"?>
<opencv_storage>
<stage40>
  <maxWeakCount>26</maxWeakCount>
  <stageThreshold>-4.1613626480102539e-01</stageThreshold>
  <weakClassifiers>
    <_>
      <internalNodes>
        0 -1 74703 -1.5784431248903275e-02</internalNodes>
      <leafValues>
        -7.2727274894714355e-01 6.2985682487487793e-01</leafValues></_>
    <_>
      <internalNodes>
        0 -1 4893 1.7034097108989954e-03</internalNodes>
      <leafValues>
        2.3222863674163818e-01 -4.7165739536285400e-01</leafValues></_>
    <_>
      <internalNodes>
        0 -1 36712 8.4355357103049755e-04</internalNodes>
      <leafValues>
        -2.8772404789924622e-01 2.1298271417617798e-01</leafValues></_>
    <_>
      <internalNodes>
        0 -1 24217 2.4318518117070198e-03</internalNodes>
      <leafValues>
        -1.4283438026905060e-01 4.5487040281295776e-01</leafValues></_>
    <_>
      <internalNodes>
        0 -1 15373 -1.5975284576416016e-01</internalNodes>
      <leafValues>
        3.2370969653129578e-01 -2.0562030375003815e-01</leafValues></_>
    <_>
      <internalNodes>
        0 -1 68062 5.7213924825191498e-02</internalNodes>
      <leafValues>
        -1.5108862519264221e-01 4.9396818876266479e-01</leafValues></_>
    <_>
      <internalNodes>
        0 -1 58562 1.8064294708892703e-03</internalNodes>
      <leafValues>
        -1.7451815307140350e-01 4.2977610230445862e-01</leafValues></_>
    <_>
      <internalNodes>
        0 -1 49796 -4.1545494459569454e-03</internalNodes>
      <leafValues>
        3.2083603739738464e-01 -2.2548367083072662e-01</leafValues></_>
    <_>
      <internalNodes>
        0 -1 5902 -2.2603861987590790e-02</internalNodes>
      <leafValues>
        -3.0717116594314575e-01 1.8919564783573151e-01</leafValues></_>
    <_>
      <internalNodes>
        0 -1 76555 -3.9784766733646393e-02</internalNodes>
      <leafValues>
        -1.6179244220256805e-01 3.4777459502220154e-01</leafValues></_>
    <_>
      <internalNodes>
        0 -1 45110 -4.3137557804584503e-02</internalNodes>
      <leafValues>
        1.5504741668701172e-01 -4.6768411993980408e-01</leafValues></_>
    <_>
      <internalNodes>
        0 -1 77805 8.3595197647809982e-03</internalNodes>
      <leafValues>
        -1.1031961441040039e-01 5.4804742336273193e-01</leafValues></_>
    <_>
      <internalNodes>
        0 -1 54976 3.5291393287479877e-03</internalNodes>
      <leafValues>
        -2.2992318868637085e-01 3.2816541194915771e-01</leafValues></_>
    <_>
      <internalNodes>
        0 -1 62547 1.5411800704896450e-02</internalNodes>
      <leafValues>
        1.2252405285835266e-01 -5.5773061513900757e-01</leafValues></_>
    <_>
      <internalNodes>
        0 -1 33943 4.0609147399663925e-03</internalNodes>
      <leafValues>
        5.9335555881261826e-02 -8.4052067995071411e-01</leafValues></_>
    <_>
      <internalNodes>
        0 -1 10184 -2.3627034388482571e-03</internalNodes>
      <leafValues>
        4.7114881873130798e-01 -1.3156856596469879e-01</leafValues></_>
    <_>
      <internalNodes>
        0 -1 770 9.5222257077693939e-03</internalNodes>
      <leafValues>
        8.4405675530433655e-02 -7.7647221088409424e-01</leafValues></_>
    <_>
      <internalNodes>
        0 -1 67375 -1.9105133833363652e-03</internalNodes>
      <leafValues>
        3.8779696822166443e-01 -1.5197011828422546e-01</leafValues></_>
    <_>
      <internalNodes>
        0 -1 14514 -2.7406383305788040e-03</internalNodes>
      <leafValues>
        2.8138887882232666e-01 -2.2851184010505676e-01</leafValues></_>
    <_>
      <internalNodes>
        0 -1 56064 -1.9096687436103821e-02</internalNodes>
      <leafValues>
        5.3907680511474609e-01 -1.3051243126392365e-01</leafValues></_>
    <_>
      <internalNodes>
        0 -1 54976 -1.0692259296774864e-02</internalNodes>
      <leafValues>
        5.5310940742492676e-01 -9.3174830079078674e-02</leafValues></_>
    <_>
      <internalNodes>
        0 -1 57676 -3.3314824104309082e-02</internalNodes>
      <leafValues>
        3.5767665505409241e-01 -1.6724281013011932e-01</leafValues></_>
    <_>
      <internalNodes>
        0 -1 75553 -3.9647095836699009e-03</internalNodes>
      <leafValues>
        2.4805791676044464e-01 -2.5625824928283691e-01</leafValues></_>
    <_>
      <internalNodes>
        0 -1 3025 -1.6477951407432556e-01</internalNodes>
      <leafValues>
        -7.1378773450851440e-01 8.8439606130123138e-02</leafValues></_>
    <_>
      <internalNodes>
        0 -1 37496 1.4951007324270904e-04</internalNodes>
      <leafValues>
        -3.0022564530372620e-01 2.1376915276050568e-01</leafValues></_>
    <_>
      <internalNodes>
        0 -1 67437 -8.0498568713665009e-03</internalNodes>
      <leafValues>
        -5.6556814908981323e-01 1.0250208526849747e-01</leafValues></_></weakClassifiers></stage40>
</opencv_storage>
