<?xml version="1.0"?>
<opencv_storage>
<stage2>
  <maxWeakCount>7</maxWeakCount>
  <stageThreshold>-1.6361653804779053e-01</stageThreshold>
  <weakClassifiers>
    <_>
      <internalNodes>
        0 -1 20716 -4.4454532861709595e-01</internalNodes>
      <leafValues>
        -9.1111111640930176e-01 7.9459458589553833e-01</leafValues></_>
    <_>
      <internalNodes>
        0 -1 7599 5.0456859171390533e-03</internalNodes>
      <leafValues>
        -1.5936714410781860e-01 1.</leafValues></_>
    <_>
      <internalNodes>
        0 -1 78180 8.0316746607422829e-04</internalNodes>
      <leafValues>
        -2.3008775711059570e-01 9.5465743541717529e-01</leafValues></_>
    <_>
      <internalNodes>
        0 -1 1693 -1.4251993969082832e-02</internalNodes>
      <leafValues>
        7.2656822204589844e-01 -3.2996460795402527e-01</leafValues></_>
    <_>
      <internalNodes>
        0 -1 26181 -5.2527904510498047e-02</internalNodes>
      <leafValues>
        -5.9740197658538818e-01 3.8591167330741882e-01</leafValues></_>
    <_>
      <internalNodes>
        0 -1 36673 6.8079575430601835e-04</internalNodes>
      <leafValues>
        -2.9834645986557007e-01 8.4033137559890747e-01</leafValues></_>
    <_>
      <internalNodes>
        0 -1 7684 -3.1185150146484375e-03</internalNodes>
      <leafValues>
        7.2037273645401001e-01 -3.2635685801506042e-01</leafValues></_></weakClassifiers></stage2>
</opencv_storage>
