<?xml version="1.0"?>
<opencv_storage>
<stage25>
  <maxWeakCount>14</maxWeakCount>
  <stageThreshold>-1.7833164334297180e-01</stageThreshold>
  <weakClassifiers>
    <_>
      <internalNodes>
        0 -1 77602 -2.3333267308771610e-03</internalNodes>
      <leafValues>
        -3.3333334326744080e-01 7.1378707885742188e-01</leafValues></_>
    <_>
      <internalNodes>
        0 -1 7324 -4.9963581841439009e-04</internalNodes>
      <leafValues>
        4.1342106461524963e-01 -3.2366219162940979e-01</leafValues></_>
    <_>
      <internalNodes>
        0 -1 4468 -4.9590268172323704e-03</internalNodes>
      <leafValues>
        4.2589879035949707e-01 -2.4546098709106445e-01</leafValues></_>
    <_>
      <internalNodes>
        0 -1 8463 1.8005911260843277e-02</internalNodes>
      <leafValues>
        -1.4593169093132019e-01 7.2041910886764526e-01</leafValues></_>
    <_>
      <internalNodes>
        0 -1 27473 -1.9636296201497316e-04</internalNodes>
      <leafValues>
        -4.3545934557914734e-01 2.7430602908134460e-01</leafValues></_>
    <_>
      <internalNodes>
        0 -1 28023 1.9215715583413839e-03</internalNodes>
      <leafValues>
        -2.6878741383552551e-01 3.8816529512405396e-01</leafValues></_>
    <_>
      <internalNodes>
        0 -1 72324 7.1184216067194939e-03</internalNodes>
      <leafValues>
        -2.2465018928050995e-01 5.2795797586441040e-01</leafValues></_>
    <_>
      <internalNodes>
        0 -1 54471 -6.2205540016293526e-03</internalNodes>
      <leafValues>
        7.9016476869583130e-01 -1.8856105208396912e-01</leafValues></_>
    <_>
      <internalNodes>
        0 -1 77989 1.4492790214717388e-03</internalNodes>
      <leafValues>
        -1.9448028504848480e-01 6.1623722314834595e-01</leafValues></_>
    <_>
      <internalNodes>
        0 -1 55804 3.3755244221538305e-03</internalNodes>
      <leafValues>
        -2.9207590222358704e-01 4.4908338785171509e-01</leafValues></_>
    <_>
      <internalNodes>
        0 -1 32335 -1.2617558240890503e-03</internalNodes>
      <leafValues>
        4.6011656522750854e-01 -2.4481946229934692e-01</leafValues></_>
    <_>
      <internalNodes>
        0 -1 68846 -4.8984336899593472e-04</internalNodes>
      <leafValues>
        3.7738218903541565e-01 -2.8592428565025330e-01</leafValues></_>
    <_>
      <internalNodes>
        0 -1 46927 6.5158971119672060e-04</internalNodes>
      <leafValues>
        2.8890687227249146e-01 -4.3724665045738220e-01</leafValues></_>
    <_>
      <internalNodes>
        0 -1 68529 8.7083244579844177e-05</internalNodes>
      <leafValues>
        -3.9746361970901489e-01 3.2328662276268005e-01</leafValues></_></weakClassifiers></stage25>
</opencv_storage>
