<?xml version="1.0"?>
<opencv_storage>
<stage29>
  <maxWeakCount>27</maxWeakCount>
  <stageThreshold>-4.6573984622955322e-01</stageThreshold>
  <weakClassifiers>
    <_>
      <internalNodes>
        0 -1 50547 -1.6312856227159500e-02</internalNodes>
      <leafValues>
        -4.2857143282890320e-01 6.3730567693710327e-01</leafValues></_>
    <_>
      <internalNodes>
        0 -1 2839 -8.4775192663073540e-03</internalNodes>
      <leafValues>
        5.1918405294418335e-01 -7.7052630484104156e-02</leafValues></_>
    <_>
      <internalNodes>
        0 -1 24168 6.7826835438609123e-03</internalNodes>
      <leafValues>
        -2.2934521734714508e-01 3.0905699729919434e-01</leafValues></_>
    <_>
      <internalNodes>
        0 -1 68959 -1.5609422698616982e-03</internalNodes>
      <leafValues>
        2.2756387293338776e-01 -3.1051930785179138e-01</leafValues></_>
    <_>
      <internalNodes>
        0 -1 58312 1.1362702585756779e-02</internalNodes>
      <leafValues>
        -2.8119608759880066e-01 2.4882258474826813e-01</leafValues></_>
    <_>
      <internalNodes>
        0 -1 5314 -5.0834454596042633e-03</internalNodes>
      <leafValues>
        5.5057674646377563e-01 -1.2943077087402344e-01</leafValues></_>
    <_>
      <internalNodes>
        0 -1 6390 3.5056830383837223e-03</internalNodes>
      <leafValues>
        1.0756726562976837e-01 -6.0538887977600098e-01</leafValues></_>
    <_>
      <internalNodes>
        0 -1 16150 4.6677365899085999e-03</internalNodes>
      <leafValues>
        -1.7673891782760620e-01 4.3618246912956238e-01</leafValues></_>
    <_>
      <internalNodes>
        0 -1 65735 -9.6429680706933141e-04</internalNodes>
      <leafValues>
        -6.1551016569137573e-01 1.0416667908430099e-01</leafValues></_>
    <_>
      <internalNodes>
        0 -1 57508 4.7565408051013947e-02</internalNodes>
      <leafValues>
        -1.1136484146118164e-01 5.8752810955047607e-01</leafValues></_>
    <_>
      <internalNodes>
        0 -1 72795 -1.9746161997318268e-02</internalNodes>
      <leafValues>
        4.2894878983497620e-01 -2.0619319379329681e-01</leafValues></_>
    <_>
      <internalNodes>
        0 -1 74731 -4.7705909237265587e-03</internalNodes>
      <leafValues>
        -6.9656085968017578e-01 9.7869753837585449e-02</leafValues></_>
    <_>
      <internalNodes>
        0 -1 63167 1.1735485866665840e-02</internalNodes>
      <leafValues>
        -1.7594258487224579e-01 4.0314859151840210e-01</leafValues></_>
    <_>
      <internalNodes>
        0 -1 10843 -1.2968029826879501e-02</internalNodes>
      <leafValues>
        2.9705506563186646e-01 -2.1680322289466858e-01</leafValues></_>
    <_>
      <internalNodes>
        0 -1 60015 2.5874345737975091e-05</internalNodes>
      <leafValues>
        -1.9904887676239014e-01 3.2346811890602112e-01</leafValues></_>
    <_>
      <internalNodes>
        0 -1 331 -6.2604499980807304e-03</internalNodes>
      <leafValues>
        -6.9376307725906372e-01 1.0342945903539658e-01</leafValues></_>
    <_>
      <internalNodes>
        0 -1 68838 -1.0696057230234146e-02</internalNodes>
      <leafValues>
        -6.4122205972671509e-01 8.8606886565685272e-02</leafValues></_>
    <_>
      <internalNodes>
        0 -1 77889 3.9118347922340035e-04</internalNodes>
      <leafValues>
        -1.9678311049938202e-01 3.1555774807929993e-01</leafValues></_>
    <_>
      <internalNodes>
        0 -1 65818 -7.1646660217083991e-05</internalNodes>
      <leafValues>
        2.4657028913497925e-01 -2.5445947051048279e-01</leafValues></_>
    <_>
      <internalNodes>
        0 -1 33788 -4.6556200832128525e-03</internalNodes>
      <leafValues>
        3.7798747420310974e-01 -1.5749447047710419e-01</leafValues></_>
    <_>
      <internalNodes>
        0 -1 71338 -2.0949890837073326e-02</internalNodes>
      <leafValues>
        4.2311799526214600e-01 -1.6371090710163116e-01</leafValues></_>
    <_>
      <internalNodes>
        0 -1 15142 -5.8030135929584503e-02</internalNodes>
      <leafValues>
        3.5261332988739014e-01 -1.8253608047962189e-01</leafValues></_>
    <_>
      <internalNodes>
        0 -1 58632 -4.2185205966234207e-03</internalNodes>
      <leafValues>
        -3.9610189199447632e-01 1.5700756013393402e-01</leafValues></_>
    <_>
      <internalNodes>
        0 -1 76286 1.2257054913789034e-03</internalNodes>
      <leafValues>
        -1.6470018029212952e-01 3.7066230177879333e-01</leafValues></_>
    <_>
      <internalNodes>
        0 -1 68775 -1.6721533611416817e-02</internalNodes>
      <leafValues>
        8.6626254022121429e-02 -7.2069704532623291e-01</leafValues></_>
    <_>
      <internalNodes>
        0 -1 7625 2.1278646308928728e-03</internalNodes>
      <leafValues>
        1.0479380935430527e-01 -5.1481068134307861e-01</leafValues></_>
    <_>
      <internalNodes>
        0 -1 44707 -1.1641823220998049e-03</internalNodes>
      <leafValues>
        -2.6751413941383362e-01 2.2946362197399139e-01</leafValues></_></weakClassifiers></stage29>
</opencv_storage>
