<?xml version="1.0"?>
<opencv_storage>
<stage27>
  <maxWeakCount>21</maxWeakCount>
  <stageThreshold>-3.8573777675628662e-01</stageThreshold>
  <weakClassifiers>
    <_>
      <internalNodes>
        0 -1 12729 -5.5834077298641205e-02</internalNodes>
      <leafValues>
        -2.6470589637756348e-01 6.6309010982513428e-01</leafValues></_>
    <_>
      <internalNodes>
        0 -1 17165 -7.1463443338871002e-02</internalNodes>
      <leafValues>
        4.1070240736007690e-01 -2.0908214151859283e-01</leafValues></_>
    <_>
      <internalNodes>
        0 -1 21376 -2.4817311204969883e-03</internalNodes>
      <leafValues>
        2.8151968121528625e-01 -2.6097476482391357e-01</leafValues></_>
    <_>
      <internalNodes>
        0 -1 27867 3.0149608850479126e-02</internalNodes>
      <leafValues>
        -9.6335403621196747e-02 8.7084865570068359e-01</leafValues></_>
    <_>
      <internalNodes>
        0 -1 28632 7.2511592879891396e-03</internalNodes>
      <leafValues>
        -1.8909242749214172e-01 4.2966082692146301e-01</leafValues></_>
    <_>
      <internalNodes>
        0 -1 6406 -7.7120768837630749e-03</internalNodes>
      <leafValues>
        5.6132441759109497e-01 -1.1658132821321487e-01</leafValues></_>
    <_>
      <internalNodes>
        0 -1 45156 3.7866798229515553e-03</internalNodes>
      <leafValues>
        8.7169662117958069e-02 -7.6902896165847778e-01</leafValues></_>
    <_>
      <internalNodes>
        0 -1 56444 -3.3965565264225006e-02</internalNodes>
      <leafValues>
        8.5334074497222900e-01 -9.7372867166996002e-02</leafValues></_>
    <_>
      <internalNodes>
        0 -1 45519 -1.3011358678340912e-02</internalNodes>
      <leafValues>
        7.4305677413940430e-01 -9.1430261731147766e-02</leafValues></_>
    <_>
      <internalNodes>
        0 -1 54615 -2.5779232382774353e-02</internalNodes>
      <leafValues>
        -3.5903149843215942e-01 2.2555811703205109e-01</leafValues></_>
    <_>
      <internalNodes>
        0 -1 78248 -3.8240912836045027e-03</internalNodes>
      <leafValues>
        -4.7060981392860413e-01 1.5880428254604340e-01</leafValues></_>
    <_>
      <internalNodes>
        0 -1 45136 -2.3518828675150871e-04</internalNodes>
      <leafValues>
        -3.2238963246345520e-01 1.8841052055358887e-01</leafValues></_>
    <_>
      <internalNodes>
        0 -1 28007 2.6693583931773901e-03</internalNodes>
      <leafValues>
        -1.5069574117660522e-01 4.2832314968109131e-01</leafValues></_>
    <_>
      <internalNodes>
        0 -1 33316 4.3170392513275146e-02</internalNodes>
      <leafValues>
        1.1278744041919708e-01 -5.0270372629165649e-01</leafValues></_>
    <_>
      <internalNodes>
        0 -1 44194 -4.6314664185047150e-02</internalNodes>
      <leafValues>
        8.2129174470901489e-01 -8.9576341211795807e-02</leafValues></_>
    <_>
      <internalNodes>
        0 -1 214 4.3918866664171219e-02</internalNodes>
      <leafValues>
        1.1039450019598007e-01 -7.2157829999923706e-01</leafValues></_>
    <_>
      <internalNodes>
        0 -1 59433 4.0384917519986629e-04</internalNodes>
      <leafValues>
        -2.2524595260620117e-01 2.9201236367225647e-01</leafValues></_>
    <_>
      <internalNodes>
        0 -1 40307 -4.0244415402412415e-02</internalNodes>
      <leafValues>
        6.1150592565536499e-01 -1.1613071709871292e-01</leafValues></_>
    <_>
      <internalNodes>
        0 -1 46054 -3.2186991302296519e-04</internalNodes>
      <leafValues>
        -4.2729881405830383e-01 1.7826642096042633e-01</leafValues></_>
    <_>
      <internalNodes>
        0 -1 1440 -3.5654052626341581e-03</internalNodes>
      <leafValues>
        -5.6457269191741943e-01 1.1674137413501740e-01</leafValues></_>
    <_>
      <internalNodes>
        0 -1 27907 -5.8225484099239111e-04</internalNodes>
      <leafValues>
        -4.9496954679489136e-01 1.4227205514907837e-01</leafValues></_></weakClassifiers></stage27>
</opencv_storage>
