<?xml version="1.0"?>
<opencv_storage>
<stage22>
  <maxWeakCount>14</maxWeakCount>
  <stageThreshold>-2.4792248010635376e-01</stageThreshold>
  <weakClassifiers>
    <_>
      <internalNodes>
        0 -1 34254 1.7804805189371109e-02</internalNodes>
      <leafValues>
        7.1134018898010254e-01 -7.7777779102325439e-01</leafValues></_>
    <_>
      <internalNodes>
        0 -1 4972 -5.3476338507607579e-04</internalNodes>
      <leafValues>
        4.6232119202613831e-01 -2.8948211669921875e-01</leafValues></_>
    <_>
      <internalNodes>
        0 -1 73197 2.4818168021738529e-03</internalNodes>
      <leafValues>
        -3.6860215663909912e-01 3.4711420536041260e-01</leafValues></_>
    <_>
      <internalNodes>
        0 -1 56542 1.4714242890477180e-02</internalNodes>
      <leafValues>
        -2.1807123720645905e-01 5.5970203876495361e-01</leafValues></_>
    <_>
      <internalNodes>
        0 -1 70942 -2.0180441439151764e-02</internalNodes>
      <leafValues>
        1. -1.3310457766056061e-01</leafValues></_>
    <_>
      <internalNodes>
        0 -1 62397 -6.1368697788566351e-04</internalNodes>
      <leafValues>
        -6.1092585325241089e-01 2.2935938835144043e-01</leafValues></_>
    <_>
      <internalNodes>
        0 -1 33061 -1.2095685303211212e-01</internalNodes>
      <leafValues>
        -1.8459972739219666e-01 7.9921180009841919e-01</leafValues></_>
    <_>
      <internalNodes>
        0 -1 45136 3.9232289418578148e-04</internalNodes>
      <leafValues>
        2.4778419733047485e-01 -5.7236653566360474e-01</leafValues></_>
    <_>
      <internalNodes>
        0 -1 49936 1.0466336971148849e-03</internalNodes>
      <leafValues>
        -3.9672857522964478e-01 4.5644041895866394e-01</leafValues></_>
    <_>
      <internalNodes>
        0 -1 12913 -1.0310132056474686e-02</internalNodes>
      <leafValues>
        3.6423957347869873e-01 -3.6557081341743469e-01</leafValues></_>
    <_>
      <internalNodes>
        0 -1 66333 6.8166038545314223e-05</internalNodes>
      <leafValues>
        -3.2924517989158630e-01 3.8703387975692749e-01</leafValues></_>
    <_>
      <internalNodes>
        0 -1 5056 1.2537960428744555e-03</internalNodes>
      <leafValues>
        -2.8455820679664612e-01 3.8798063993453979e-01</leafValues></_>
    <_>
      <internalNodes>
        0 -1 53545 -4.0345322340726852e-03</internalNodes>
      <leafValues>
        7.1666306257247925e-01 -1.4116415381431580e-01</leafValues></_>
    <_>
      <internalNodes>
        0 -1 1764 -5.8373104780912399e-02</internalNodes>
      <leafValues>
        6.2198239564895630e-01 -1.6064701974391937e-01</leafValues></_></weakClassifiers></stage22>
</opencv_storage>
