<?xml version="1.0"?>
<opencv_storage>
<stage21>
  <maxWeakCount>13</maxWeakCount>
  <stageThreshold>-4.2257907986640930e-01</stageThreshold>
  <weakClassifiers>
    <_>
      <internalNodes>
        0 -1 78145 3.3603713382035494e-04</internalNodes>
      <leafValues>
        2.1808511018753052e-01 8.3012819290161133e-01</leafValues></_>
    <_>
      <internalNodes>
        0 -1 7546 -3.0664147925563157e-04</internalNodes>
      <leafValues>
        5.1227676868438721e-01 -2.5613033771514893e-01</leafValues></_>
    <_>
      <internalNodes>
        0 -1 30401 2.4507171474397182e-03</internalNodes>
      <leafValues>
        -4.2288833856582642e-01 3.4536319971084595e-01</leafValues></_>
    <_>
      <internalNodes>
        0 -1 34043 -1.4938107132911682e-01</internalNodes>
      <leafValues>
        -2.4597561359405518e-01 4.2348569631576538e-01</leafValues></_>
    <_>
      <internalNodes>
        0 -1 77193 2.1071298979222775e-03</internalNodes>
      <leafValues>
        -2.6264363527297974e-01 5.4201626777648926e-01</leafValues></_>
    <_>
      <internalNodes>
        0 -1 77129 -1.9409583183005452e-03</internalNodes>
      <leafValues>
        4.2150592803955078e-01 -2.3062761127948761e-01</leafValues></_>
    <_>
      <internalNodes>
        0 -1 77854 6.7194941220805049e-04</internalNodes>
      <leafValues>
        -2.6034200191497803e-01 4.4317612051963806e-01</leafValues></_>
    <_>
      <internalNodes>
        0 -1 45694 -8.2258984446525574e-02</internalNodes>
      <leafValues>
        1.4850161969661713e-01 -6.8432706594467163e-01</leafValues></_>
    <_>
      <internalNodes>
        0 -1 21371 -6.5399371087551117e-03</internalNodes>
      <leafValues>
        8.0789470672607422e-01 -1.3603416085243225e-01</leafValues></_>
    <_>
      <internalNodes>
        0 -1 7766 1.6974775120615959e-02</internalNodes>
      <leafValues>
        -1.4058136940002441e-01 5.2459484338760376e-01</leafValues></_>
    <_>
      <internalNodes>
        0 -1 4902 -6.9394418969750404e-03</internalNodes>
      <leafValues>
        5.2734303474426270e-01 -1.8604502081871033e-01</leafValues></_>
    <_>
      <internalNodes>
        0 -1 41747 -6.1395321972668171e-04</internalNodes>
      <leafValues>
        -5.9245884418487549e-01 1.5686267614364624e-01</leafValues></_>
    <_>
      <internalNodes>
        0 -1 39473 -6.7634098231792450e-03</internalNodes>
      <leafValues>
        5.7314246892929077e-01 -1.7773982882499695e-01</leafValues></_></weakClassifiers></stage21>
</opencv_storage>
