<?xml version="1.0"?>
<opencv_storage>
<stage48>
  <maxWeakCount>21</maxWeakCount>
  <stageThreshold>-3.2766032218933105e-01</stageThreshold>
  <weakClassifiers>
    <_>
      <internalNodes>
        0 -1 74325 -6.0425586998462677e-02</internalNodes>
      <leafValues>
        -5.4545456171035767e-01 6.5271967649459839e-01</leafValues></_>
    <_>
      <internalNodes>
        0 -1 14234 -1.2854343280196190e-02</internalNodes>
      <leafValues>
        3.9297932386398315e-01 -1.5133537352085114e-01</leafValues></_>
    <_>
      <internalNodes>
        0 -1 28289 -5.5795390158891678e-02</internalNodes>
      <leafValues>
        2.3968127369880676e-01 -3.4744429588317871e-01</leafValues></_>
    <_>
      <internalNodes>
        0 -1 43118 1.5489704906940460e-01</internalNodes>
      <leafValues>
        -9.0770520269870758e-02 8.2462668418884277e-01</leafValues></_>
    <_>
      <internalNodes>
        0 -1 74853 3.1115473248064518e-03</internalNodes>
      <leafValues>
        -2.0865026116371155e-01 4.6337041258811951e-01</leafValues></_>
    <_>
      <internalNodes>
        0 -1 42220 2.0292662084102631e-03</internalNodes>
      <leafValues>
        -2.4486611783504486e-01 3.3490058779716492e-01</leafValues></_>
    <_>
      <internalNodes>
        0 -1 61829 -1.3837924599647522e-01</internalNodes>
      <leafValues>
        -7.8973287343978882e-01 1.1166930943727493e-01</leafValues></_>
    <_>
      <internalNodes>
        0 -1 7530 -7.0154061540961266e-03</internalNodes>
      <leafValues>
        4.6382540464401245e-01 -1.9246305525302887e-01</leafValues></_>
    <_>
      <internalNodes>
        0 -1 11480 2.6111919432878494e-02</internalNodes>
      <leafValues>
        1.0884193331003189e-01 -7.7791762351989746e-01</leafValues></_>
    <_>
      <internalNodes>
        0 -1 49924 7.4461242184042931e-04</internalNodes>
      <leafValues>
        -2.2327974438667297e-01 3.1513440608978271e-01</leafValues></_>
    <_>
      <internalNodes>
        0 -1 62115 1.0185196995735168e-02</internalNodes>
      <leafValues>
        1.1212325841188431e-01 -7.3240613937377930e-01</leafValues></_>
    <_>
      <internalNodes>
        0 -1 58605 -1.3968879356980324e-03</internalNodes>
      <leafValues>
        -5.5551576614379883e-01 1.1778186261653900e-01</leafValues></_>
    <_>
      <internalNodes>
        0 -1 64844 2.4715177714824677e-02</internalNodes>
      <leafValues>
        -1.4258810877799988e-01 5.5104714632034302e-01</leafValues></_>
    <_>
      <internalNodes>
        0 -1 68480 -1.6253279522061348e-02</internalNodes>
      <leafValues>
        8.7024998664855957e-01 -6.8315990269184113e-02</leafValues></_>
    <_>
      <internalNodes>
        0 -1 7543 5.5157602764666080e-04</internalNodes>
      <leafValues>
        -1.4412274956703186e-01 4.0864646434783936e-01</leafValues></_>
    <_>
      <internalNodes>
        0 -1 65833 -5.0529483705759048e-03</internalNodes>
      <leafValues>
        2.9257336258888245e-01 -2.2481048107147217e-01</leafValues></_>
    <_>
      <internalNodes>
        0 -1 27920 -4.5892153866589069e-03</internalNodes>
      <leafValues>
        -7.3895961046218872e-01 8.9557297527790070e-02</leafValues></_>
    <_>
      <internalNodes>
        0 -1 51746 1.3737502740696073e-04</internalNodes>
      <leafValues>
        -2.4710787832736969e-01 3.0242276191711426e-01</leafValues></_>
    <_>
      <internalNodes>
        0 -1 68954 -2.8178782667964697e-03</internalNodes>
      <leafValues>
        4.2671075463294983e-01 -1.6575764119625092e-01</leafValues></_>
    <_>
      <internalNodes>
        0 -1 77649 -2.3246386263053864e-04</internalNodes>
      <leafValues>
        -2.9872506856918335e-01 2.2221797704696655e-01</leafValues></_>
    <_>
      <internalNodes>
        0 -1 769 -3.5528761800378561e-03</internalNodes>
      <leafValues>
        3.5433003306388855e-01 -2.0155982673168182e-01</leafValues></_></weakClassifiers></stage48>
</opencv_storage>
