<?xml version="1.0"?>
<opencv_storage>
<stage16>
  <maxWeakCount>19</maxWeakCount>
  <stageThreshold>-6.1871230602264404e-01</stageThreshold>
  <weakClassifiers>
    <_>
      <internalNodes>
        0 -1 20343 -7.5059412047266960e-03</internalNodes>
      <leafValues>
        -3.8461539149284363e-01 6.8329715728759766e-01</leafValues></_>
    <_>
      <internalNodes>
        0 -1 22545 1.2115072458982468e-02</internalNodes>
      <leafValues>
        -2.0755076408386230e-01 4.1404831409454346e-01</leafValues></_>
    <_>
      <internalNodes>
        0 -1 62355 2.2795896977186203e-02</internalNodes>
      <leafValues>
        -2.3218192160129547e-01 3.9357918500900269e-01</leafValues></_>
    <_>
      <internalNodes>
        0 -1 76 -6.3649378716945648e-03</internalNodes>
      <leafValues>
        -5.2107924222946167e-01 1.6808217763900757e-01</leafValues></_>
    <_>
      <internalNodes>
        0 -1 7561 1.5423250151798129e-03</internalNodes>
      <leafValues>
        -2.0837859809398651e-01 4.1035848855972290e-01</leafValues></_>
    <_>
      <internalNodes>
        0 -1 19870 4.2795732617378235e-02</internalNodes>
      <leafValues>
        -1.3587738573551178e-01 7.1711057424545288e-01</leafValues></_>
    <_>
      <internalNodes>
        0 -1 1298 -1.9872540235519409e-01</internalNodes>
      <leafValues>
        3.2461535930633545e-01 -2.8715729713439941e-01</leafValues></_>
    <_>
      <internalNodes>
        0 -1 54376 -6.7247256636619568e-02</internalNodes>
      <leafValues>
        -8.2849913835525513e-01 9.9428296089172363e-02</leafValues></_>
    <_>
      <internalNodes>
        0 -1 6404 1.9653458148241043e-03</internalNodes>
      <leafValues>
        -1.5733930468559265e-01 5.5261141061782837e-01</leafValues></_>
    <_>
      <internalNodes>
        0 -1 44829 2.5938063117791899e-05</internalNodes>
      <leafValues>
        -2.4080331623554230e-01 3.3825901150703430e-01</leafValues></_>
    <_>
      <internalNodes>
        0 -1 43431 1.0161969065666199e-01</internalNodes>
      <leafValues>
        -1.3607990741729736e-01 6.6637921333312988e-01</leafValues></_>
    <_>
      <internalNodes>
        0 -1 33964 -1.0323725640773773e-02</internalNodes>
      <leafValues>
        6.1978363990783691e-01 -1.2531305849552155e-01</leafValues></_>
    <_>
      <internalNodes>
        0 -1 7309 -5.8580131735652685e-04</internalNodes>
      <leafValues>
        2.7843889594078064e-01 -2.8498193621635437e-01</leafValues></_>
    <_>
      <internalNodes>
        0 -1 1639 3.6401607096195221e-02</internalNodes>
      <leafValues>
        -1.8616527318954468e-01 5.3343600034713745e-01</leafValues></_>
    <_>
      <internalNodes>
        0 -1 7766 -1.1931443586945534e-02</internalNodes>
      <leafValues>
        5.6664097309112549e-01 -1.5303760766983032e-01</leafValues></_>
    <_>
      <internalNodes>
        0 -1 21736 4.8567901831120253e-04</internalNodes>
      <leafValues>
        1.8634246289730072e-01 -5.3228217363357544e-01</leafValues></_>
    <_>
      <internalNodes>
        0 -1 40500 -5.6255932897329330e-02</internalNodes>
      <leafValues>
        1.0230080783367157e-01 -6.5775233507156372e-01</leafValues></_>
    <_>
      <internalNodes>
        0 -1 50428 -2.2916607558727264e-03</internalNodes>
      <leafValues>
        -6.9658190011978149e-01 1.0547875612974167e-01</leafValues></_>
    <_>
      <internalNodes>
        0 -1 10285 9.8445895127952099e-04</internalNodes>
      <leafValues>
        -2.3135133087635040e-01 3.3947870135307312e-01</leafValues></_></weakClassifiers></stage16>
</opencv_storage>
