<?xml version="1.0"?>
<opencv_storage>
<stage21>
  <maxWeakCount>12</maxWeakCount>
  <stageThreshold>-3.6585533618927002e-01</stageThreshold>
  <weakClassifiers>
    <_>
      <internalNodes>
        0 -1 39383 -2.2221930325031281e-02</internalNodes>
      <leafValues>
        -7.3913043737411499e-01 7.2270363569259644e-01</leafValues></_>
    <_>
      <internalNodes>
        0 -1 4013 -1.7130043357610703e-02</internalNodes>
      <leafValues>
        8.4429043531417847e-01 -1.0338216274976730e-01</leafValues></_>
    <_>
      <internalNodes>
        0 -1 63757 -1.4345562085509300e-02</internalNodes>
      <leafValues>
        9.8015463352203369e-01 -7.7008888125419617e-02</leafValues></_>
    <_>
      <internalNodes>
        0 -1 70320 -2.9723375337198377e-04</internalNodes>
      <leafValues>
        -3.6245438456535339e-01 3.3677846193313599e-01</leafValues></_>
    <_>
      <internalNodes>
        0 -1 47446 -2.4154025595635176e-03</internalNodes>
      <leafValues>
        -4.4881606101989746e-01 2.9782450199127197e-01</leafValues></_>
    <_>
      <internalNodes>
        0 -1 51260 1.2368746101856232e-03</internalNodes>
      <leafValues>
        1.5693444013595581e-01 -7.9749858379364014e-01</leafValues></_>
    <_>
      <internalNodes>
        0 -1 10941 -4.1529748588800430e-02</internalNodes>
      <leafValues>
        7.9109442234039307e-01 -1.8474210798740387e-01</leafValues></_>
    <_>
      <internalNodes>
        0 -1 77572 -1.2452872470021248e-03</internalNodes>
      <leafValues>
        -7.2402000427246094e-01 1.6386583447456360e-01</leafValues></_>
    <_>
      <internalNodes>
        0 -1 14609 3.2570089388173074e-05</internalNodes>
      <leafValues>
        2.3891074955463409e-01 -5.2828109264373779e-01</leafValues></_>
    <_>
      <internalNodes>
        0 -1 47419 1.8509067595005035e-02</internalNodes>
      <leafValues>
        -2.4984331429004669e-01 5.4008108377456665e-01</leafValues></_>
    <_>
      <internalNodes>
        0 -1 4860 -1.6304317861795425e-02</internalNodes>
      <leafValues>
        2.4626603722572327e-01 -6.0011285543441772e-01</leafValues></_>
    <_>
      <internalNodes>
        0 -1 43234 3.4039258025586605e-04</internalNodes>
      <leafValues>
        2.9890269041061401e-01 -4.0595027804374695e-01</leafValues></_></weakClassifiers></stage21>
</opencv_storage>
