<?xml version="1.0"?>
<opencv_storage>
<stage12>
  <maxWeakCount>13</maxWeakCount>
  <stageThreshold>-2.2035729885101318e-01</stageThreshold>
  <weakClassifiers>
    <_>
      <internalNodes>
        0 -1 24039 -1.4082053303718567e-01</internalNodes>
      <leafValues>
        -5.8333331346511841e-01 7.1875000000000000e-01</leafValues></_>
    <_>
      <internalNodes>
        0 -1 34146 2.6177545078098774e-03</internalNodes>
      <leafValues>
        -1.0308848321437836e-01 7.5058257579803467e-01</leafValues></_>
    <_>
      <internalNodes>
        0 -1 27215 -1.7686502542346716e-03</internalNodes>
      <leafValues>
        5.9200841188430786e-01 -2.5990852713584900e-01</leafValues></_>
    <_>
      <internalNodes>
        0 -1 69558 -1.3810839736834168e-03</internalNodes>
      <leafValues>
        4.7624066472053528e-01 -3.3476623892784119e-01</leafValues></_>
    <_>
      <internalNodes>
        0 -1 29633 5.1276809535920620e-03</internalNodes>
      <leafValues>
        -1.7039841413497925e-01 8.3721482753753662e-01</leafValues></_>
    <_>
      <internalNodes>
        0 -1 2828 -1.9292080774903297e-02</internalNodes>
      <leafValues>
        4.6080255508422852e-01 -3.2433313131332397e-01</leafValues></_>
    <_>
      <internalNodes>
        0 -1 743 -1.9403560087084770e-02</internalNodes>
      <leafValues>
        -7.2669732570648193e-01 2.1712577342987061e-01</leafValues></_>
    <_>
      <internalNodes>
        0 -1 58728 -1.9477601163089275e-03</internalNodes>
      <leafValues>
        8.2204419374465942e-01 -1.9064968824386597e-01</leafValues></_>
    <_>
      <internalNodes>
        0 -1 47351 -1.7268994823098183e-02</internalNodes>
      <leafValues>
        7.6969802379608154e-01 -1.3530677556991577e-01</leafValues></_>
    <_>
      <internalNodes>
        0 -1 73342 -4.5902302372269332e-04</internalNodes>
      <leafValues>
        4.4636294245719910e-01 -2.6029315590858459e-01</leafValues></_>
    <_>
      <internalNodes>
        0 -1 13812 -4.2120702564716339e-02</internalNodes>
      <leafValues>
        6.1984103918075562e-01 -2.2617036104202271e-01</leafValues></_>
    <_>
      <internalNodes>
        0 -1 3399 -1.8059287685900927e-04</internalNodes>
      <leafValues>
        3.0609577894210815e-01 -4.9440014362335205e-01</leafValues></_>
    <_>
      <internalNodes>
        0 -1 44965 5.3208312019705772e-03</internalNodes>
      <leafValues>
        -1.4870990812778473e-01 9.4700634479522705e-01</leafValues></_></weakClassifiers></stage12>
</opencv_storage>
