<?xml version="1.0"?>
<opencv_storage>
<stage28>
  <maxWeakCount>25</maxWeakCount>
  <stageThreshold>-4.3556475639343262e-01</stageThreshold>
  <weakClassifiers>
    <_>
      <internalNodes>
        0 -1 7604 8.2132944953627884e-05</internalNodes>
      <leafValues>
        7.1755725145339966e-01 1.6822430491447449e-01</leafValues></_>
    <_>
      <internalNodes>
        0 -1 7610 -9.5212098676711321e-04</internalNodes>
      <leafValues>
        3.6277419328689575e-01 -1.9402588903903961e-01</leafValues></_>
    <_>
      <internalNodes>
        0 -1 76549 1.4804437523707747e-04</internalNodes>
      <leafValues>
        -2.6428273320198059e-01 2.8283214569091797e-01</leafValues></_>
    <_>
      <internalNodes>
        0 -1 21007 -1.5813359059393406e-03</internalNodes>
      <leafValues>
        -3.0097949504852295e-01 2.5225424766540527e-01</leafValues></_>
    <_>
      <internalNodes>
        0 -1 36667 2.2465814836323261e-03</internalNodes>
      <leafValues>
        1.2035030871629715e-01 -6.0239005088806152e-01</leafValues></_>
    <_>
      <internalNodes>
        0 -1 7820 -4.2534776031970978e-02</internalNodes>
      <leafValues>
        -1.7497152090072632e-01 4.5695987343788147e-01</leafValues></_>
    <_>
      <internalNodes>
        0 -1 51063 1.2311675399541855e-01</internalNodes>
      <leafValues>
        -1.2938818335533142e-01 8.3781105279922485e-01</leafValues></_>
    <_>
      <internalNodes>
        0 -1 4411 5.8202091604471207e-03</internalNodes>
      <leafValues>
        -1.3534227013587952e-01 4.9352461099624634e-01</leafValues></_>
    <_>
      <internalNodes>
        0 -1 75166 -1.2162463972344995e-03</internalNodes>
      <leafValues>
        -3.6501491069793701e-01 1.7832356691360474e-01</leafValues></_>
    <_>
      <internalNodes>
        0 -1 74739 -5.3079323843121529e-03</internalNodes>
      <leafValues>
        -6.8210589885711670e-01 9.0605042874813080e-02</leafValues></_>
    <_>
      <internalNodes>
        0 -1 51260 -3.4030596725642681e-04</internalNodes>
      <leafValues>
        -3.9164626598358154e-01 1.7089363932609558e-01</leafValues></_>
    <_>
      <internalNodes>
        0 -1 199 -2.8544140513986349e-03</internalNodes>
      <leafValues>
        -5.2709329128265381e-01 1.1277084797620773e-01</leafValues></_>
    <_>
      <internalNodes>
        0 -1 21159 2.9939599335193634e-02</internalNodes>
      <leafValues>
        7.9328142106533051e-02 -7.3002463579177856e-01</leafValues></_>
    <_>
      <internalNodes>
        0 -1 37095 -2.7464705635793507e-04</internalNodes>
      <leafValues>
        -3.6600765585899353e-01 1.5720811486244202e-01</leafValues></_>
    <_>
      <internalNodes>
        0 -1 16261 -8.0731762573122978e-03</internalNodes>
      <leafValues>
        6.6330355405807495e-01 -9.9709637463092804e-02</leafValues></_>
    <_>
      <internalNodes>
        0 -1 40852 1.7407163977622986e-04</internalNodes>
      <leafValues>
        -2.4745990335941315e-01 3.3130136132240295e-01</leafValues></_>
    <_>
      <internalNodes>
        0 -1 36757 1.2314703781157732e-03</internalNodes>
      <leafValues>
        -1.3934879004955292e-01 4.6988967061042786e-01</leafValues></_>
    <_>
      <internalNodes>
        0 -1 35704 -9.6910642459988594e-03</internalNodes>
      <leafValues>
        2.1376444399356842e-01 -3.5282206535339355e-01</leafValues></_>
    <_>
      <internalNodes>
        0 -1 74635 1.0650537908077240e-02</internalNodes>
      <leafValues>
        -2.3483733832836151e-01 3.0881637334823608e-01</leafValues></_>
    <_>
      <internalNodes>
        0 -1 76254 -1.6431204974651337e-02</internalNodes>
      <leafValues>
        5.8564591407775879e-01 -9.9151603877544403e-02</leafValues></_>
    <_>
      <internalNodes>
        0 -1 34029 -1.7914317548274994e-02</internalNodes>
      <leafValues>
        4.1207426786422729e-01 -1.6789145767688751e-01</leafValues></_>
    <_>
      <internalNodes>
        0 -1 38936 1.2048082426190376e-03</internalNodes>
      <leafValues>
        1.1872513592243195e-01 -5.8352112770080566e-01</leafValues></_>
    <_>
      <internalNodes>
        0 -1 59770 -1.6196062788367271e-02</internalNodes>
      <leafValues>
        7.4130249023437500e-01 -9.3957304954528809e-02</leafValues></_>
    <_>
      <internalNodes>
        0 -1 6194 3.4944444894790649e-02</internalNodes>
      <leafValues>
        1.1061406135559082e-01 -6.9012892246246338e-01</leafValues></_>
    <_>
      <internalNodes>
        0 -1 71906 -2.1017035469412804e-03</internalNodes>
      <leafValues>
        3.4141978621482849e-01 -1.7967104911804199e-01</leafValues></_></weakClassifiers></stage28>
</opencv_storage>
