<?xml version="1.0"?>
<opencv_storage>
<stage49>
  <maxWeakCount>22</maxWeakCount>
  <stageThreshold>-3.5223999619483948e-01</stageThreshold>
  <weakClassifiers>
    <_>
      <internalNodes>
        0 -1 72927 -9.0798009186983109e-03</internalNodes>
      <leafValues>
        -6.9230771064758301e-01 6.3449692726135254e-01</leafValues></_>
    <_>
      <internalNodes>
        0 -1 41545 -9.4060618430376053e-03</internalNodes>
      <leafValues>
        6.8638277053833008e-01 -7.6525388285517693e-03</leafValues></_>
    <_>
      <internalNodes>
        0 -1 22331 -2.3845855146646500e-02</internalNodes>
      <leafValues>
        8.9572834968566895e-01 -6.6852003335952759e-02</leafValues></_>
    <_>
      <internalNodes>
        0 -1 28128 7.4863419868052006e-03</internalNodes>
      <leafValues>
        -1.9051453471183777e-01 4.8349279165267944e-01</leafValues></_>
    <_>
      <internalNodes>
        0 -1 60164 3.1559437513351440e-02</internalNodes>
      <leafValues>
        -1.6876606643199921e-01 4.2805278301239014e-01</leafValues></_>
    <_>
      <internalNodes>
        0 -1 7593 -5.9442538768053055e-03</internalNodes>
      <leafValues>
        -4.9745875597000122e-01 1.1211296916007996e-01</leafValues></_>
    <_>
      <internalNodes>
        0 -1 45050 8.0754887312650681e-03</internalNodes>
      <leafValues>
        2.1001879870891571e-01 -3.7065681815147400e-01</leafValues></_>
    <_>
      <internalNodes>
        0 -1 57678 3.1641874462366104e-02</internalNodes>
      <leafValues>
        -1.5814501047134399e-01 4.1890424489974976e-01</leafValues></_>
    <_>
      <internalNodes>
        0 -1 30549 3.0657160095870495e-03</internalNodes>
      <leafValues>
        -1.0919687151908875e-01 4.7847414016723633e-01</leafValues></_>
    <_>
      <internalNodes>
        0 -1 14825 1.3025866821408272e-02</internalNodes>
      <leafValues>
        9.9590651690959930e-02 -7.1956807374954224e-01</leafValues></_>
    <_>
      <internalNodes>
        0 -1 46924 -7.4060792103409767e-03</internalNodes>
      <leafValues>
        9.0980541706085205e-01 -7.8545205295085907e-02</leafValues></_>
    <_>
      <internalNodes>
        0 -1 24317 8.5889123380184174e-02</internalNodes>
      <leafValues>
        -5.4177090525627136e-02 8.5396635532379150e-01</leafValues></_>
    <_>
      <internalNodes>
        0 -1 58615 -2.0418153144419193e-03</internalNodes>
      <leafValues>
        -5.2289533615112305e-01 1.4146363735198975e-01</leafValues></_>
    <_>
      <internalNodes>
        0 -1 2786 3.1149797141551971e-03</internalNodes>
      <leafValues>
        -1.2603136897087097e-01 5.8221793174743652e-01</leafValues></_>
    <_>
      <internalNodes>
        0 -1 16768 -3.5530100576579571e-03</internalNodes>
      <leafValues>
        2.1484197676181793e-01 -3.0074498057365417e-01</leafValues></_>
    <_>
      <internalNodes>
        0 -1 21 -8.8283531367778778e-03</internalNodes>
      <leafValues>
        -4.0773531794548035e-01 1.7683532834053040e-01</leafValues></_>
    <_>
      <internalNodes>
        0 -1 73754 -7.5349071994423866e-03</internalNodes>
      <leafValues>
        5.1735204458236694e-01 -1.1615980416536331e-01</leafValues></_>
    <_>
      <internalNodes>
        0 -1 75825 1.5601336490362883e-03</internalNodes>
      <leafValues>
        1.6910326480865479e-01 -3.5826951265335083e-01</leafValues></_>
    <_>
      <internalNodes>
        0 -1 38556 4.5890966430306435e-03</internalNodes>
      <leafValues>
        -7.9692997038364410e-02 7.0170193910598755e-01</leafValues></_>
    <_>
      <internalNodes>
        0 -1 75236 4.7331438399851322e-03</internalNodes>
      <leafValues>
        1.1394600570201874e-01 -5.3660851716995239e-01</leafValues></_>
    <_>
      <internalNodes>
        0 -1 75236 -1.3836789876222610e-03</internalNodes>
      <leafValues>
        -3.7127351760864258e-01 1.9377931952476501e-01</leafValues></_>
    <_>
      <internalNodes>
        0 -1 3357 4.1991248726844788e-03</internalNodes>
      <leafValues>
        -1.1307187378406525e-01 5.4485166072845459e-01</leafValues></_></weakClassifiers></stage49>
</opencv_storage>
