<?xml version="1.0"?>
<opencv_storage>
<stage46>
  <maxWeakCount>24</maxWeakCount>
  <stageThreshold>-2.6388871669769287e-01</stageThreshold>
  <weakClassifiers>
    <_>
      <internalNodes>
        0 -1 7042 6.0129337012767792e-02</internalNodes>
      <leafValues>
        6.6313558816909790e-01 -4.6428570151329041e-01</leafValues></_>
    <_>
      <internalNodes>
        0 -1 17033 1.7411132575944066e-03</internalNodes>
      <leafValues>
        -1.1013817042112350e-01 4.7192820906639099e-01</leafValues></_>
    <_>
      <internalNodes>
        0 -1 56760 3.6779474467039108e-02</internalNodes>
      <leafValues>
        -1.0319907218217850e-01 6.5818578004837036e-01</leafValues></_>
    <_>
      <internalNodes>
        0 -1 19940 -1.3032221794128418e-01</internalNodes>
      <leafValues>
        4.3101349472999573e-01 -1.3304007053375244e-01</leafValues></_>
    <_>
      <internalNodes>
        0 -1 53122 -2.6601925492286682e-03</internalNodes>
      <leafValues>
        -2.6066359877586365e-01 2.3086854815483093e-01</leafValues></_>
    <_>
      <internalNodes>
        0 -1 60539 4.3925782665610313e-03</internalNodes>
      <leafValues>
        -7.6583847403526306e-02 9.4754081964492798e-01</leafValues></_>
    <_>
      <internalNodes>
        0 -1 28039 4.6749378088861704e-04</internalNodes>
      <leafValues>
        1.2115597724914551e-01 -5.1287609338760376e-01</leafValues></_>
    <_>
      <internalNodes>
        0 -1 29857 7.5039863586425781e-03</internalNodes>
      <leafValues>
        -2.5981152057647705e-01 2.2005821764469147e-01</leafValues></_>
    <_>
      <internalNodes>
        0 -1 34308 -8.1385187804698944e-03</internalNodes>
      <leafValues>
        6.0315531492233276e-01 -1.0319517552852631e-01</leafValues></_>
    <_>
      <internalNodes>
        0 -1 76745 -1.4771166443824768e-01</internalNodes>
      <leafValues>
        -6.7925721406936646e-02 6.8600469827651978e-01</leafValues></_>
    <_>
      <internalNodes>
        0 -1 58410 6.8212494254112244e-02</internalNodes>
      <leafValues>
        -1.3130334019660950e-01 4.9834567308425903e-01</leafValues></_>
    <_>
      <internalNodes>
        0 -1 55011 -1.2705031782388687e-02</internalNodes>
      <leafValues>
        1.8870568275451660e-01 -3.4657987952232361e-01</leafValues></_>
    <_>
      <internalNodes>
        0 -1 2881 4.0414310991764069e-02</internalNodes>
      <leafValues>
        -1.0881015658378601e-01 6.9586348533630371e-01</leafValues></_>
    <_>
      <internalNodes>
        0 -1 2711 9.0892873704433441e-03</internalNodes>
      <leafValues>
        1.3784456253051758e-01 -5.7339495420455933e-01</leafValues></_>
    <_>
      <internalNodes>
        0 -1 68711 -2.0291167311370373e-03</internalNodes>
      <leafValues>
        -5.6486105918884277e-01 1.3092336058616638e-01</leafValues></_>
    <_>
      <internalNodes>
        0 -1 34088 -4.7329254448413849e-04</internalNodes>
      <leafValues>
        3.5284322500228882e-01 -2.0289832353591919e-01</leafValues></_>
    <_>
      <internalNodes>
        0 -1 42552 -1.3336467090994120e-03</internalNodes>
      <leafValues>
        -4.6574944257736206e-01 1.2763494253158569e-01</leafValues></_>
    <_>
      <internalNodes>
        0 -1 17629 7.3267251253128052e-02</internalNodes>
      <leafValues>
        -1.0204192996025085e-01 5.7745939493179321e-01</leafValues></_>
    <_>
      <internalNodes>
        0 -1 35843 4.4557201908901334e-04</internalNodes>
      <leafValues>
        2.2505570948123932e-01 -2.7238494157791138e-01</leafValues></_>
    <_>
      <internalNodes>
        0 -1 60849 -1.0885834693908691e-02</internalNodes>
      <leafValues>
        5.9756022691726685e-01 -9.4615623354911804e-02</leafValues></_>
    <_>
      <internalNodes>
        0 -1 6673 -2.6618801057338715e-03</internalNodes>
      <leafValues>
        -7.4488258361816406e-01 8.4035590291023254e-02</leafValues></_>
    <_>
      <internalNodes>
        0 -1 21729 1.4612393453717232e-02</internalNodes>
      <leafValues>
        -1.3804693520069122e-01 4.8720011115074158e-01</leafValues></_>
    <_>
      <internalNodes>
        0 -1 6425 4.6223406679928303e-03</internalNodes>
      <leafValues>
        1.8699598312377930e-01 -3.8181427121162415e-01</leafValues></_>
    <_>
      <internalNodes>
        0 -1 78342 -1.6782751306891441e-02</internalNodes>
      <leafValues>
        -4.8736307024955750e-01 1.2223736941814423e-01</leafValues></_></weakClassifiers></stage46>
</opencv_storage>
