<?xml version="1.0"?>
<opencv_storage>
<stage23>
  <maxWeakCount>21</maxWeakCount>
  <stageThreshold>-2.5622692704200745e-01</stageThreshold>
  <weakClassifiers>
    <_>
      <internalNodes>
        0 -1 73837 -9.2521123588085175e-03</internalNodes>
      <leafValues>
        6.9828569889068604e-01 -8.7999999523162842e-02</leafValues></_>
    <_>
      <internalNodes>
        0 -1 41802 -2.6017550379037857e-02</internalNodes>
      <leafValues>
        4.0885904431343079e-01 -2.2902680933475494e-01</leafValues></_>
    <_>
      <internalNodes>
        0 -1 3899 -1.3079647906124592e-03</internalNodes>
      <leafValues>
        2.5382608175277710e-01 -3.2832220196723938e-01</leafValues></_>
    <_>
      <internalNodes>
        0 -1 56209 1.9942121580243111e-02</internalNodes>
      <leafValues>
        -1.4437022805213928e-01 6.6967433691024780e-01</leafValues></_>
    <_>
      <internalNodes>
        0 -1 25113 1.3561753556132317e-02</internalNodes>
      <leafValues>
        1.7675954103469849e-01 -4.8086762428283691e-01</leafValues></_>
    <_>
      <internalNodes>
        0 -1 33937 -8.6033588740974665e-04</internalNodes>
      <leafValues>
        -5.2966022491455078e-01 1.3065207004547119e-01</leafValues></_>
    <_>
      <internalNodes>
        0 -1 78342 -1.8006891012191772e-02</internalNodes>
      <leafValues>
        -5.7016801834106445e-01 1.4464922249317169e-01</leafValues></_>
    <_>
      <internalNodes>
        0 -1 39729 1.5126259531825781e-03</internalNodes>
      <leafValues>
        1.4158175885677338e-01 -6.2545150518417358e-01</leafValues></_>
    <_>
      <internalNodes>
        0 -1 78284 -5.2856013644486666e-04</internalNodes>
      <leafValues>
        -4.5300734043121338e-01 1.5423262119293213e-01</leafValues></_>
    <_>
      <internalNodes>
        0 -1 77606 1.9581687229219824e-04</internalNodes>
      <leafValues>
        2.3476655781269073e-01 -3.1667104363441467e-01</leafValues></_>
    <_>
      <internalNodes>
        0 -1 59297 -8.8987927883863449e-03</internalNodes>
      <leafValues>
        5.0321018695831299e-01 -1.7308674752712250e-01</leafValues></_>
    <_>
      <internalNodes>
        0 -1 43650 3.0945662729209289e-05</internalNodes>
      <leafValues>
        -2.0461393892765045e-01 3.4524527192115784e-01</leafValues></_>
    <_>
      <internalNodes>
        0 -1 24035 -5.3008846938610077e-02</internalNodes>
      <leafValues>
        1.0334714502096176e-01 -6.7903238534927368e-01</leafValues></_>
    <_>
      <internalNodes>
        0 -1 32324 -4.0409999201074243e-04</internalNodes>
      <leafValues>
        -4.5345413684844971e-01 1.5609160065650940e-01</leafValues></_>
    <_>
      <internalNodes>
        0 -1 54612 -2.9708707006648183e-04</internalNodes>
      <leafValues>
        -4.7100031375885010e-01 1.6160948574542999e-01</leafValues></_>
    <_>
      <internalNodes>
        0 -1 75944 -6.0042450204491615e-03</internalNodes>
      <leafValues>
        3.9731064438819885e-01 -1.9896101951599121e-01</leafValues></_>
    <_>
      <internalNodes>
        0 -1 62994 -8.7996631918940693e-05</internalNodes>
      <leafValues>
        1.8112038075923920e-01 -4.9528896808624268e-01</leafValues></_>
    <_>
      <internalNodes>
        0 -1 71340 -1.9096665084362030e-02</internalNodes>
      <leafValues>
        6.9866168498992920e-01 -1.2706203758716583e-01</leafValues></_>
    <_>
      <internalNodes>
        0 -1 18104 1.8783377017825842e-03</internalNodes>
      <leafValues>
        -1.3789759576320648e-01 4.6583002805709839e-01</leafValues></_>
    <_>
      <internalNodes>
        0 -1 4022 2.4510446935892105e-02</internalNodes>
      <leafValues>
        -1.2680189311504364e-01 6.4422798156738281e-01</leafValues></_>
    <_>
      <internalNodes>
        0 -1 41037 1.8942166119813919e-02</internalNodes>
      <leafValues>
        -7.5477272272109985e-02 8.0982881784439087e-01</leafValues></_></weakClassifiers></stage23>
</opencv_storage>
