<?xml version="1.0"?>
<opencv_storage>
<stage6>
  <maxWeakCount>11</maxWeakCount>
  <stageThreshold>-6.7708361148834229e-01</stageThreshold>
  <weakClassifiers>
    <_>
      <internalNodes>
        0 -1 2572 1.2727606296539307e-01</internalNodes>
      <leafValues>
        7.3725932836532593e-01 -4.3589743971824646e-01</leafValues></_>
    <_>
      <internalNodes>
        0 -1 2000 -1.0259862244129181e-01</internalNodes>
      <leafValues>
        6.0997146368026733e-01 -2.5449454784393311e-01</leafValues></_>
    <_>
      <internalNodes>
        0 -1 800 -1.1460946872830391e-02</internalNodes>
      <leafValues>
        9.0097862482070923e-01 -1.3781704008579254e-01</leafValues></_>
    <_>
      <internalNodes>
        0 -1 74711 -2.4702050723135471e-03</internalNodes>
      <leafValues>
        5.7649248838424683e-01 -3.0847883224487305e-01</leafValues></_>
    <_>
      <internalNodes>
        0 -1 6252 1.1196236312389374e-01</internalNodes>
      <leafValues>
        2.8295183181762695e-01 -5.6173396110534668e-01</leafValues></_>
    <_>
      <internalNodes>
        0 -1 75278 -3.4795768558979034e-02</internalNodes>
      <leafValues>
        9.1141134500503540e-01 -2.1160636842250824e-01</leafValues></_>
    <_>
      <internalNodes>
        0 -1 64782 -2.5966730900108814e-03</internalNodes>
      <leafValues>
        5.1761031150817871e-01 -2.0888125896453857e-01</leafValues></_>
    <_>
      <internalNodes>
        0 -1 7453 -5.0820066826418042e-04</internalNodes>
      <leafValues>
        4.3120738863945007e-01 -3.0069813132286072e-01</leafValues></_>
    <_>
      <internalNodes>
        0 -1 78154 -1.1414058099035174e-04</internalNodes>
      <leafValues>
        3.2678040862083435e-01 -3.2575917243957520e-01</leafValues></_>
    <_>
      <internalNodes>
        0 -1 78308 -6.8069905042648315e-02</internalNodes>
      <leafValues>
        -2.6335996389389038e-01 5.2555418014526367e-01</leafValues></_>
    <_>
      <internalNodes>
        0 -1 1410 -4.7578476369380951e-02</internalNodes>
      <leafValues>
        3.7368547916412354e-01 -3.5851925611495972e-01</leafValues></_></weakClassifiers></stage6>
</opencv_storage>
