<?xml version="1.0"?>
<opencv_storage>
<stage30>
  <maxWeakCount>23</maxWeakCount>
  <stageThreshold>-4.0586322546005249e-01</stageThreshold>
  <weakClassifiers>
    <_>
      <internalNodes>
        0 -1 41805 1.1196163482964039e-02</internalNodes>
      <leafValues>
        6.6275346279144287e-01 -3.3333334326744080e-01</leafValues></_>
    <_>
      <internalNodes>
        0 -1 14262 -2.9764581471681595e-02</internalNodes>
      <leafValues>
        4.6993160247802734e-01 -9.9840313196182251e-02</leafValues></_>
    <_>
      <internalNodes>
        0 -1 75546 3.2627202570438385e-02</internalNodes>
      <leafValues>
        -1.5004500746726990e-01 5.4789400100708008e-01</leafValues></_>
    <_>
      <internalNodes>
        0 -1 28714 1.4075932558625937e-03</internalNodes>
      <leafValues>
        -1.7328360676765442e-01 4.5302844047546387e-01</leafValues></_>
    <_>
      <internalNodes>
        0 -1 7705 -1.6789682209491730e-02</internalNodes>
      <leafValues>
        6.4596050977706909e-01 -1.1986129730939865e-01</leafValues></_>
    <_>
      <internalNodes>
        0 -1 23900 2.1340018138289452e-03</internalNodes>
      <leafValues>
        -2.5286406278610229e-01 3.2954415678977966e-01</leafValues></_>
    <_>
      <internalNodes>
        0 -1 62399 1.5412920038215816e-04</internalNodes>
      <leafValues>
        -3.0232787132263184e-01 2.3850375413894653e-01</leafValues></_>
    <_>
      <internalNodes>
        0 -1 7495 -9.2325054109096527e-02</internalNodes>
      <leafValues>
        -1.4197605848312378e-01 5.5049562454223633e-01</leafValues></_>
    <_>
      <internalNodes>
        0 -1 7598 2.4821335449814796e-02</internalNodes>
      <leafValues>
        -9.6656046807765961e-02 7.9207491874694824e-01</leafValues></_>
    <_>
      <internalNodes>
        0 -1 8325 2.9711052775382996e-03</internalNodes>
      <leafValues>
        1.9665899872779846e-01 -3.3036670088768005e-01</leafValues></_>
    <_>
      <internalNodes>
        0 -1 56276 -8.3648759755305946e-05</internalNodes>
      <leafValues>
        1.8617445230484009e-01 -3.2846418023109436e-01</leafValues></_>
    <_>
      <internalNodes>
        0 -1 29461 1.2862019240856171e-02</internalNodes>
      <leafValues>
        -1.4330834150314331e-01 4.3938767910003662e-01</leafValues></_>
    <_>
      <internalNodes>
        0 -1 62080 -7.4544593691825867e-02</internalNodes>
      <leafValues>
        -7.8143692016601563e-01 9.3922398984432220e-02</leafValues></_>
    <_>
      <internalNodes>
        0 -1 71714 2.1801607683300972e-02</internalNodes>
      <leafValues>
        -1.1254359781742096e-01 6.7569267749786377e-01</leafValues></_>
    <_>
      <internalNodes>
        0 -1 72706 2.4344688281416893e-03</internalNodes>
      <leafValues>
        -2.1541707217693329e-01 3.5800206661224365e-01</leafValues></_>
    <_>
      <internalNodes>
        0 -1 78434 7.6575679704546928e-03</internalNodes>
      <leafValues>
        1.8821156024932861e-01 -4.7384065389633179e-01</leafValues></_>
    <_>
      <internalNodes>
        0 -1 7847 4.0615223348140717e-02</internalNodes>
      <leafValues>
        -1.3323785364627838e-01 5.1936113834381104e-01</leafValues></_>
    <_>
      <internalNodes>
        0 -1 27498 -6.5981624647974968e-03</internalNodes>
      <leafValues>
        -5.6680864095687866e-01 1.2486957013607025e-01</leafValues></_>
    <_>
      <internalNodes>
        0 -1 6919 8.1228709314018488e-04</internalNodes>
      <leafValues>
        -1.4721387624740601e-01 4.7979357838630676e-01</leafValues></_>
    <_>
      <internalNodes>
        0 -1 49442 9.4547290354967117e-03</internalNodes>
      <leafValues>
        -1.6130869090557098e-01 4.6234330534934998e-01</leafValues></_>
    <_>
      <internalNodes>
        0 -1 46049 -9.3347638845443726e-02</internalNodes>
      <leafValues>
        2.1806383132934570e-01 -3.2750883698463440e-01</leafValues></_>
    <_>
      <internalNodes>
        0 -1 74799 5.9488210827112198e-03</internalNodes>
      <leafValues>
        -2.0209249854087830e-01 3.8874089717864990e-01</leafValues></_>
    <_>
      <internalNodes>
        0 -1 7552 -1.9290181808173656e-03</internalNodes>
      <leafValues>
        2.5463318824768066e-01 -2.8825342655181885e-01</leafValues></_></weakClassifiers></stage30>
</opencv_storage>
