<?xml version="1.0"?>
<opencv_storage>
<stage39>
  <maxWeakCount>21</maxWeakCount>
  <stageThreshold>-4.5293873548507690e-01</stageThreshold>
  <weakClassifiers>
    <_>
      <internalNodes>
        0 -1 77637 -2.0699292421340942e-02</internalNodes>
      <leafValues>
        -7.5000000000000000e-01 6.5625000000000000e-01</leafValues></_>
    <_>
      <internalNodes>
        0 -1 68702 3.6973805981688201e-04</internalNodes>
      <leafValues>
        -2.4340394139289856e-01 4.1864106059074402e-01</leafValues></_>
    <_>
      <internalNodes>
        0 -1 64458 -7.5369291007518768e-03</internalNodes>
      <leafValues>
        5.5217295885086060e-01 -1.5855896472930908e-01</leafValues></_>
    <_>
      <internalNodes>
        0 -1 826 -1.0633146390318871e-02</internalNodes>
      <leafValues>
        3.6049476265907288e-01 -1.9737470149993896e-01</leafValues></_>
    <_>
      <internalNodes>
        0 -1 39194 -5.8687396813184023e-04</internalNodes>
      <leafValues>
        4.2868411540985107e-01 -1.8416428565979004e-01</leafValues></_>
    <_>
      <internalNodes>
        0 -1 71559 -2.7089003473520279e-02</internalNodes>
      <leafValues>
        4.6112811565399170e-01 -1.7418172955513000e-01</leafValues></_>
    <_>
      <internalNodes>
        0 -1 70942 -1.2931456789374352e-02</internalNodes>
      <leafValues>
        6.7765140533447266e-01 -1.2607525289058685e-01</leafValues></_>
    <_>
      <internalNodes>
        0 -1 74869 -2.1997585427016020e-03</internalNodes>
      <leafValues>
        3.9750993251800537e-01 -2.0340816676616669e-01</leafValues></_>
    <_>
      <internalNodes>
        0 -1 77997 2.6702347677201033e-03</internalNodes>
      <leafValues>
        -2.1572698652744293e-01 3.7769970297813416e-01</leafValues></_>
    <_>
      <internalNodes>
        0 -1 30314 2.0871688611805439e-03</internalNodes>
      <leafValues>
        -3.2114019989967346e-01 2.3031781613826752e-01</leafValues></_>
    <_>
      <internalNodes>
        0 -1 369 -2.1132709085941315e-01</internalNodes>
      <leafValues>
        6.0490483045578003e-01 -1.1925559490919113e-01</leafValues></_>
    <_>
      <internalNodes>
        0 -1 58595 9.9590257741510868e-04</internalNodes>
      <leafValues>
        1.6492821276187897e-01 -5.1069086790084839e-01</leafValues></_>
    <_>
      <internalNodes>
        0 -1 21720 -6.0892682522535324e-03</internalNodes>
      <leafValues>
        6.7528963088989258e-01 -1.1873785406351089e-01</leafValues></_>
    <_>
      <internalNodes>
        0 -1 14758 -5.9886544477194548e-04</internalNodes>
      <leafValues>
        2.4805831909179688e-01 -2.6899909973144531e-01</leafValues></_>
    <_>
      <internalNodes>
        0 -1 74303 -5.8698067441582680e-03</internalNodes>
      <leafValues>
        5.1992779970169067e-01 -1.4395296573638916e-01</leafValues></_>
    <_>
      <internalNodes>
        0 -1 44827 -8.8406307622790337e-04</internalNodes>
      <leafValues>
        -4.3300771713256836e-01 1.9020673632621765e-01</leafValues></_>
    <_>
      <internalNodes>
        0 -1 71176 3.0843249987810850e-04</internalNodes>
      <leafValues>
        -2.5775811076164246e-01 3.2439273595809937e-01</leafValues></_>
    <_>
      <internalNodes>
        0 -1 22444 -7.4196094647049904e-03</internalNodes>
      <leafValues>
        4.6174439787864685e-01 -1.5733030438423157e-01</leafValues></_>
    <_>
      <internalNodes>
        0 -1 65236 4.8718214966356754e-03</internalNodes>
      <leafValues>
        -1.3237476348876953e-01 5.4422050714492798e-01</leafValues></_>
    <_>
      <internalNodes>
        0 -1 4861 5.0120323430746794e-04</internalNodes>
      <leafValues>
        -1.9762274622917175e-01 3.7544387578964233e-01</leafValues></_>
    <_>
      <internalNodes>
        0 -1 5765 1.8122360343113542e-03</internalNodes>
      <leafValues>
        -2.1414332091808319e-01 3.3943909406661987e-01</leafValues></_></weakClassifiers></stage39>
</opencv_storage>
