<?xml version="1.0"?>
<opencv_storage>
<stage31>
  <maxWeakCount>25</maxWeakCount>
  <stageThreshold>-4.0033435821533203e-01</stageThreshold>
  <weakClassifiers>
    <_>
      <internalNodes>
        0 -1 55018 -2.2795512340962887e-03</internalNodes>
      <leafValues>
        -1.8309858441352844e-01 6.5984928607940674e-01</leafValues></_>
    <_>
      <internalNodes>
        0 -1 1573 -2.8492663055658340e-02</internalNodes>
      <leafValues>
        6.1465191841125488e-01 -5.3659867495298386e-02</leafValues></_>
    <_>
      <internalNodes>
        0 -1 28066 8.1390794366598129e-04</internalNodes>
      <leafValues>
        -2.1709671616554260e-01 3.6808830499649048e-01</leafValues></_>
    <_>
      <internalNodes>
        0 -1 71812 -1.3846686342731118e-03</internalNodes>
      <leafValues>
        2.1820448338985443e-01 -3.7253513932228088e-01</leafValues></_>
    <_>
      <internalNodes>
        0 -1 7604 -7.0395457441918552e-05</internalNodes>
      <leafValues>
        2.2830796241760254e-01 -3.6612460017204285e-01</leafValues></_>
    <_>
      <internalNodes>
        0 -1 78437 -1.3220458058640361e-03</internalNodes>
      <leafValues>
        -4.7910127043724060e-01 1.3640630245208740e-01</leafValues></_>
    <_>
      <internalNodes>
        0 -1 13980 -1.4026641845703125e-02</internalNodes>
      <leafValues>
        -4.3022710084915161e-01 1.4899089932441711e-01</leafValues></_>
    <_>
      <internalNodes>
        0 -1 50322 -1.4771922491490841e-02</internalNodes>
      <leafValues>
        8.9913743734359741e-01 -8.2783915102481842e-02</leafValues></_>
    <_>
      <internalNodes>
        0 -1 6924 1.2994494754821062e-03</internalNodes>
      <leafValues>
        -1.3107986748218536e-01 4.6486765146255493e-01</leafValues></_>
    <_>
      <internalNodes>
        0 -1 68838 -9.2725530266761780e-03</internalNodes>
      <leafValues>
        -6.3466227054595947e-01 1.2478904426097870e-01</leafValues></_>
    <_>
      <internalNodes>
        0 -1 41752 1.9996284972876310e-03</internalNodes>
      <leafValues>
        1.2197513878345490e-01 -5.2577710151672363e-01</leafValues></_>
    <_>
      <internalNodes>
        0 -1 55717 4.3107476085424423e-02</internalNodes>
      <leafValues>
        9.1951712965965271e-02 -6.6025018692016602e-01</leafValues></_>
    <_>
      <internalNodes>
        0 -1 72096 2.0792618393898010e-02</internalNodes>
      <leafValues>
        -9.6408635377883911e-02 8.0024725198745728e-01</leafValues></_>
    <_>
      <internalNodes>
        0 -1 14621 1.6843185294419527e-03</internalNodes>
      <leafValues>
        -1.0956755280494690e-01 4.8398482799530029e-01</leafValues></_>
    <_>
      <internalNodes>
        0 -1 14136 -2.1049110218882561e-03</internalNodes>
      <leafValues>
        3.1381064653396606e-01 -2.3485878109931946e-01</leafValues></_>
    <_>
      <internalNodes>
        0 -1 39800 2.8622918762266636e-04</internalNodes>
      <leafValues>
        1.5832847356796265e-01 -3.8836607336997986e-01</leafValues></_>
    <_>
      <internalNodes>
        0 -1 71956 4.0399492718279362e-04</internalNodes>
      <leafValues>
        -1.9484210014343262e-01 3.8272863626480103e-01</leafValues></_>
    <_>
      <internalNodes>
        0 -1 66775 -1.4532202482223511e-01</internalNodes>
      <leafValues>
        5.1189923286437988e-01 -1.2086343765258789e-01</leafValues></_>
    <_>
      <internalNodes>
        0 -1 73828 -8.4514901041984558e-02</internalNodes>
      <leafValues>
        -5.3063994646072388e-01 1.2959954142570496e-01</leafValues></_>
    <_>
      <internalNodes>
        0 -1 60 -1.7160061979666352e-03</internalNodes>
      <leafValues>
        2.3781912028789520e-01 -2.7405381202697754e-01</leafValues></_>
    <_>
      <internalNodes>
        0 -1 4784 -7.5165346264839172e-02</internalNodes>
      <leafValues>
        9.5910328626632690e-01 -5.7260204106569290e-02</leafValues></_>
    <_>
      <internalNodes>
        0 -1 51630 1.1498616077005863e-03</internalNodes>
      <leafValues>
        1.2297180294990540e-01 -5.3547734022140503e-01</leafValues></_>
    <_>
      <internalNodes>
        0 -1 75058 8.0283731222152710e-03</internalNodes>
      <leafValues>
        6.2718190252780914e-02 -7.9729974269866943e-01</leafValues></_>
    <_>
      <internalNodes>
        0 -1 57541 1.7405933141708374e-01</internalNodes>
      <leafValues>
        -9.1857440769672394e-02 7.6569330692291260e-01</leafValues></_>
    <_>
      <internalNodes>
        0 -1 54165 -2.7405896689742804e-03</internalNodes>
      <leafValues>
        3.6060515046119690e-01 -1.9379335641860962e-01</leafValues></_></weakClassifiers></stage31>
</opencv_storage>
