<?xml version="1.0"?>
<opencv_storage>
<stage6>
  <maxWeakCount>11</maxWeakCount>
  <stageThreshold>-4.2459186911582947e-01</stageThreshold>
  <weakClassifiers>
    <_>
      <internalNodes>
        0 -1 37782 -6.8588697910308838e-01</internalNodes>
      <leafValues>
        -5.0000000000000000e-01 7.5000000000000000e-01</leafValues></_>
    <_>
      <internalNodes>
        0 -1 39699 3.5897560417652130e-02</internalNodes>
      <leafValues>
        -2.3752811551094055e-01 6.7927169799804688e-01</leafValues></_>
    <_>
      <internalNodes>
        0 -1 62922 -2.3226477205753326e-03</internalNodes>
      <leafValues>
        6.4372450113296509e-01 -2.4887233972549438e-01</leafValues></_>
    <_>
      <internalNodes>
        0 -1 65608 2.4711112491786480e-03</internalNodes>
      <leafValues>
        -2.3823113739490509e-01 7.3602998256683350e-01</leafValues></_>
    <_>
      <internalNodes>
        0 -1 7186 -2.6484904810786247e-04</internalNodes>
      <leafValues>
        4.8262789845466614e-01 -3.5883918404579163e-01</leafValues></_>
    <_>
      <internalNodes>
        0 -1 71953 -2.3803035728633404e-03</internalNodes>
      <leafValues>
        6.7534404993057251e-01 -2.4269121885299683e-01</leafValues></_>
    <_>
      <internalNodes>
        0 -1 75656 -1.6773613169789314e-02</internalNodes>
      <leafValues>
        9.4366157054901123e-01 -1.7085528373718262e-01</leafValues></_>
    <_>
      <internalNodes>
        0 -1 10271 -8.8094696402549744e-03</internalNodes>
      <leafValues>
        5.7061129808425903e-01 -2.8290680050849915e-01</leafValues></_>
    <_>
      <internalNodes>
        0 -1 20584 -2.2806527093052864e-02</internalNodes>
      <leafValues>
        6.8719851970672607e-01 -2.2399203479290009e-01</leafValues></_>
    <_>
      <internalNodes>
        0 -1 53549 -1.0540475696325302e-01</internalNodes>
      <leafValues>
        -6.3339221477508545e-01 2.9009780287742615e-01</leafValues></_>
    <_>
      <internalNodes>
        0 -1 66031 -1.3031903654336929e-04</internalNodes>
      <leafValues>
        5.3715807199478149e-01 -3.4668016433715820e-01</leafValues></_></weakClassifiers></stage6>
</opencv_storage>
