<?xml version="1.0"?>
<opencv_storage>
<stage8>
  <maxWeakCount>16</maxWeakCount>
  <stageThreshold>-6.0766953229904175e-01</stageThreshold>
  <weakClassifiers>
    <_>
      <internalNodes>
        0 -1 77722 -7.1787461638450623e-02</internalNodes>
      <leafValues>
        -2.9870128631591797e-01 6.7497289180755615e-01</leafValues></_>
    <_>
      <internalNodes>
        0 -1 46339 -4.4194702059030533e-03</internalNodes>
      <leafValues>
        5.7593840360641479e-01 -2.0062118768692017e-01</leafValues></_>
    <_>
      <internalNodes>
        0 -1 7542 -3.0672796128783375e-05</internalNodes>
      <leafValues>
        3.6587339639663696e-01 -4.0345671772956848e-01</leafValues></_>
    <_>
      <internalNodes>
        0 -1 7347 -1.8561871256679296e-03</internalNodes>
      <leafValues>
        4.0868115425109863e-01 -3.2982698082923889e-01</leafValues></_>
    <_>
      <internalNodes>
        0 -1 76137 3.2428654376417398e-03</internalNodes>
      <leafValues>
        -2.3242989182472229e-01 4.6997067332267761e-01</leafValues></_>
    <_>
      <internalNodes>
        0 -1 30976 -3.7026278674602509e-02</internalNodes>
      <leafValues>
        7.4726527929306030e-01 -1.5359641611576080e-01</leafValues></_>
    <_>
      <internalNodes>
        0 -1 69075 -4.6413652598857880e-03</internalNodes>
      <leafValues>
        7.1782994270324707e-01 -1.5805925428867340e-01</leafValues></_>
    <_>
      <internalNodes>
        0 -1 17287 5.5357767269015312e-03</internalNodes>
      <leafValues>
        -1.4447671175003052e-01 6.8743073940277100e-01</leafValues></_>
    <_>
      <internalNodes>
        0 -1 68932 6.1124693602323532e-03</internalNodes>
      <leafValues>
        -1.7528679966926575e-01 4.8776155710220337e-01</leafValues></_>
    <_>
      <internalNodes>
        0 -1 14574 2.8722446411848068e-02</internalNodes>
      <leafValues>
        -1.1731868237257004e-01 8.2268238067626953e-01</leafValues></_>
    <_>
      <internalNodes>
        0 -1 55375 -1.2301343958824873e-03</internalNodes>
      <leafValues>
        -6.3213074207305908e-01 1.7931649088859558e-01</leafValues></_>
    <_>
      <internalNodes>
        0 -1 9715 2.7448153123259544e-03</internalNodes>
      <leafValues>
        -1.6583466529846191e-01 5.8679783344268799e-01</leafValues></_>
    <_>
      <internalNodes>
        0 -1 22434 -4.0044272318482399e-03</internalNodes>
      <leafValues>
        5.2362072467803955e-01 -1.7066393792629242e-01</leafValues></_>
    <_>
      <internalNodes>
        0 -1 35286 7.0033618248999119e-04</internalNodes>
      <leafValues>
        -2.8877109289169312e-01 3.3889645338058472e-01</leafValues></_>
    <_>
      <internalNodes>
        0 -1 55172 -5.3151828050613403e-01</internalNodes>
      <leafValues>
        -8.2486331462860107e-01 1.0598358511924744e-01</leafValues></_>
    <_>
      <internalNodes>
        0 -1 28664 -2.2949348203837872e-03</internalNodes>
      <leafValues>
        2.8497150540351868e-01 -3.1831607222557068e-01</leafValues></_></weakClassifiers></stage8>
</opencv_storage>
