<?xml version="1.0"?>
<opencv_storage>
<stage19>
  <maxWeakCount>18</maxWeakCount>
  <stageThreshold>-5.1277232170104980e-01</stageThreshold>
  <weakClassifiers>
    <_>
      <internalNodes>
        0 -1 78160 -5.8356719091534615e-03</internalNodes>
      <leafValues>
        -8.5000002384185791e-01 6.6041666269302368e-01</leafValues></_>
    <_>
      <internalNodes>
        0 -1 9422 -1.0437889397144318e-01</internalNodes>
      <leafValues>
        6.3423389196395874e-01 -7.3609367012977600e-02</leafValues></_>
    <_>
      <internalNodes>
        0 -1 7552 -1.0613703634589911e-03</internalNodes>
      <leafValues>
        2.7500534057617188e-01 -3.8855192065238953e-01</leafValues></_>
    <_>
      <internalNodes>
        0 -1 68628 1.3774682302027941e-03</internalNodes>
      <leafValues>
        -2.7206811308860779e-01 3.6809387803077698e-01</leafValues></_>
    <_>
      <internalNodes>
        0 -1 72978 -7.2463294491171837e-03</internalNodes>
      <leafValues>
        5.3145664930343628e-01 -2.0584522187709808e-01</leafValues></_>
    <_>
      <internalNodes>
        0 -1 53333 5.7027883827686310e-02</internalNodes>
      <leafValues>
        -9.9649712443351746e-02 8.1171321868896484e-01</leafValues></_>
    <_>
      <internalNodes>
        0 -1 18180 -9.1879792511463165e-02</internalNodes>
      <leafValues>
        7.2690021991729736e-01 -1.5145346522331238e-01</leafValues></_>
    <_>
      <internalNodes>
        0 -1 397 1.0633103549480438e-02</internalNodes>
      <leafValues>
        1.6057136654853821e-01 -7.2823780775070190e-01</leafValues></_>
    <_>
      <internalNodes>
        0 -1 76599 2.6541625265963376e-04</internalNodes>
      <leafValues>
        -2.9664024710655212e-01 3.2949683070182800e-01</leafValues></_>
    <_>
      <internalNodes>
        0 -1 77654 9.7790523432195187e-04</internalNodes>
      <leafValues>
        1.4935527741909027e-01 -6.2804269790649414e-01</leafValues></_>
    <_>
      <internalNodes>
        0 -1 2801 5.5477819405496120e-03</internalNodes>
      <leafValues>
        -2.3274080455303192e-01 4.0141999721527100e-01</leafValues></_>
    <_>
      <internalNodes>
        0 -1 75521 -1.2426419183611870e-02</internalNodes>
      <leafValues>
        5.8917444944381714e-01 -1.6567176580429077e-01</leafValues></_>
    <_>
      <internalNodes>
        0 -1 73767 9.4780474901199341e-03</internalNodes>
      <leafValues>
        -1.1445343494415283e-01 6.5939146280288696e-01</leafValues></_>
    <_>
      <internalNodes>
        0 -1 76988 -2.4193149060010910e-02</internalNodes>
      <leafValues>
        -2.7236756682395935e-01 3.0646342039108276e-01</leafValues></_>
    <_>
      <internalNodes>
        0 -1 24929 -1.4040222764015198e-01</internalNodes>
      <leafValues>
        1.2975363433361053e-01 -7.0732170343399048e-01</leafValues></_>
    <_>
      <internalNodes>
        0 -1 51261 -1.4097033999860287e-03</internalNodes>
      <leafValues>
        -7.1971052885055542e-01 9.8146118223667145e-02</leafValues></_>
    <_>
      <internalNodes>
        0 -1 7781 -4.2109742760658264e-02</internalNodes>
      <leafValues>
        6.4033573865890503e-01 -1.4002233743667603e-01</leafValues></_>
    <_>
      <internalNodes>
        0 -1 77909 2.4829958565533161e-03</internalNodes>
      <leafValues>
        -1.8615424633026123e-01 3.8895606994628906e-01</leafValues></_></weakClassifiers></stage19>
</opencv_storage>
