<?xml version="1.0"?>
<opencv_storage>
<stage20>
  <maxWeakCount>8</maxWeakCount>
  <stageThreshold>-2.5296485424041748e-01</stageThreshold>
  <weakClassifiers>
    <_>
      <internalNodes>
        0 -1 1923 -3.2209213823080063e-02</internalNodes>
      <leafValues>
        -6.4705884456634521e-01 7.4164807796478271e-01</leafValues></_>
    <_>
      <internalNodes>
        0 -1 29659 -9.4515550136566162e-01</internalNodes>
      <leafValues>
        -4.2136451601982117e-01 4.7631555795669556e-01</leafValues></_>
    <_>
      <internalNodes>
        0 -1 2165 -6.9639696739614010e-03</internalNodes>
      <leafValues>
        6.3175290822982788e-01 -2.6480871438980103e-01</leafValues></_>
    <_>
      <internalNodes>
        0 -1 6727 -4.6089813113212585e-03</internalNodes>
      <leafValues>
        4.9443802237510681e-01 -2.8891727328300476e-01</leafValues></_>
    <_>
      <internalNodes>
        0 -1 2090 -1.0193892568349838e-01</internalNodes>
      <leafValues>
        3.0127695202827454e-01 -4.3148651719093323e-01</leafValues></_>
    <_>
      <internalNodes>
        0 -1 67917 3.2644584774971008e-02</internalNodes>
      <leafValues>
        -2.8869608044624329e-01 5.4976671934127808e-01</leafValues></_>
    <_>
      <internalNodes>
        0 -1 77819 8.6828898638486862e-03</internalNodes>
      <leafValues>
        -2.1915157139301300e-01 5.5630898475646973e-01</leafValues></_>
    <_>
      <internalNodes>
        0 -1 77354 4.5352183282375336e-02</internalNodes>
      <leafValues>
        2.4104171991348267e-01 -5.9630709886550903e-01</leafValues></_></weakClassifiers></stage20>
</opencv_storage>
