<?xml version="1.0"?>
<opencv_storage>
<stage35>
  <maxWeakCount>21</maxWeakCount>
  <stageThreshold>-2.7635142207145691e-01</stageThreshold>
  <weakClassifiers>
    <_>
      <internalNodes>
        0 -1 1887 -1.6490769386291504e-01</internalNodes>
      <leafValues>
        -7.8378379344940186e-01 6.5316718816757202e-01</leafValues></_>
    <_>
      <internalNodes>
        0 -1 14501 3.0721948132850230e-04</internalNodes>
      <leafValues>
        3.5683500766754150e-01 -2.1882905066013336e-01</leafValues></_>
    <_>
      <internalNodes>
        0 -1 65731 4.3086468940600753e-04</internalNodes>
      <leafValues>
        -2.9891300201416016e-01 2.7882722020149231e-01</leafValues></_>
    <_>
      <internalNodes>
        0 -1 72787 -4.6816626563668251e-03</internalNodes>
      <leafValues>
        -6.9911432266235352e-01 1.1264756321907043e-01</leafValues></_>
    <_>
      <internalNodes>
        0 -1 52141 -2.0692650228738785e-02</internalNodes>
      <leafValues>
        8.0175399780273438e-01 -1.1405362188816071e-01</leafValues></_>
    <_>
      <internalNodes>
        0 -1 58062 9.5559917390346527e-02</internalNodes>
      <leafValues>
        -7.3377564549446106e-02 1.</leafValues></_>
    <_>
      <internalNodes>
        0 -1 22497 1.7523381859064102e-02</internalNodes>
      <leafValues>
        -1.8918798863887787e-01 4.3875971436500549e-01</leafValues></_>
    <_>
      <internalNodes>
        0 -1 27180 1.7348458059132099e-03</internalNodes>
      <leafValues>
        -1.5017962455749512e-01 4.5579561591148376e-01</leafValues></_>
    <_>
      <internalNodes>
        0 -1 49966 -8.5495930397883058e-04</internalNodes>
      <leafValues>
        -6.0738694667816162e-01 1.1519657820463181e-01</leafValues></_>
    <_>
      <internalNodes>
        0 -1 37067 1.0703814914450049e-03</internalNodes>
      <leafValues>
        1.4920251071453094e-01 -4.5548114180564880e-01</leafValues></_>
    <_>
      <internalNodes>
        0 -1 72503 4.7853961586952209e-03</internalNodes>
      <leafValues>
        1.1169314384460449e-01 -6.8869876861572266e-01</leafValues></_>
    <_>
      <internalNodes>
        0 -1 70735 9.5398817211389542e-03</internalNodes>
      <leafValues>
        -1.8837247788906097e-01 4.2453208565711975e-01</leafValues></_>
    <_>
      <internalNodes>
        0 -1 30928 -3.7149965763092041e-02</internalNodes>
      <leafValues>
        5.9990155696868896e-01 -1.2518267333507538e-01</leafValues></_>
    <_>
      <internalNodes>
        0 -1 75551 -6.4493145328015089e-04</internalNodes>
      <leafValues>
        2.5166773796081543e-01 -3.1559798121452332e-01</leafValues></_>
    <_>
      <internalNodes>
        0 -1 19943 -4.3312385678291321e-02</internalNodes>
      <leafValues>
        8.4388339519500732e-01 -8.4296993911266327e-02</leafValues></_>
    <_>
      <internalNodes>
        0 -1 4268 -2.3619116842746735e-01</internalNodes>
      <leafValues>
        -7.2208392620086670e-01 1.1256729811429977e-01</leafValues></_>
    <_>
      <internalNodes>
        0 -1 27833 -9.6643287688493729e-03</internalNodes>
      <leafValues>
        3.7781131267547607e-01 -1.8480345606803894e-01</leafValues></_>
    <_>
      <internalNodes>
        0 -1 71207 4.1837710887193680e-03</internalNodes>
      <leafValues>
        1.0782497376203537e-01 -7.6009559631347656e-01</leafValues></_>
    <_>
      <internalNodes>
        0 -1 15755 -4.3364102020859718e-03</internalNodes>
      <leafValues>
        4.6537864208221436e-01 -1.8530438840389252e-01</leafValues></_>
    <_>
      <internalNodes>
        0 -1 46870 -4.4554338091984391e-04</internalNodes>
      <leafValues>
        -5.1175701618194580e-01 1.6273814439773560e-01</leafValues></_>
    <_>
      <internalNodes>
        0 -1 34137 5.8646043762564659e-03</internalNodes>
      <leafValues>
        6.9629825651645660e-02 -7.7312368154525757e-01</leafValues></_></weakClassifiers></stage35>
</opencv_storage>
