<?xml version="1.0"?>
<opencv_storage>
<stage5>
  <maxWeakCount>11</maxWeakCount>
  <stageThreshold>-5.7450330257415771e-01</stageThreshold>
  <weakClassifiers>
    <_>
      <internalNodes>
        0 -1 21350 -1.6268897056579590e-01</internalNodes>
      <leafValues>
        -5.4761904478073120e-01 7.0524019002914429e-01</leafValues></_>
    <_>
      <internalNodes>
        0 -1 3902 -3.8711172528564930e-03</internalNodes>
      <leafValues>
        7.8890824317932129e-01 -1.1310929059982300e-01</leafValues></_>
    <_>
      <internalNodes>
        0 -1 66200 -1.1801715008914471e-03</internalNodes>
      <leafValues>
        5.5049192905426025e-01 -3.0765256285667419e-01</leafValues></_>
    <_>
      <internalNodes>
        0 -1 45535 1.7442397773265839e-02</internalNodes>
      <leafValues>
        -1.7158667743206024e-01 9.6479952335357666e-01</leafValues></_>
    <_>
      <internalNodes>
        0 -1 7597 8.2644857466220856e-03</internalNodes>
      <leafValues>
        -1.4394889771938324e-01 7.6334005594253540e-01</leafValues></_>
    <_>
      <internalNodes>
        0 -1 72228 -6.3067167997360229e-02</internalNodes>
      <leafValues>
        -5.3376829624176025e-01 2.6754486560821533e-01</leafValues></_>
    <_>
      <internalNodes>
        0 -1 7604 -2.5651790565461852e-05</internalNodes>
      <leafValues>
        3.3084714412689209e-01 -4.1260674595832825e-01</leafValues></_>
    <_>
      <internalNodes>
        0 -1 76614 -1.1758865788578987e-02</internalNodes>
      <leafValues>
        -8.1550139188766479e-01 1.6691991686820984e-01</leafValues></_>
    <_>
      <internalNodes>
        0 -1 74766 -9.7948312759399414e-04</internalNodes>
      <leafValues>
        4.2838531732559204e-01 -3.5947641730308533e-01</leafValues></_>
    <_>
      <internalNodes>
        0 -1 45668 -1.3050892949104309e-01</internalNodes>
      <leafValues>
        1.6965325176715851e-01 -8.0758261680603027e-01</leafValues></_>
    <_>
      <internalNodes>
        0 -1 72432 -5.2177336066961288e-02</internalNodes>
      <leafValues>
        -3.1762164831161499e-01 3.6171036958694458e-01</leafValues></_></weakClassifiers></stage5>
</opencv_storage>
