<?xml version="1.0"?>
<opencv_storage>
<stage42>
  <maxWeakCount>21</maxWeakCount>
  <stageThreshold>-2.7082714438438416e-01</stageThreshold>
  <weakClassifiers>
    <_>
      <internalNodes>
        0 -1 21197 3.0076958239078522e-02</internalNodes>
      <leafValues>
        6.7749422788619995e-01 1.1594203114509583e-01</leafValues></_>
    <_>
      <internalNodes>
        0 -1 41752 -7.5097987428307533e-04</internalNodes>
      <leafValues>
        -4.2939627170562744e-01 2.4351066350936890e-01</leafValues></_>
    <_>
      <internalNodes>
        0 -1 33437 -2.1559344604611397e-03</internalNodes>
      <leafValues>
        2.8217142820358276e-01 -2.6973500847816467e-01</leafValues></_>
    <_>
      <internalNodes>
        0 -1 69367 -2.2311264183372259e-03</internalNodes>
      <leafValues>
        2.3400478065013885e-01 -2.9106661677360535e-01</leafValues></_>
    <_>
      <internalNodes>
        0 -1 77193 -3.0254514422267675e-03</internalNodes>
      <leafValues>
        4.4085630774497986e-01 -1.3802170753479004e-01</leafValues></_>
    <_>
      <internalNodes>
        0 -1 73393 9.3557563377544284e-04</internalNodes>
      <leafValues>
        -2.7300879359245300e-01 2.4419416487216949e-01</leafValues></_>
    <_>
      <internalNodes>
        0 -1 27499 4.3323710560798645e-03</internalNodes>
      <leafValues>
        1.6806957125663757e-01 -3.7280729413032532e-01</leafValues></_>
    <_>
      <internalNodes>
        0 -1 30790 7.1922887582331896e-04</internalNodes>
      <leafValues>
        -3.0858838558197021e-01 1.9975909590721130e-01</leafValues></_>
    <_>
      <internalNodes>
        0 -1 10518 -1.5476289391517639e-01</internalNodes>
      <leafValues>
        -7.6161509752273560e-01 6.7211642861366272e-02</leafValues></_>
    <_>
      <internalNodes>
        0 -1 50669 4.4912868179380894e-03</internalNodes>
      <leafValues>
        -1.1307865381240845e-01 7.7214431762695313e-01</leafValues></_>
    <_>
      <internalNodes>
        0 -1 75264 -6.1175255104899406e-03</internalNodes>
      <leafValues>
        2.1791249513626099e-01 -2.7739503979682922e-01</leafValues></_>
    <_>
      <internalNodes>
        0 -1 78312 -2.7790263295173645e-02</internalNodes>
      <leafValues>
        -6.2360256910324097e-01 1.0511821508407593e-01</leafValues></_>
    <_>
      <internalNodes>
        0 -1 75256 4.4829244725406170e-03</internalNodes>
      <leafValues>
        -1.9647856056690216e-01 3.2570046186447144e-01</leafValues></_>
    <_>
      <internalNodes>
        0 -1 24449 -2.0163583755493164e-01</internalNodes>
      <leafValues>
        8.6606341600418091e-01 -7.5032658874988556e-02</leafValues></_>
    <_>
      <internalNodes>
        0 -1 75298 1.4403576496988535e-03</internalNodes>
      <leafValues>
        -1.3901399075984955e-01 3.9694014191627502e-01</leafValues></_>
    <_>
      <internalNodes>
        0 -1 61873 2.3463822901248932e-02</internalNodes>
      <leafValues>
        -1.0134103894233704e-01 5.5832594633102417e-01</leafValues></_>
    <_>
      <internalNodes>
        0 -1 26745 -6.2300343066453934e-02</internalNodes>
      <leafValues>
        3.6101374030113220e-01 -1.8974342942237854e-01</leafValues></_>
    <_>
      <internalNodes>
        0 -1 74827 -4.0549570694565773e-03</internalNodes>
      <leafValues>
        -5.7238352298736572e-01 1.4642232656478882e-01</leafValues></_>
    <_>
      <internalNodes>
        0 -1 40413 -8.0296304076910019e-03</internalNodes>
      <leafValues>
        -8.2315391302108765e-01 7.6217688620090485e-02</leafValues></_>
    <_>
      <internalNodes>
        0 -1 77896 1.2818994000554085e-03</internalNodes>
      <leafValues>
        -1.9076791405677795e-01 3.7578001618385315e-01</leafValues></_>
    <_>
      <internalNodes>
        0 -1 74712 -2.3595241364091635e-03</internalNodes>
      <leafValues>
        3.1621178984642029e-01 -1.9525469839572906e-01</leafValues></_></weakClassifiers></stage42>
</opencv_storage>
