<?xml version="1.0"?>
<opencv_storage>
<stage34>
  <maxWeakCount>25</maxWeakCount>
  <stageThreshold>-4.0687870979309082e-01</stageThreshold>
  <weakClassifiers>
    <_>
      <internalNodes>
        0 -1 2368 -2.1081633865833282e-01</internalNodes>
      <leafValues>
        -8.3333331346511841e-01 6.3524591922760010e-01</leafValues></_>
    <_>
      <internalNodes>
        0 -1 8520 4.9703873693943024e-02</internalNodes>
      <leafValues>
        -4.8215351998806000e-02 6.2398129701614380e-01</leafValues></_>
    <_>
      <internalNodes>
        0 -1 14744 1.3898570090532303e-02</internalNodes>
      <leafValues>
        -1.4600530266761780e-01 5.6505256891250610e-01</leafValues></_>
    <_>
      <internalNodes>
        0 -1 7608 -2.0885816775262356e-03</internalNodes>
      <leafValues>
        2.9464340209960938e-01 -2.4949777126312256e-01</leafValues></_>
    <_>
      <internalNodes>
        0 -1 10502 -4.0199708193540573e-02</internalNodes>
      <leafValues>
        3.1381931900978088e-01 -2.2606369853019714e-01</leafValues></_>
    <_>
      <internalNodes>
        0 -1 69901 -1.0452238842844963e-02</internalNodes>
      <leafValues>
        4.7250807285308838e-01 -1.6796450316905975e-01</leafValues></_>
    <_>
      <internalNodes>
        0 -1 59837 -3.3730913419276476e-03</internalNodes>
      <leafValues>
        1.8708717823028564e-01 -4.3656817078590393e-01</leafValues></_>
    <_>
      <internalNodes>
        0 -1 8452 2.4042502045631409e-02</internalNodes>
      <leafValues>
        -9.8067231476306915e-02 6.8776088953018188e-01</leafValues></_>
    <_>
      <internalNodes>
        0 -1 55379 6.3444240367971361e-05</internalNodes>
      <leafValues>
        -1.8658846616744995e-01 3.6855122447013855e-01</leafValues></_>
    <_>
      <internalNodes>
        0 -1 67089 7.5207056943327188e-04</internalNodes>
      <leafValues>
        -1.8213291466236115e-01 4.5621049404144287e-01</leafValues></_>
    <_>
      <internalNodes>
        0 -1 72016 8.0705359578132629e-03</internalNodes>
      <leafValues>
        1.0212652385234833e-01 -7.8361612558364868e-01</leafValues></_>
    <_>
      <internalNodes>
        0 -1 65735 -5.5748882004991174e-05</internalNodes>
      <leafValues>
        -3.6279866099357605e-01 1.6664190590381622e-01</leafValues></_>
    <_>
      <internalNodes>
        0 -1 47595 -2.8187944553792477e-04</internalNodes>
      <leafValues>
        -4.0748396515846252e-01 1.4820441603660583e-01</leafValues></_>
    <_>
      <internalNodes>
        0 -1 66200 -9.2895776033401489e-03</internalNodes>
      <leafValues>
        6.3290917873382568e-01 -1.0378131270408630e-01</leafValues></_>
    <_>
      <internalNodes>
        0 -1 51256 5.1474256906658411e-04</internalNodes>
      <leafValues>
        1.8848195672035217e-01 -3.6863631010055542e-01</leafValues></_>
    <_>
      <internalNodes>
        0 -1 76446 1.0915903840214014e-03</internalNodes>
      <leafValues>
        -2.7331703901290894e-01 2.1880379319190979e-01</leafValues></_>
    <_>
      <internalNodes>
        0 -1 50423 -1.8505022162571549e-03</internalNodes>
      <leafValues>
        -7.0576715469360352e-01 8.7153665721416473e-02</leafValues></_>
    <_>
      <internalNodes>
        0 -1 62681 1.9229166209697723e-02</internalNodes>
      <leafValues>
        -8.3253152668476105e-02 8.0516654253005981e-01</leafValues></_>
    <_>
      <internalNodes>
        0 -1 29817 6.5186331048607826e-03</internalNodes>
      <leafValues>
        -1.0055532306432724e-01 5.3090345859527588e-01</leafValues></_>
    <_>
      <internalNodes>
        0 -1 14382 -6.8650366738438606e-03</internalNodes>
      <leafValues>
        -4.4887760281562805e-01 1.6313199698925018e-01</leafValues></_>
    <_>
      <internalNodes>
        0 -1 65486 -1.0005765594542027e-02</internalNodes>
      <leafValues>
        5.3978556394577026e-01 -1.0567269474267960e-01</leafValues></_>
    <_>
      <internalNodes>
        0 -1 78292 -2.8965336969122291e-04</internalNodes>
      <leafValues>
        -3.3983272314071655e-01 1.9604380428791046e-01</leafValues></_>
    <_>
      <internalNodes>
        0 -1 26462 -2.7100802399218082e-03</internalNodes>
      <leafValues>
        -7.4477154016494751e-01 7.9083561897277832e-02</leafValues></_>
    <_>
      <internalNodes>
        0 -1 40637 8.9149773120880127e-02</internalNodes>
      <leafValues>
        5.4135479032993317e-02 -8.5682177543640137e-01</leafValues></_>
    <_>
      <internalNodes>
        0 -1 265 5.6916465982794762e-03</internalNodes>
      <leafValues>
        8.1554606556892395e-02 -6.0299676656723022e-01</leafValues></_></weakClassifiers></stage34>
</opencv_storage>
