<?xml version="1.0"?>
<opencv_storage>
<stage47>
  <maxWeakCount>22</maxWeakCount>
  <stageThreshold>-3.7715393304824829e-01</stageThreshold>
  <weakClassifiers>
    <_>
      <internalNodes>
        0 -1 9026 -8.2473251968622208e-03</internalNodes>
      <leafValues>
        -7.5000000000000000e-01 6.4462810754776001e-01</leafValues></_>
    <_>
      <internalNodes>
        0 -1 7606 -4.2647568625397980e-04</internalNodes>
      <leafValues>
        3.5160586237907410e-01 -2.7410459518432617e-01</leafValues></_>
    <_>
      <internalNodes>
        0 -1 28723 -4.5846179127693176e-02</internalNodes>
      <leafValues>
        -1.5242712199687958e-01 6.7257821559906006e-01</leafValues></_>
    <_>
      <internalNodes>
        0 -1 14804 1.5271981246769428e-03</internalNodes>
      <leafValues>
        -2.6282995939254761e-01 3.3284512162208557e-01</leafValues></_>
    <_>
      <internalNodes>
        0 -1 78213 2.9997397214174271e-03</internalNodes>
      <leafValues>
        1.7665219306945801e-01 -5.6591480970382690e-01</leafValues></_>
    <_>
      <internalNodes>
        0 -1 769 -7.6307421550154686e-03</internalNodes>
      <leafValues>
        4.4733586907386780e-01 -2.0481428503990173e-01</leafValues></_>
    <_>
      <internalNodes>
        0 -1 68900 7.8837089240550995e-03</internalNodes>
      <leafValues>
        -1.2090969085693359e-01 6.0282224416732788e-01</leafValues></_>
    <_>
      <internalNodes>
        0 -1 72135 8.5875112563371658e-04</internalNodes>
      <leafValues>
        -2.1227079629898071e-01 4.2473363876342773e-01</leafValues></_>
    <_>
      <internalNodes>
        0 -1 67718 -3.2478738576173782e-03</internalNodes>
      <leafValues>
        3.7373518943786621e-01 -2.2833359241485596e-01</leafValues></_>
    <_>
      <internalNodes>
        0 -1 77318 4.6895928680896759e-03</internalNodes>
      <leafValues>
        -1.6590258479118347e-01 4.5532900094985962e-01</leafValues></_>
    <_>
      <internalNodes>
        0 -1 21926 2.6499722152948380e-02</internalNodes>
      <leafValues>
        1.3141585886478424e-01 -5.8150839805603027e-01</leafValues></_>
    <_>
      <internalNodes>
        0 -1 1119 1.7964020371437073e-02</internalNodes>
      <leafValues>
        -1.6663716733455658e-01 4.2729347944259644e-01</leafValues></_>
    <_>
      <internalNodes>
        0 -1 7511 -5.9473272413015366e-03</internalNodes>
      <leafValues>
        4.8994198441505432e-01 -1.4958286285400391e-01</leafValues></_>
    <_>
      <internalNodes>
        0 -1 43544 1.1291386326774955e-03</internalNodes>
      <leafValues>
        2.0857369899749756e-01 -3.4755873680114746e-01</leafValues></_>
    <_>
      <internalNodes>
        0 -1 49420 1.1382397264242172e-02</internalNodes>
      <leafValues>
        -1.0564547032117844e-01 7.4443936347961426e-01</leafValues></_>
    <_>
      <internalNodes>
        0 -1 78428 8.0995517782866955e-04</internalNodes>
      <leafValues>
        1.6949100792407990e-01 -4.3383079767227173e-01</leafValues></_>
    <_>
      <internalNodes>
        0 -1 49924 3.1225554994307458e-04</internalNodes>
      <leafValues>
        -2.3206286132335663e-01 3.1037634611129761e-01</leafValues></_>
    <_>
      <internalNodes>
        0 -1 32339 -2.0604408346116543e-03</internalNodes>
      <leafValues>
        -6.1534953117370605e-01 1.0491283982992172e-01</leafValues></_>
    <_>
      <internalNodes>
        0 -1 1568 -2.8718259185552597e-02</internalNodes>
      <leafValues>
        5.3177791833877563e-01 -1.2981045246124268e-01</leafValues></_>
    <_>
      <internalNodes>
        0 -1 8390 1.0393996722996235e-02</internalNodes>
      <leafValues>
        -1.1499675363302231e-01 6.2517744302749634e-01</leafValues></_>
    <_>
      <internalNodes>
        0 -1 55319 -4.1266483068466187e-01</internalNodes>
      <leafValues>
        1.3552735745906830e-01 -5.2040374279022217e-01</leafValues></_>
    <_>
      <internalNodes>
        0 -1 55023 -1.3355298433452845e-03</internalNodes>
      <leafValues>
        -4.9223417043685913e-01 1.1835866421461105e-01</leafValues></_></weakClassifiers></stage47>
</opencv_storage>
