<?xml version="1.0"?>
<opencv_storage>
<stage7>
  <maxWeakCount>10</maxWeakCount>
  <stageThreshold>-6.6305361688137054e-02</stageThreshold>
  <weakClassifiers>
    <_>
      <internalNodes>
        0 -1 526 3.6860173940658569e-01</internalNodes>
      <leafValues>
        7.5670838356018066e-01 -5.6097561120986938e-01</leafValues></_>
    <_>
      <internalNodes>
        0 -1 4552 -7.2821239009499550e-03</internalNodes>
      <leafValues>
        8.2397383451461792e-01 -1.6342122852802277e-01</leafValues></_>
    <_>
      <internalNodes>
        0 -1 726 2.1477533504366875e-02</internalNodes>
      <leafValues>
        -1.4371907711029053e-01 8.8164848089218140e-01</leafValues></_>
    <_>
      <internalNodes>
        0 -1 2200 -8.2440776750445366e-03</internalNodes>
      <leafValues>
        6.9991701841354370e-01 -3.1130158901214600e-01</leafValues></_>
    <_>
      <internalNodes>
        0 -1 54581 3.7544639781117439e-04</internalNodes>
      <leafValues>
        -3.2643872499465942e-01 5.4124635457992554e-01</leafValues></_>
    <_>
      <internalNodes>
        0 -1 2002 -1.9135010242462158e-01</internalNodes>
      <leafValues>
        6.4581930637359619e-01 -2.5912150740623474e-01</leafValues></_>
    <_>
      <internalNodes>
        0 -1 41307 -2.3125957231968641e-03</internalNodes>
      <leafValues>
        5.5718630552291870e-01 -3.0479755997657776e-01</leafValues></_>
    <_>
      <internalNodes>
        0 -1 68537 -2.4066820740699768e-02</internalNodes>
      <leafValues>
        -4.2226231098175049e-01 4.3998092412948608e-01</leafValues></_>
    <_>
      <internalNodes>
        0 -1 6924 -3.4147841506637633e-04</internalNodes>
      <leafValues>
        4.8789364099502563e-01 -3.4681192040443420e-01</leafValues></_>
    <_>
      <internalNodes>
        0 -1 1007 2.0063765347003937e-02</internalNodes>
      <leafValues>
        -2.4182927608489990e-01 7.3315834999084473e-01</leafValues></_></weakClassifiers></stage7>
</opencv_storage>
