<?xml version="1.0"?>
<opencv_storage>
<stage19>
  <maxWeakCount>13</maxWeakCount>
  <stageThreshold>-8.1872731447219849e-02</stageThreshold>
  <weakClassifiers>
    <_>
      <internalNodes>
        0 -1 39843 4.2446237057447433e-04</internalNodes>
      <leafValues>
        7.6744186878204346e-01 4.7619048506021500e-02</leafValues></_>
    <_>
      <internalNodes>
        0 -1 8885 -1.9147118926048279e-01</internalNodes>
      <leafValues>
        6.7406141757965088e-01 -1.7159420251846313e-01</leafValues></_>
    <_>
      <internalNodes>
        0 -1 58660 -1.6113074123859406e-01</internalNodes>
      <leafValues>
        2.2014832496643066e-01 -7.7788621187210083e-01</leafValues></_>
    <_>
      <internalNodes>
        0 -1 73427 2.4093483807519078e-04</internalNodes>
      <leafValues>
        -3.5319340229034424e-01 4.2317453026771545e-01</leafValues></_>
    <_>
      <internalNodes>
        0 -1 14701 -6.7895825486630201e-04</internalNodes>
      <leafValues>
        -5.4921746253967285e-01 2.2874619066715240e-01</leafValues></_>
    <_>
      <internalNodes>
        0 -1 27500 1.1711192317306995e-02</internalNodes>
      <leafValues>
        -1.5279924869537354e-01 8.4589511156082153e-01</leafValues></_>
    <_>
      <internalNodes>
        0 -1 2296 -4.3103441596031189e-02</internalNodes>
      <leafValues>
        7.3034071922302246e-01 -1.6484138369560242e-01</leafValues></_>
    <_>
      <internalNodes>
        0 -1 26831 2.9534255154430866e-03</internalNodes>
      <leafValues>
        -2.5020289421081543e-01 5.0660336017608643e-01</leafValues></_>
    <_>
      <internalNodes>
        0 -1 47107 6.5769955515861511e-02</internalNodes>
      <leafValues>
        -1.4109943807125092e-01 7.8156536817550659e-01</leafValues></_>
    <_>
      <internalNodes>
        0 -1 5305 3.0705390963703394e-04</internalNodes>
      <leafValues>
        2.6193279027938843e-01 -4.6419936418533325e-01</leafValues></_>
    <_>
      <internalNodes>
        0 -1 62366 -4.1317823342978954e-04</internalNodes>
      <leafValues>
        -7.7257865667343140e-01 1.5482336282730103e-01</leafValues></_>
    <_>
      <internalNodes>
        0 -1 65679 3.8843310903757811e-04</internalNodes>
      <leafValues>
        -4.2587456107139587e-01 2.7862244844436646e-01</leafValues></_>
    <_>
      <internalNodes>
        0 -1 20 -3.1313044019043446e-03</internalNodes>
      <leafValues>
        -6.8451195955276489e-01 2.0750327408313751e-01</leafValues></_></weakClassifiers></stage19>
</opencv_storage>
