<?xml version="1.0"?>
<opencv_storage>
<stage29>
  <maxWeakCount>15</maxWeakCount>
  <stageThreshold>-2.5653969496488571e-02</stageThreshold>
  <weakClassifiers>
    <_>
      <internalNodes>
        0 -1 7736 4.5655131340026855e-02</internalNodes>
      <leafValues>
        7.0154374837875366e-01 -5.2941179275512695e-01</leafValues></_>
    <_>
      <internalNodes>
        0 -1 71076 4.0288707241415977e-03</internalNodes>
      <leafValues>
        -8.3978973329067230e-02 6.4628207683563232e-01</leafValues></_>
    <_>
      <internalNodes>
        0 -1 52062 -3.6015440127812326e-04</internalNodes>
      <leafValues>
        4.5056015253067017e-01 -2.7005612850189209e-01</leafValues></_>
    <_>
      <internalNodes>
        0 -1 75942 2.4842179846018553e-03</internalNodes>
      <leafValues>
        -1.9906044006347656e-01 5.0897389650344849e-01</leafValues></_>
    <_>
      <internalNodes>
        0 -1 17746 -6.8336054682731628e-02</internalNodes>
      <leafValues>
        7.0772570371627808e-01 -1.8404360115528107e-01</leafValues></_>
    <_>
      <internalNodes>
        0 -1 6914 -5.5378628894686699e-04</internalNodes>
      <leafValues>
        5.1152938604354858e-01 -2.1425661444664001e-01</leafValues></_>
    <_>
      <internalNodes>
        0 -1 69616 -2.5286711752414703e-03</internalNodes>
      <leafValues>
        7.6950180530548096e-01 -1.1902045458555222e-01</leafValues></_>
    <_>
      <internalNodes>
        0 -1 53126 1.0444762185215950e-02</internalNodes>
      <leafValues>
        -3.6804348230361938e-01 3.3146467804908752e-01</leafValues></_>
    <_>
      <internalNodes>
        0 -1 58249 -7.9039903357625008e-04</internalNodes>
      <leafValues>
        5.4236119985580444e-01 -2.3169487714767456e-01</leafValues></_>
    <_>
      <internalNodes>
        0 -1 43913 -7.8628852963447571e-02</internalNodes>
      <leafValues>
        -2.2490359842777252e-01 4.8232081532478333e-01</leafValues></_>
    <_>
      <internalNodes>
        0 -1 47601 6.2908476684242487e-04</internalNodes>
      <leafValues>
        -1.3268242776393890e-01 7.0142990350723267e-01</leafValues></_>
    <_>
      <internalNodes>
        0 -1 18257 -1.1763884127140045e-01</internalNodes>
      <leafValues>
        6.8125981092453003e-01 -1.2507176399230957e-01</leafValues></_>
    <_>
      <internalNodes>
        0 -1 68566 -1.0381395928561687e-02</internalNodes>
      <leafValues>
        6.6532713174819946e-01 -1.2105999886989594e-01</leafValues></_>
    <_>
      <internalNodes>
        0 -1 21214 -3.3169806003570557e-02</internalNodes>
      <leafValues>
        7.1672338247299194e-01 -1.1539486795663834e-01</leafValues></_>
    <_>
      <internalNodes>
        0 -1 14606 -2.0776008022949100e-04</internalNodes>
      <leafValues>
        -4.2833328247070313e-01 2.4681077897548676e-01</leafValues></_></weakClassifiers></stage29>
</opencv_storage>
