<?xml version="1.0"?>
<opencv_storage>
<stage4>
  <maxWeakCount>9</maxWeakCount>
  <stageThreshold>-6.1486333608627319e-01</stageThreshold>
  <weakClassifiers>
    <_>
      <internalNodes>
        0 -1 27760 -2.8101794421672821e-02</internalNodes>
      <leafValues>
        -2.5714287161827087e-01 7.8867924213409424e-01</leafValues></_>
    <_>
      <internalNodes>
        0 -1 34480 -1.9249022006988525e-02</internalNodes>
      <leafValues>
        5.6756323575973511e-01 -3.7744915485382080e-01</leafValues></_>
    <_>
      <internalNodes>
        0 -1 11756 -3.5608485341072083e-03</internalNodes>
      <leafValues>
        8.4522342681884766e-01 -1.8955576419830322e-01</leafValues></_>
    <_>
      <internalNodes>
        0 -1 7273 -4.1307746432721615e-03</internalNodes>
      <leafValues>
        6.9738459587097168e-01 -2.0490118861198425e-01</leafValues></_>
    <_>
      <internalNodes>
        0 -1 77018 6.9041119422763586e-04</internalNodes>
      <leafValues>
        -2.4045884609222412e-01 6.2893074750900269e-01</leafValues></_>
    <_>
      <internalNodes>
        0 -1 72284 1.8159775063395500e-02</internalNodes>
      <leafValues>
        -2.0248576998710632e-01 8.1783199310302734e-01</leafValues></_>
    <_>
      <internalNodes>
        0 -1 33663 -4.0990900248289108e-02</internalNodes>
      <leafValues>
        -6.0686880350112915e-01 2.5985786318778992e-01</leafValues></_>
    <_>
      <internalNodes>
        0 -1 17398 -3.6196961998939514e-02</internalNodes>
      <leafValues>
        9.0128076076507568e-01 -1.8036647140979767e-01</leafValues></_>
    <_>
      <internalNodes>
        0 -1 51031 -2.2089127451181412e-03</internalNodes>
      <leafValues>
        5.3891253471374512e-01 -2.7084618806838989e-01</leafValues></_></weakClassifiers></stage4>
</opencv_storage>
