<?xml version="1.0"?>
<opencv_storage>
<stage26>
  <maxWeakCount>12</maxWeakCount>
  <stageThreshold>-1.2457295320928097e-02</stageThreshold>
  <weakClassifiers>
    <_>
      <internalNodes>
        0 -1 71227 1.3235609047114849e-02</internalNodes>
      <leafValues>
        7.0497429370880127e-01 -6.4705884456634521e-01</leafValues></_>
    <_>
      <internalNodes>
        0 -1 9164 -3.5040829330682755e-02</internalNodes>
      <leafValues>
        7.8626054525375366e-01 -2.5120839476585388e-02</leafValues></_>
    <_>
      <internalNodes>
        0 -1 7598 1.3745959848165512e-02</internalNodes>
      <leafValues>
        -1.9232869148254395e-01 6.4354443550109863e-01</leafValues></_>
    <_>
      <internalNodes>
        0 -1 74531 -9.9220424890518188e-03</internalNodes>
      <leafValues>
        8.7584269046783447e-01 -1.2241164594888687e-01</leafValues></_>
    <_>
      <internalNodes>
        0 -1 54994 -2.1486058831214905e-02</internalNodes>
      <leafValues>
        5.3833276033401489e-01 -2.0067313313484192e-01</leafValues></_>
    <_>
      <internalNodes>
        0 -1 69458 -2.1822075359523296e-03</internalNodes>
      <leafValues>
        4.2749634385108948e-01 -3.1760662794113159e-01</leafValues></_>
    <_>
      <internalNodes>
        0 -1 55072 -3.7210851907730103e-02</internalNodes>
      <leafValues>
        -7.1683275699615479e-01 1.4699639379978180e-01</leafValues></_>
    <_>
      <internalNodes>
        0 -1 65500 3.9782524108886719e-03</internalNodes>
      <leafValues>
        -2.1318262815475464e-01 5.3125911951065063e-01</leafValues></_>
    <_>
      <internalNodes>
        0 -1 27602 2.2214386612176895e-02</internalNodes>
      <leafValues>
        -1.4823041856288910e-01 8.8381201028823853e-01</leafValues></_>
    <_>
      <internalNodes>
        0 -1 75691 1.6939617693424225e-02</internalNodes>
      <leafValues>
        2.0343507826328278e-01 -6.6821235418319702e-01</leafValues></_>
    <_>
      <internalNodes>
        0 -1 72439 7.6946858316659927e-03</internalNodes>
      <leafValues>
        -2.2023677825927734e-01 5.6060320138931274e-01</leafValues></_>
    <_>
      <internalNodes>
        0 -1 75761 4.3472466059029102e-03</internalNodes>
      <leafValues>
        -2.4831463396549225e-01 4.7207382321357727e-01</leafValues></_></weakClassifiers></stage26>
</opencv_storage>
