<?xml version="1.0"?>
<opencv_storage>
<stage8>
  <maxWeakCount>10</maxWeakCount>
  <stageThreshold>-2.4283212423324585e-01</stageThreshold>
  <weakClassifiers>
    <_>
      <internalNodes>
        0 -1 1172 1.7287565395236015e-02</internalNodes>
      <leafValues>
        8.1891345977783203e-01 -6.7961163818836212e-02</leafValues></_>
    <_>
      <internalNodes>
        0 -1 7228 4.0948897600173950e-02</internalNodes>
      <leafValues>
        5.1360821723937988e-01 -5.2549701929092407e-01</leafValues></_>
    <_>
      <internalNodes>
        0 -1 64 -7.9586580395698547e-03</internalNodes>
      <leafValues>
        8.2836067676544189e-01 -1.9392791390419006e-01</leafValues></_>
    <_>
      <internalNodes>
        0 -1 78401 2.9655280523002148e-03</internalNodes>
      <leafValues>
        4.4758686423301697e-01 -3.6407756805419922e-01</leafValues></_>
    <_>
      <internalNodes>
        0 -1 7428 5.1262632012367249e-02</internalNodes>
      <leafValues>
        -2.0503556728363037e-01 7.9350823163986206e-01</leafValues></_>
    <_>
      <internalNodes>
        0 -1 72857 -7.4963184306398034e-04</internalNodes>
      <leafValues>
        7.0900481939315796e-01 -2.3396551609039307e-01</leafValues></_>
    <_>
      <internalNodes>
        0 -1 68355 -7.3190495371818542e-02</internalNodes>
      <leafValues>
        -7.4355119466781616e-01 2.5338146090507507e-01</leafValues></_>
    <_>
      <internalNodes>
        0 -1 290 4.9517806619405746e-03</internalNodes>
      <leafValues>
        3.6162397265434265e-01 -4.4105604290962219e-01</leafValues></_>
    <_>
      <internalNodes>
        0 -1 741 1.9676893134601414e-04</internalNodes>
      <leafValues>
        3.4335854649543762e-01 -5.1410591602325439e-01</leafValues></_>
    <_>
      <internalNodes>
        0 -1 54676 -4.6985049266368151e-04</internalNodes>
      <leafValues>
        -4.5180600881576538e-01 3.4585618972778320e-01</leafValues></_></weakClassifiers></stage8>
</opencv_storage>
