<?xml version="1.0"?>
<opencv_storage>
<cascade>
  <stageType>BOOST</stageType>
  <featureType>HAAR</featureType>
  <height>20</height>
  <width>20</width>
  <stageParams>
    <boostType>GAB</boostType>
    <minHitRate>9.9500000476837158e-01</minHitRate>
    <maxFalseAlarm>5.0000000000000000e-01</maxFalseAlarm>
    <weightTrimRate>9.4999999999999996e-01</weightTrimRate>
    <maxDepth>1</maxDepth>
    <maxWeakCount>100</maxWeakCount></stageParams>
  <featureParams>
    <maxCatCount>0</maxCatCount>
    <featSize>1</featSize>
    <mode>BASIC</mode></featureParams>
  <stageNum>50</stageNum>
  <stages>
    <!-- stage 0 -->
    <_>
      <maxWeakCount>4</maxWeakCount>
      <stageThreshold>-9.3634121119976044e-02</stageThreshold>
      <weakClassifiers>
        <_>
          <internalNodes>
            0 -1 514 -1.8898090720176697e-01</internalNodes>
          <leafValues>
            7.1736782789230347e-01 -8.9041095972061157e-01</leafValues></_>
        <_>
          <internalNodes>
            0 -1 174 -2.3486010730266571e-01</internalNodes>
          <leafValues>
            -8.8474076986312866e-01 5.3812533617019653e-01</leafValues></_>
        <_>
          <internalNodes>
            0 -1 516 -6.3804239034652710e-03</internalNodes>
          <leafValues>
            6.3372206687927246e-01 -5.2567952871322632e-01</leafValues></_>
        <_>
          <internalNodes>
            0 -1 17 2.9182727448642254e-03</internalNodes>
          <leafValues>
            -3.7312752008438110e-01 7.8433102369308472e-01</leafValues></_></weakClassifiers></_>
    <!-- stage 1 -->
    <_>
      <maxWeakCount>6</maxWeakCount>
      <stageThreshold>-8.1919974088668823e-01</stageThreshold>
      <weakClassifiers>
        <_>
          <internalNodes>
            0 -1 499 -8.3673879504203796e-02</internalNodes>
          <leafValues>
            -9.3548387289047241e-01 7.5744211673736572e-01</leafValues></_>
        <_>
          <internalNodes>
            0 -1 60 -1.1910468339920044e-02</internalNodes>
          <leafValues>
            7.1359258890151978e-01 -4.8699530959129333e-01</leafValues></_>
        <_>
          <internalNodes>
            0 -1 845 6.4531608950346708e-04</internalNodes>
          <leafValues>
            -3.9113754034042358e-01 6.9663012027740479e-01</leafValues></_>
        <_>
          <internalNodes>
            0 -1 368 3.4396564587950706e-03</internalNodes>
          <leafValues>
            -3.6555883288383484e-01 6.2669742107391357e-01</leafValues></_>
        <_>
          <internalNodes>
            0 -1 122 -3.2644701423123479e-04</internalNodes>
          <leafValues>
            4.8544788360595703e-01 -4.4801473617553711e-01</leafValues></_>
        <_>
          <internalNodes>
            0 -1 668 4.3877218849956989e-03</internalNodes>
          <leafValues>
            -3.2605999708175659e-01 7.6359760761260986e-01</leafValues></_></weakClassifiers></_>
    <!-- stage 2 -->
    <_>
      <maxWeakCount>9</maxWeakCount>
      <stageThreshold>-7.4852198362350464e-01</stageThreshold>
      <weakClassifiers>
        <_>
          <internalNodes>
            0 -1 220 -8.9601802825927734e-01</internalNodes>
          <leafValues>
            -8.9610391855239868e-01 7.2481042146682739e-01</leafValues></_>
        <_>
          <internalNodes>
            0 -1 560 -5.5299894884228706e-03</internalNodes>
          <leafValues>
            8.0915576219558716e-01 -2.5068989396095276e-01</leafValues></_>
        <_>
          <internalNodes>
            0 -1 184 -3.2835281454026699e-03</internalNodes>
          <leafValues>
            8.0066823959350586e-01 -2.7631187438964844e-01</leafValues></_>
        <_>
          <internalNodes>
            0 -1 59 -1.6954101622104645e-02</internalNodes>
          <leafValues>
            6.2265032529830933e-01 -3.6232572793960571e-01</leafValues></_>
        <_>
          <internalNodes>
            0 -1 825 1.2586237862706184e-03</internalNodes>
          <leafValues>
            -3.5089790821075439e-01 5.4681456089019775e-01</leafValues></_>
        <_>
          <internalNodes>
            0 -1 236 -5.6119998916983604e-03</internalNodes>
          <leafValues>
            7.3038923740386963e-01 -2.4355973303318024e-01</leafValues></_>
        <_>
          <internalNodes>
            0 -1 641 -6.1078436672687531e-02</internalNodes>
          <leafValues>
            -5.4532450437545776e-01 3.4925007820129395e-01</leafValues></_>
        <_>
          <internalNodes>
            0 -1 188 5.2751805633306503e-03</internalNodes>
          <leafValues>
            -2.7417439222335815e-01 7.7217310667037964e-01</leafValues></_>
        <_>
          <internalNodes>
            0 -1 361 5.7578191626816988e-04</internalNodes>
          <leafValues>
            -2.4702847003936768e-01 6.1075568199157715e-01</leafValues></_></weakClassifiers></_>
    <!-- stage 3 -->
    <_>
      <maxWeakCount>8</maxWeakCount>
      <stageThreshold>-5.0790911912918091e-01</stageThreshold>
      <weakClassifiers>
        <_>
          <internalNodes>
            0 -1 440 4.5504537411034107e-04</internalNodes>
          <leafValues>
            -9.1603055596351624e-02 8.4552848339080811e-01</leafValues></_>
        <_>
          <internalNodes>
            0 -1 245 -5.9887468814849854e-02</internalNodes>
          <leafValues>
            -9.1382157802581787e-01 4.1722398996353149e-01</leafValues></_>
        <_>
          <internalNodes>
            0 -1 635 -1.3567931018769741e-02</internalNodes>
          <leafValues>
            4.5456129312515259e-01 -4.0981480479240417e-01</leafValues></_>
        <_>
          <internalNodes>
            0 -1 785 1.2266602367162704e-02</internalNodes>
          <leafValues>
            -2.5028643012046814e-01 6.3126879930496216e-01</leafValues></_>
        <_>
          <internalNodes>
            0 -1 570 4.6618919819593430e-02</internalNodes>
          <leafValues>
            -2.5636401772499084e-01 6.5644544363021851e-01</leafValues></_>
        <_>
          <internalNodes>
            0 -1 717 1.3312056660652161e-02</internalNodes>
          <leafValues>
            -2.3095737397670746e-01 6.6664057970046997e-01</leafValues></_>
        <_>
          <internalNodes>
            0 -1 13 -3.2703572511672974e-01</internalNodes>
          <leafValues>
            -6.9205832481384277e-01 2.5426805019378662e-01</leafValues></_>
        <_>
          <internalNodes>
            0 -1 195 -1.0419359430670738e-02</internalNodes>
          <leafValues>
            1.2439570575952530e-01 -9.8807775974273682e-01</leafValues></_></weakClassifiers></_>
    <!-- stage 4 -->
    <_>
      <maxWeakCount>12</maxWeakCount>
      <stageThreshold>-5.2420532703399658e-01</stageThreshold>
      <weakClassifiers>
        <_>
          <internalNodes>
            0 -1 624 -2.2310193628072739e-02</internalNodes>
          <leafValues>
            6.9116079807281494e-01 -8.0327868461608887e-01</leafValues></_>
        <_>
          <internalNodes>
            0 -1 356 2.0505548454821110e-03</internalNodes>
          <leafValues>
            -4.2504373192787170e-01 4.9889460206031799e-01</leafValues></_>
        <_>
          <internalNodes>
            0 -1 209 -6.1097227036952972e-02</internalNodes>
          <leafValues>
            5.2511256933212280e-01 -3.6732029914855957e-01</leafValues></_>
        <_>
          <internalNodes>
            0 -1 675 -4.2009295430034399e-04</internalNodes>
          <leafValues>
            3.8585138320922852e-01 -4.7058853507041931e-01</leafValues></_>
        <_>
          <internalNodes>
            0 -1 273 8.1517640501260757e-03</internalNodes>
          <leafValues>
            -3.6440822482109070e-01 4.4062879681587219e-01</leafValues></_>
        <_>
          <internalNodes>
            0 -1 684 -2.8566300868988037e-02</internalNodes>
          <leafValues>
            7.1053254604339600e-01 -2.4401676654815674e-01</leafValues></_>
        <_>
          <internalNodes>
            0 -1 653 1.1823561042547226e-02</internalNodes>
          <leafValues>
            -1.3475242257118225e-01 7.1936982870101929e-01</leafValues></_>
        <_>
          <internalNodes>
            0 -1 201 1.2894023209810257e-02</internalNodes>
          <leafValues>
            -1.8003128468990326e-01 6.1905062198638916e-01</leafValues></_>
        <_>
          <internalNodes>
            0 -1 160 9.3600004911422729e-03</internalNodes>
          <leafValues>
            -2.3425081372261047e-01 4.9214044213294983e-01</leafValues></_>
        <_>
          <internalNodes>
            0 -1 452 -9.5254473853856325e-04</internalNodes>
          <leafValues>
            -6.6485178470611572e-01 1.6141705214977264e-01</leafValues></_>
        <_>
          <internalNodes>
            0 -1 106 -4.9970513209700584e-03</internalNodes>
          <leafValues>
            4.1888275742530823e-01 -2.7446556091308594e-01</leafValues></_>
        <_>
          <internalNodes>
            0 -1 658 1.0332979727536440e-03</internalNodes>
          <leafValues>
            -1.7782413959503174e-01 5.5858212709426880e-01</leafValues></_></weakClassifiers></_>
    <!-- stage 5 -->
    <_>
      <maxWeakCount>11</maxWeakCount>
      <stageThreshold>-5.7450330257415771e-01</stageThreshold>
      <weakClassifiers>
        <_>
          <internalNodes>
            0 -1 241 -1.6268897056579590e-01</internalNodes>
          <leafValues>
            -5.4761904478073120e-01 7.0524019002914429e-01</leafValues></_>
        <_>
          <internalNodes>
            0 -1 67 -3.8711172528564930e-03</internalNodes>
          <leafValues>
            7.8890824317932129e-01 -1.1310929059982300e-01</leafValues></_>
        <_>
          <internalNodes>
            0 -1 633 -1.1801715008914471e-03</internalNodes>
          <leafValues>
            5.5049192905426025e-01 -3.0765256285667419e-01</leafValues></_>
        <_>
          <internalNodes>
            0 -1 445 1.7442397773265839e-02</internalNodes>
          <leafValues>
            -1.7158667743206024e-01 9.6479952335357666e-01</leafValues></_>
        <_>
          <internalNodes>
            0 -1 128 8.2644857466220856e-03</internalNodes>
          <leafValues>
            -1.4394889771938324e-01 7.6334005594253540e-01</leafValues></_>
        <_>
          <internalNodes>
            0 -1 712 -6.3067167997360229e-02</internalNodes>
          <leafValues>
            -5.3376829624176025e-01 2.6754486560821533e-01</leafValues></_>
        <_>
          <internalNodes>
            0 -1 130 -2.5651790565461852e-05</internalNodes>
          <leafValues>
            3.3084714412689209e-01 -4.1260674595832825e-01</leafValues></_>
        <_>
          <internalNodes>
            0 -1 798 -1.1758865788578987e-02</internalNodes>
          <leafValues>
            -8.1550139188766479e-01 1.6691991686820984e-01</leafValues></_>
        <_>
          <internalNodes>
            0 -1 755 -9.7948312759399414e-04</internalNodes>
          <leafValues>
            4.2838531732559204e-01 -3.5947641730308533e-01</leafValues></_>
        <_>
          <internalNodes>
            0 -1 446 -1.3050892949104309e-01</internalNodes>
          <leafValues>
            1.6965325176715851e-01 -8.0758261680603027e-01</leafValues></_>
        <_>
          <internalNodes>
            0 -1 715 -5.2177336066961288e-02</internalNodes>
          <leafValues>
            -3.1762164831161499e-01 3.6171036958694458e-01</leafValues></_></weakClassifiers></_>
    <!-- stage 6 -->
    <_>
      <maxWeakCount>11</maxWeakCount>
      <stageThreshold>-6.7708361148834229e-01</stageThreshold>
      <weakClassifiers>
        <_>
          <internalNodes>
            0 -1 49 1.2727606296539307e-01</internalNodes>
          <leafValues>
            7.3725932836532593e-01 -4.3589743971824646e-01</leafValues></_>
        <_>
          <internalNodes>
            0 -1 42 -1.0259862244129181e-01</internalNodes>
          <leafValues>
            6.0997146368026733e-01 -2.5449454784393311e-01</leafValues></_>
        <_>
          <internalNodes>
            0 -1 21 -1.1460946872830391e-02</internalNodes>
          <leafValues>
            9.0097862482070923e-01 -1.3781704008579254e-01</leafValues></_>
        <_>
          <internalNodes>
            0 -1 751 -2.4702050723135471e-03</internalNodes>
          <leafValues>
            5.7649248838424683e-01 -3.0847883224487305e-01</leafValues></_>
        <_>
          <internalNodes>
            0 -1 92 1.1196236312389374e-01</internalNodes>
          <leafValues>
            2.8295183181762695e-01 -5.6173396110534668e-01</leafValues></_>
        <_>
          <internalNodes>
            0 -1 771 -3.4795768558979034e-02</internalNodes>
          <leafValues>
            9.1141134500503540e-01 -2.1160636842250824e-01</leafValues></_>
        <_>
          <internalNodes>
            0 -1 613 -2.5966730900108814e-03</internalNodes>
          <leafValues>
            5.1761031150817871e-01 -2.0888125896453857e-01</leafValues></_>
        <_>
          <internalNodes>
            0 -1 114 -5.0820066826418042e-04</internalNodes>
          <leafValues>
            4.3120738863945007e-01 -3.0069813132286072e-01</leafValues></_>
        <_>
          <internalNodes>
            0 -1 846 -1.1414058099035174e-04</internalNodes>
          <leafValues>
            3.2678040862083435e-01 -3.2575917243957520e-01</leafValues></_>
        <_>
          <internalNodes>
            0 -1 856 -6.8069905042648315e-02</internalNodes>
          <leafValues>
            -2.6335996389389038e-01 5.2555418014526367e-01</leafValues></_>
        <_>
          <internalNodes>
            0 -1 32 -4.7578476369380951e-02</internalNodes>
          <leafValues>
            3.7368547916412354e-01 -3.5851925611495972e-01</leafValues></_></weakClassifiers></_>
    <!-- stage 7 -->
    <_>
      <maxWeakCount>16</maxWeakCount>
      <stageThreshold>-5.0860679149627686e-01</stageThreshold>
      <weakClassifiers>
        <_>
          <internalNodes>
            0 -1 157 -1.7684109508991241e-02</internalNodes>
          <leafValues>
            7.8021979331970215e-01 1.1764705926179886e-01</leafValues></_>
        <_>
          <internalNodes>
            0 -1 264 6.9892443716526031e-03</internalNodes>
          <leafValues>
            -2.4221581220626831e-01 4.8626387119293213e-01</leafValues></_>
        <_>
          <internalNodes>
            0 -1 389 -4.7297731041908264e-02</internalNodes>
          <leafValues>
            -7.0984840393066406e-01 1.9587376713752747e-01</leafValues></_>
        <_>
          <internalNodes>
            0 -1 828 6.0173757374286652e-03</internalNodes>
          <leafValues>
            -2.5339692831039429e-01 5.7730007171630859e-01</leafValues></_>
        <_>
          <internalNodes>
            0 -1 539 -9.7789233550429344e-03</internalNodes>
          <leafValues>
            4.2301562428474426e-01 -2.8468167781829834e-01</leafValues></_>
        <_>
          <internalNodes>
            0 -1 393 -4.2943069711327553e-03</internalNodes>
          <leafValues>
            6.5556514263153076e-01 -1.7824341356754303e-01</leafValues></_>
        <_>
          <internalNodes>
            0 -1 509 1.7876099795103073e-02</internalNodes>
          <leafValues>
            -9.3360334634780884e-02 8.8541120290756226e-01</leafValues></_>
        <_>
          <internalNodes>
            0 -1 505 3.1253853812813759e-03</internalNodes>
          <leafValues>
            -3.4523254632949829e-01 3.5822588205337524e-01</leafValues></_>
        <_>
          <internalNodes>
            0 -1 210 5.5373448878526688e-02</internalNodes>
          <leafValues>
            1.6510139405727386e-01 -5.2670907974243164e-01</leafValues></_>
        <_>
          <internalNodes>
            0 -1 784 -6.4739966765046120e-03</internalNodes>
          <leafValues>
            5.1855438947677612e-01 -2.3512332141399384e-01</leafValues></_>
        <_>
          <internalNodes>
            0 -1 736 -1.1882115155458450e-02</internalNodes>
          <leafValues>
            3.4618940949440002e-01 -3.2219094038009644e-01</leafValues></_>
        <_>
          <internalNodes>
            0 -1 65 -2.0971760153770447e-01</internalNodes>
          <leafValues>
            -7.1708387136459351e-01 1.4444096386432648e-01</leafValues></_>
        <_>
          <internalNodes>
            0 -1 619 4.7928398998919874e-05</internalNodes>
          <leafValues>
            -2.5257682800292969e-01 4.1140893101692200e-01</leafValues></_>
        <_>
          <internalNodes>
            0 -1 787 -6.9604669697582722e-03</internalNodes>
          <leafValues>
            5.2970147132873535e-01 -1.9009542465209961e-01</leafValues></_>
        <_>
          <internalNodes>
            0 -1 315 2.9546529985964298e-03</internalNodes>
          <leafValues>
            -1.8251605331897736e-01 5.3641533851623535e-01</leafValues></_>
        <_>
          <internalNodes>
            0 -1 12 -3.5908752679824829e-01</internalNodes>
          <leafValues>
            -9.0710270404815674e-01 1.1701027303934097e-01</leafValues></_></weakClassifiers></_>
    <!-- stage 8 -->
    <_>
      <maxWeakCount>16</maxWeakCount>
      <stageThreshold>-6.0766953229904175e-01</stageThreshold>
      <weakClassifiers>
        <_>
          <internalNodes>
            0 -1 823 -7.1787461638450623e-02</internalNodes>
          <leafValues>
            -2.9870128631591797e-01 6.7497289180755615e-01</leafValues></_>
        <_>
          <internalNodes>
            0 -1 450 -4.4194702059030533e-03</internalNodes>
          <leafValues>
            5.7593840360641479e-01 -2.0062118768692017e-01</leafValues></_>
        <_>
          <internalNodes>
            0 -1 118 -3.0672796128783375e-05</internalNodes>
          <leafValues>
            3.6587339639663696e-01 -4.0345671772956848e-01</leafValues></_>
        <_>
          <internalNodes>
            0 -1 109 -1.8561871256679296e-03</internalNodes>
          <leafValues>
            4.0868115425109863e-01 -3.2982698082923889e-01</leafValues></_>
        <_>
          <internalNodes>
            0 -1 786 3.2428654376417398e-03</internalNodes>
          <leafValues>
            -2.3242989182472229e-01 4.6997067332267761e-01</leafValues></_>
        <_>
          <internalNodes>
            0 -1 330 -3.7026278674602509e-02</internalNodes>
          <leafValues>
            7.4726527929306030e-01 -1.5359641611576080e-01</leafValues></_>
        <_>
          <internalNodes>
            0 -1 672 -4.6413652598857880e-03</internalNodes>
          <leafValues>
            7.1782994270324707e-01 -1.5805925428867340e-01</leafValues></_>
        <_>
          <internalNodes>
            0 -1 215 5.5357767269015312e-03</internalNodes>
          <leafValues>
            -1.4447671175003052e-01 6.8743073940277100e-01</leafValues></_>
        <_>
          <internalNodes>
            0 -1 668 6.1124693602323532e-03</internalNodes>
          <leafValues>
            -1.7528679966926575e-01 4.8776155710220337e-01</leafValues></_>
        <_>
          <internalNodes>
            0 -1 185 2.8722446411848068e-02</internalNodes>
          <leafValues>
            -1.1731868237257004e-01 8.2268238067626953e-01</leafValues></_>
        <_>
          <internalNodes>
            0 -1 519 -1.2301343958824873e-03</internalNodes>
          <leafValues>
            -6.3213074207305908e-01 1.7931649088859558e-01</leafValues></_>
        <_>
          <internalNodes>
            0 -1 155 2.7448153123259544e-03</internalNodes>
          <leafValues>
            -1.6583466529846191e-01 5.8679783344268799e-01</leafValues></_>
        <_>
          <internalNodes>
            0 -1 257 -4.0044272318482399e-03</internalNodes>
          <leafValues>
            5.2362072467803955e-01 -1.7066393792629242e-01</leafValues></_>
        <_>
          <internalNodes>
            0 -1 364 7.0033618248999119e-04</internalNodes>
          <leafValues>
            -2.8877109289169312e-01 3.3889645338058472e-01</leafValues></_>
        <_>
          <internalNodes>
            0 -1 515 -5.3151828050613403e-01</internalNodes>
          <leafValues>
            -8.2486331462860107e-01 1.0598358511924744e-01</leafValues></_>
        <_>
          <internalNodes>
            0 -1 312 -2.2949348203837872e-03</internalNodes>
          <leafValues>
            2.8497150540351868e-01 -3.1831607222557068e-01</leafValues></_></weakClassifiers></_>
    <!-- stage 9 -->
    <_>
      <maxWeakCount>18</maxWeakCount>
      <stageThreshold>-6.5267735719680786e-01</stageThreshold>
      <weakClassifiers>
        <_>
          <internalNodes>
            0 -1 683 -7.2764024138450623e-02</internalNodes>
          <leafValues>
            -3.2394367456436157e-01 6.7061358690261841e-01</leafValues></_>
        <_>
          <internalNodes>
            0 -1 506 5.7250233367085457e-03</internalNodes>
          <leafValues>
            -2.7110895514488220e-01 4.9822515249252319e-01</leafValues></_>
        <_>
          <internalNodes>
            0 -1 402 -9.9866436794400215e-03</internalNodes>
          <leafValues>
            4.3503561615943909e-01 -3.8586291670799255e-01</leafValues></_>
        <_>
          <internalNodes>
            0 -1 359 5.7056359946727753e-03</internalNodes>
          <leafValues>
            -2.8313353657722473e-01 3.7980014085769653e-01</leafValues></_>
        <_>
          <internalNodes>
            0 -1 55 -3.0581012368202209e-02</internalNodes>
          <leafValues>
            7.2969114780426025e-01 -1.7051869630813599e-01</leafValues></_>
        <_>
          <internalNodes>
            0 -1 235 -3.5993687808513641e-02</internalNodes>
          <leafValues>
            5.3064680099487305e-01 -2.5398021936416626e-01</leafValues></_>
        <_>
          <internalNodes>
            0 -1 303 7.6790433377027512e-03</internalNodes>
          <leafValues>
            -1.9697757065296173e-01 6.8463993072509766e-01</leafValues></_>
        <_>
          <internalNodes>
            0 -1 629 -3.4653950482606888e-02</internalNodes>
          <leafValues>
            5.1310014724731445e-01 -1.9899293780326843e-01</leafValues></_>
        <_>
          <internalNodes>
            0 -1 711 7.9651717096567154e-03</internalNodes>
          <leafValues>
            -1.7438703775405884e-01 6.6223877668380737e-01</leafValues></_>
        <_>
          <internalNodes>
            0 -1 652 9.2364698648452759e-03</internalNodes>
          <leafValues>
            -1.5717616677284241e-01 5.5555826425552368e-01</leafValues></_>
        <_>
          <internalNodes>
            0 -1 714 1.2090789154171944e-02</internalNodes>
          <leafValues>
            -2.2666096687316895e-01 4.4723048806190491e-01</leafValues></_>
        <_>
          <internalNodes>
            0 -1 29 2.5236541405320168e-03</internalNodes>
          <leafValues>
            -2.2625678777694702e-01 3.5953530669212341e-01</leafValues></_>
        <_>
          <internalNodes>
            0 -1 472 -3.6845167633146048e-03</internalNodes>
          <leafValues>
            6.9915199279785156e-01 -1.2411019206047058e-01</leafValues></_>
        <_>
          <internalNodes>
            0 -1 612 -1.4476069249212742e-02</internalNodes>
          <leafValues>
            -3.9020740985870361e-01 2.5184914469718933e-01</leafValues></_>
        <_>
          <internalNodes>
            0 -1 792 -1.1386130005121231e-02</internalNodes>
          <leafValues>
            1.1259836703538895e-01 -7.7398115396499634e-01</leafValues></_>
        <_>
          <internalNodes>
            0 -1 735 -1.4745511114597321e-02</internalNodes>
          <leafValues>
            4.1341495513916016e-01 -2.1698786318302155e-01</leafValues></_>
        <_>
          <internalNodes>
            0 -1 782 2.4616234004497528e-02</internalNodes>
          <leafValues>
            -1.5629446506500244e-01 5.8143013715744019e-01</leafValues></_>
        <_>
          <internalNodes>
            0 -1 244 -6.1035538092255592e-03</internalNodes>
          <leafValues>
            6.6704910993576050e-01 -1.3426420092582703e-01</leafValues></_></weakClassifiers></_>
    <!-- stage 10 -->
    <_>
      <maxWeakCount>17</maxWeakCount>
      <stageThreshold>-4.3315315246582031e-01</stageThreshold>
      <weakClassifiers>
        <_>
          <internalNodes>
            0 -1 131 -4.3951487168669701e-04</internalNodes>
          <leafValues>
            7.8247731924057007e-01 2.4260355532169342e-01</leafValues></_>
        <_>
          <internalNodes>
            0 -1 327 -4.9852591007947922e-02</internalNodes>
          <leafValues>
            5.7311594486236572e-01 -1.1506403982639313e-01</leafValues></_>
        <_>
          <internalNodes>
            0 -1 246 3.2836230820976198e-04</internalNodes>
          <leafValues>
            -2.1293303370475769e-01 4.4386458396911621e-01</leafValues></_>
        <_>
          <internalNodes>
            0 -1 651 2.7623089030385017e-02</internalNodes>
          <leafValues>
            -2.1861408650875092e-01 4.6276628971099854e-01</leafValues></_>
        <_>
          <internalNodes>
            0 -1 374 -4.1605974547564983e-03</internalNodes>
          <leafValues>
            -6.0684585571289063e-01 1.6811552643775940e-01</leafValues></_>
        <_>
          <internalNodes>
            0 -1 839 2.0949989557266235e-03</internalNodes>
          <leafValues>
            -2.1411339938640594e-01 4.2069175839424133e-01</leafValues></_>
        <_>
          <internalNodes>
            0 -1 469 -1.0613367892801762e-02</internalNodes>
          <leafValues>
            -3.1016844511032104e-01 3.1553336977958679e-01</leafValues></_>
        <_>
          <internalNodes>
            0 -1 365 -1.3329842686653137e-01</internalNodes>
          <leafValues>
            1.5137258172035217e-01 -6.3039803504943848e-01</leafValues></_>
        <_>
          <internalNodes>
            0 -1 802 -4.3371710926294327e-03</internalNodes>
          <leafValues>
            2.5889036059379578e-01 -3.6309176683425903e-01</leafValues></_>
        <_>
          <internalNodes>
            0 -1 803 8.3549460396170616e-04</internalNodes>
          <leafValues>
            -2.0143571496009827e-01 4.1874361038208008e-01</leafValues></_>
        <_>
          <internalNodes>
            0 -1 697 -8.6402893066406250e-02</internalNodes>
          <leafValues>
            7.5694602727890015e-01 -1.2436011433601379e-01</leafValues></_>
        <_>
          <internalNodes>
            0 -1 284 -1.5192466787993908e-02</internalNodes>
          <leafValues>
            -4.5896893739700317e-01 1.9965873658657074e-01</leafValues></_>
        <_>
          <internalNodes>
            0 -1 533 -1.1274930089712143e-02</internalNodes>
          <leafValues>
            7.0698595046997070e-01 -1.3265986740589142e-01</leafValues></_>
        <_>
          <internalNodes>
            0 -1 565 -1.0541116353124380e-03</internalNodes>
          <leafValues>
            -5.1189714670181274e-01 1.5629434585571289e-01</leafValues></_>
        <_>
          <internalNodes>
            0 -1 663 -5.6488811969757080e-03</internalNodes>
          <leafValues>
            4.9971073865890503e-01 -1.6551047563552856e-01</leafValues></_>
        <_>
          <internalNodes>
            0 -1 559 6.9413166493177414e-03</internalNodes>
          <leafValues>
            -2.3070494830608368e-01 4.2961254715919495e-01</leafValues></_>
        <_>
          <internalNodes>
            0 -1 144 -1.2032462283968925e-02</internalNodes>
          <leafValues>
            9.4600178301334381e-02 -8.5737055540084839e-01</leafValues></_></weakClassifiers></_>
    <!-- stage 11 -->
    <_>
      <maxWeakCount>5</maxWeakCount>
      <stageThreshold>-5.4558980464935303e-01</stageThreshold>
      <weakClassifiers>
        <_>
          <internalNodes>
            0 -1 16 -5.7067441940307617e-01</internalNodes>
          <leafValues>
            -9.0625000000000000e-01 7.0299142599105835e-01</leafValues></_>
        <_>
          <internalNodes>
            0 -1 332 -1.8298331648111343e-02</internalNodes>
          <leafValues>
            -6.3695502281188965e-01 4.1777935624122620e-01</leafValues></_>
        <_>
          <internalNodes>
            0 -1 363 2.6019781362265348e-03</internalNodes>
          <leafValues>
            -3.9396449923515320e-01 5.0105899572372437e-01</leafValues></_>
        <_>
          <internalNodes>
            0 -1 494 2.1223371848464012e-02</internalNodes>
          <leafValues>
            -3.7387487292289734e-01 4.7561410069465637e-01</leafValues></_>
        <_>
          <internalNodes>
            0 -1 774 4.0251191705465317e-02</internalNodes>
          <leafValues>
            -1.8430323898792267e-01 7.4407887458801270e-01</leafValues></_></weakClassifiers></_>
    <!-- stage 12 -->
    <_>
      <maxWeakCount>17</maxWeakCount>
      <stageThreshold>-6.6264837980270386e-01</stageThreshold>
      <weakClassifiers>
        <_>
          <internalNodes>
            0 -1 518 1.2238973751664162e-02</internalNodes>
          <leafValues>
            7.1260309219360352e-01 -3.3112581819295883e-02</leafValues></_>
        <_>
          <internalNodes>
            0 -1 432 1.7364058643579483e-02</internalNodes>
          <leafValues>
            -1.7966128885746002e-01 4.6632796525955200e-01</leafValues></_>
        <_>
          <internalNodes>
            0 -1 488 1.1429704725742340e-01</internalNodes>
          <leafValues>
            -1.5418921411037445e-01 7.0564240217208862e-01</leafValues></_>
        <_>
          <internalNodes>
            0 -1 204 4.2742535471916199e-02</internalNodes>
          <leafValues>
            -1.8517746031284332e-01 5.8523255586624146e-01</leafValues></_>
        <_>
          <internalNodes>
            0 -1 765 -3.8437484763562679e-03</internalNodes>
          <leafValues>
            -6.0901325941085815e-01 1.7884549498558044e-01</leafValues></_>
        <_>
          <internalNodes>
            0 -1 35 -8.9920125901699066e-03</internalNodes>
          <leafValues>
            4.0236404538154602e-01 -2.3205451667308807e-01</leafValues></_>
        <_>
          <internalNodes>
            0 -1 841 5.0899423658847809e-03</internalNodes>
          <leafValues>
            -1.7950889468193054e-01 5.6627500057220459e-01</leafValues></_>
        <_>
          <internalNodes>
            0 -1 571 -1.1011888831853867e-01</internalNodes>
          <leafValues>
            5.6741654872894287e-01 -1.4363858103752136e-01</leafValues></_>
        <_>
          <internalNodes>
            0 -1 146 -9.3175470829010010e-03</internalNodes>
          <leafValues>
            4.9081802368164063e-01 -1.7242176830768585e-01</leafValues></_>
        <_>
          <internalNodes>
            0 -1 85 -3.1589936465024948e-02</internalNodes>
          <leafValues>
            -5.4250943660736084e-01 1.6503387689590454e-01</leafValues></_>
        <_>
          <internalNodes>
            0 -1 121 -1.3255712110549212e-03</internalNodes>
          <leafValues>
            3.7624421715736389e-01 -2.4896232783794403e-01</leafValues></_>
        <_>
          <internalNodes>
            0 -1 866 -5.7160964934155345e-04</internalNodes>
          <leafValues>
            -5.3752708435058594e-01 1.6238777339458466e-01</leafValues></_>
        <_>
          <internalNodes>
            0 -1 416 -7.4675446376204491e-04</internalNodes>
          <leafValues>
            -7.1468681097030640e-01 1.1454856395721436e-01</leafValues></_>
        <_>
          <internalNodes>
            0 -1 171 -2.1406259387731552e-02</internalNodes>
          <leafValues>
            4.7180896997451782e-01 -1.7952612042427063e-01</leafValues></_>
        <_>
          <internalNodes>
            0 -1 156 -4.8305704258382320e-03</internalNodes>
          <leafValues>
            2.4845018982887268e-01 -3.7136358022689819e-01</leafValues></_>
        <_>
          <internalNodes>
            0 -1 564 -5.1357015036046505e-04</internalNodes>
          <leafValues>
            -5.8533382415771484e-01 1.3928630948066711e-01</leafValues></_>
        <_>
          <internalNodes>
            0 -1 680 -1.5004500746726990e-02</internalNodes>
          <leafValues>
            7.5070667266845703e-01 -1.2709024548530579e-01</leafValues></_></weakClassifiers></_>
    <!-- stage 13 -->
    <_>
      <maxWeakCount>20</maxWeakCount>
      <stageThreshold>-6.0383957624435425e-01</stageThreshold>
      <weakClassifiers>
        <_>
          <internalNodes>
            0 -1 468 -7.4604735709726810e-04</internalNodes>
          <leafValues>
            -1.4529915153980255e-01 6.9875425100326538e-01</leafValues></_>
        <_>
          <internalNodes>
            0 -1 197 -1.8225635588169098e-01</internalNodes>
          <leafValues>
            5.3978836536407471e-01 -1.8984924256801605e-01</leafValues></_>
        <_>
          <internalNodes>
            0 -1 699 -7.8195743262767792e-03</internalNodes>
          <leafValues>
            4.0177613496780396e-01 -2.5543895363807678e-01</leafValues></_>
        <_>
          <internalNodes>
            0 -1 457 -1.1714210268110037e-03</internalNodes>
          <leafValues>
            -6.3622379302978516e-01 1.6531217098236084e-01</leafValues></_>
        <_>
          <internalNodes>
            0 -1 341 -1.2316163629293442e-02</internalNodes>
          <leafValues>
            3.8824850320816040e-01 -2.6890161633491516e-01</leafValues></_>
        <_>
          <internalNodes>
            0 -1 83 -8.5942912846803665e-04</internalNodes>
          <leafValues>
            3.9741989970207214e-01 -2.5248008966445923e-01</leafValues></_>
        <_>
          <internalNodes>
            0 -1 199 3.9879260584712029e-03</internalNodes>
          <leafValues>
            -2.4534089863300323e-01 4.5868343114852905e-01</leafValues></_>
        <_>
          <internalNodes>
            0 -1 192 -3.7807374610565603e-04</internalNodes>
          <leafValues>
            -3.4015402197837830e-01 2.6925888657569885e-01</leafValues></_>
        <_>
          <internalNodes>
            0 -1 779 -3.4344609826803207e-02</internalNodes>
          <leafValues>
            1.7287121713161469e-01 -5.6693810224533081e-01</leafValues></_>
        <_>
          <internalNodes>
            0 -1 507 -9.8276501521468163e-03</internalNodes>
          <leafValues>
            3.2508412003517151e-01 -2.4786947667598724e-01</leafValues></_>
        <_>
          <internalNodes>
            0 -1 397 -5.5648900568485260e-02</internalNodes>
          <leafValues>
            5.7410567998886108e-01 -1.3320563733577728e-01</leafValues></_>
        <_>
          <internalNodes>
            0 -1 331 -9.0055026113986969e-02</internalNodes>
          <leafValues>
            8.5266554355621338e-01 -9.1704376041889191e-02</leafValues></_>
        <_>
          <internalNodes>
            0 -1 287 1.1427711695432663e-02</internalNodes>
          <leafValues>
            -1.3161230087280273e-01 5.8340966701507568e-01</leafValues></_>
        <_>
          <internalNodes>
            0 -1 460 -7.2166649624705315e-03</internalNodes>
          <leafValues>
            3.0972790718078613e-01 -2.8071287274360657e-01</leafValues></_>
        <_>
          <internalNodes>
            0 -1 470 8.1282178871333599e-04</internalNodes>
          <leafValues>
            -3.4836614131927490e-01 2.4706572294235229e-01</leafValues></_>
        <_>
          <internalNodes>
            0 -1 553 -2.5367825292050838e-03</internalNodes>
          <leafValues>
            -5.5988371372222900e-01 1.4570581912994385e-01</leafValues></_>
        <_>
          <internalNodes>
            0 -1 500 2.0418932661414146e-02</internalNodes>
          <leafValues>
            -1.1302208900451660e-01 7.5597363710403442e-01</leafValues></_>
        <_>
          <internalNodes>
            0 -1 822 3.8162881974130869e-03</internalNodes>
          <leafValues>
            -1.9194047152996063e-01 4.1716721653938293e-01</leafValues></_>
        <_>
          <internalNodes>
            0 -1 239 -3.9952183142304420e-03</internalNodes>
          <leafValues>
            -4.2942318320274353e-01 1.9665107131004333e-01</leafValues></_>
        <_>
          <internalNodes>
            0 -1 451 7.7570915222167969e-02</internalNodes>
          <leafValues>
            -1.5357056260108948e-01 5.5503273010253906e-01</leafValues></_></weakClassifiers></_>
    <!-- stage 14 -->
    <_>
      <maxWeakCount>16</maxWeakCount>
      <stageThreshold>-2.7382636070251465e-01</stageThreshold>
      <weakClassifiers>
        <_>
          <internalNodes>
            0 -1 566 -5.1626652479171753e-02</internalNodes>
          <leafValues>
            7.7117383480072021e-01 2.4770642817020416e-01</leafValues></_>
        <_>
          <internalNodes>
            0 -1 816 5.8419734705239534e-04</internalNodes>
          <leafValues>
            -1.4994034171104431e-01 5.6826937198638916e-01</leafValues></_>
        <_>
          <internalNodes>
            0 -1 316 1.3297046534717083e-03</internalNodes>
          <leafValues>
            -2.7279675006866455e-01 3.8205370306968689e-01</leafValues></_>
        <_>
          <internalNodes>
            0 -1 118 -1.2330171011853963e-04</internalNodes>
          <leafValues>
            3.3592948317527771e-01 -3.7556761503219604e-01</leafValues></_>
        <_>
          <internalNodes>
            0 -1 562 3.4876208752393723e-02</internalNodes>
          <leafValues>
            -1.7203499376773834e-01 7.2756981849670410e-01</leafValues></_>
        <_>
          <internalNodes>
            0 -1 151 -2.9685720801353455e-02</internalNodes>
          <leafValues>
            6.8548744916915894e-01 -1.1369989812374115e-01</leafValues></_>
        <_>
          <internalNodes>
            0 -1 693 4.1692340746521950e-03</internalNodes>
          <leafValues>
            -1.9925841689109802e-01 4.7004079818725586e-01</leafValues></_>
        <_>
          <internalNodes>
            0 -1 61 -6.7114001139998436e-03</internalNodes>
          <leafValues>
            6.2989848852157593e-01 -1.3802923262119293e-01</leafValues></_>
        <_>
          <internalNodes>
            0 -1 268 1.7946751322597265e-03</internalNodes>
          <leafValues>
            -1.8755292892456055e-01 4.3214151263237000e-01</leafValues></_>
        <_>
          <internalNodes>
            0 -1 800 -3.5627079196274281e-03</internalNodes>
          <leafValues>
            -7.3932915925979614e-01 1.0882572084665298e-01</leafValues></_>
        <_>
          <internalNodes>
            0 -1 318 -1.1117906123399734e-01</internalNodes>
          <leafValues>
            8.4868115186691284e-01 -1.0655712336301804e-01</leafValues></_>
        <_>
          <internalNodes>
            0 -1 826 3.3635536674410105e-03</internalNodes>
          <leafValues>
            -1.9789080321788788e-01 4.3100807070732117e-01</leafValues></_>
        <_>
          <internalNodes>
            0 -1 648 -2.0090438425540924e-02</internalNodes>
          <leafValues>
            4.0132641792297363e-01 -2.1546435356140137e-01</leafValues></_>
        <_>
          <internalNodes>
            0 -1 405 -2.8152090962976217e-03</internalNodes>
          <leafValues>
            -6.4259195327758789e-01 1.4719039201736450e-01</leafValues></_>
        <_>
          <internalNodes>
            0 -1 632 -3.7174154072999954e-02</internalNodes>
          <leafValues>
            9.8987065255641937e-02 -6.5280377864837646e-01</leafValues></_>
        <_>
          <internalNodes>
            0 -1 411 3.5885472316294909e-03</internalNodes>
          <leafValues>
            1.4149869978427887e-01 -5.9451258182525635e-01</leafValues></_></weakClassifiers></_>
    <!-- stage 15 -->
    <_>
      <maxWeakCount>19</maxWeakCount>
      <stageThreshold>-5.3282648324966431e-01</stageThreshold>
      <weakClassifiers>
        <_>
          <internalNodes>
            0 -1 183 1.3417003210633993e-03</internalNodes>
          <leafValues>
            7.7218937873840332e-01 2.4074074625968933e-01</leafValues></_>
        <_>
          <internalNodes>
            0 -1 349 3.0774589627981186e-02</internalNodes>
          <leafValues>
            -1.9455605745315552e-01 5.0145471096038818e-01</leafValues></_>
        <_>
          <internalNodes>
            0 -1 27 5.3721278905868530e-02</internalNodes>
          <leafValues>
            -2.3257531225681305e-01 6.2793451547622681e-01</leafValues></_>
        <_>
          <internalNodes>
            0 -1 55 -2.6618374511599541e-02</internalNodes>
          <leafValues>
            5.8233761787414551e-01 -2.1221908926963806e-01</leafValues></_>
        <_>
          <internalNodes>
            0 -1 328 1.0520268697291613e-03</internalNodes>
          <leafValues>
            -3.2275396585464478e-01 3.3676323294639587e-01</leafValues></_>
        <_>
          <internalNodes>
            0 -1 423 -1.9669444300234318e-03</internalNodes>
          <leafValues>
            -6.5229862928390503e-01 1.5974594652652740e-01</leafValues></_>
        <_>
          <internalNodes>
            0 -1 251 5.2909413352608681e-04</internalNodes>
          <leafValues>
            1.6458848118782043e-01 -5.8829700946807861e-01</leafValues></_>
        <_>
          <internalNodes>
            0 -1 747 5.8006579056382179e-03</internalNodes>
          <leafValues>
            -2.8846359252929688e-01 2.9839396476745605e-01</leafValues></_>
        <_>
          <internalNodes>
            0 -1 382 1.2369923060759902e-03</internalNodes>
          <leafValues>
            1.2477680295705795e-01 -6.8875008821487427e-01</leafValues></_>
        <_>
          <internalNodes>
            0 -1 435 7.6156258583068848e-02</internalNodes>
          <leafValues>
            -1.1034977436065674e-01 1.</leafValues></_>
        <_>
          <internalNodes>
            0 -1 558 -3.8091219961643219e-02</internalNodes>
          <leafValues>
            6.0189360380172729e-01 -1.5137442946434021e-01</leafValues></_>
        <_>
          <internalNodes>
            0 -1 200 -2.1192558109760284e-02</internalNodes>
          <leafValues>
            8.3703297376632690e-01 -1.0094717144966125e-01</leafValues></_>
        <_>
          <internalNodes>
            0 -1 386 -1.3467241078615189e-03</internalNodes>
          <leafValues>
            -4.1070142388343811e-01 2.3119619488716125e-01</leafValues></_>
        <_>
          <internalNodes>
            0 -1 81 1.9957382231950760e-02</internalNodes>
          <leafValues>
            -1.3461720943450928e-01 6.3849592208862305e-01</leafValues></_>
        <_>
          <internalNodes>
            0 -1 588 3.6702328361570835e-04</internalNodes>
          <leafValues>
            -1.8052767217159271e-01 4.2041915655136108e-01</leafValues></_>
        <_>
          <internalNodes>
            0 -1 510 -8.7798165623098612e-04</internalNodes>
          <leafValues>
            -6.1105948686599731e-01 1.2921260297298431e-01</leafValues></_>
        <_>
          <internalNodes>
            0 -1 159 -1.3314701616764069e-02</internalNodes>
          <leafValues>
            8.1992936134338379e-01 -1.2006855010986328e-01</leafValues></_>
        <_>
          <internalNodes>
            0 -1 530 -6.4375504851341248e-02</internalNodes>
          <leafValues>
            8.3575320243835449e-01 -7.0585951209068298e-02</leafValues></_>
        <_>
          <internalNodes>
            0 -1 73 -8.6519658565521240e-02</internalNodes>
          <leafValues>
            8.0773013830184937e-01 -7.1133725345134735e-02</leafValues></_></weakClassifiers></_>
    <!-- stage 16 -->
    <_>
      <maxWeakCount>19</maxWeakCount>
      <stageThreshold>-6.1871230602264404e-01</stageThreshold>
      <weakClassifiers>
        <_>
          <internalNodes>
            0 -1 227 -7.5059412047266960e-03</internalNodes>
          <leafValues>
            -3.8461539149284363e-01 6.8329715728759766e-01</leafValues></_>
        <_>
          <internalNodes>
            0 -1 261 1.2115072458982468e-02</internalNodes>
          <leafValues>
            -2.0755076408386230e-01 4.1404831409454346e-01</leafValues></_>
        <_>
          <internalNodes>
            0 -1 594 2.2795896977186203e-02</internalNodes>
          <leafValues>
            -2.3218192160129547e-01 3.9357918500900269e-01</leafValues></_>
        <_>
          <internalNodes>
            0 -1 3 -6.3649378716945648e-03</internalNodes>
          <leafValues>
            -5.2107924222946167e-01 1.6808217763900757e-01</leafValues></_>
        <_>
          <internalNodes>
            0 -1 124 1.5423250151798129e-03</internalNodes>
          <leafValues>
            -2.0837859809398651e-01 4.1035848855972290e-01</leafValues></_>
        <_>
          <internalNodes>
            0 -1 224 4.2795732617378235e-02</internalNodes>
          <leafValues>
            -1.3587738573551178e-01 7.1711057424545288e-01</leafValues></_>
        <_>
          <internalNodes>
            0 -1 31 -1.9872540235519409e-01</internalNodes>
          <leafValues>
            3.2461535930633545e-01 -2.8715729713439941e-01</leafValues></_>
        <_>
          <internalNodes>
            0 -1 497 -6.7247256636619568e-02</internalNodes>
          <leafValues>
            -8.2849913835525513e-01 9.9428296089172363e-02</leafValues></_>
        <_>
          <internalNodes>
            0 -1 94 1.9653458148241043e-03</internalNodes>
          <leafValues>
            -1.5733930468559265e-01 5.5261141061782837e-01</leafValues></_>
        <_>
          <internalNodes>
            0 -1 434 2.5938063117791899e-05</internalNodes>
          <leafValues>
            -2.4080331623554230e-01 3.3825901150703430e-01</leafValues></_>
        <_>
          <internalNodes>
            0 -1 426 1.0161969065666199e-01</internalNodes>
          <leafValues>
            -1.3607990741729736e-01 6.6637921333312988e-01</leafValues></_>
        <_>
          <internalNodes>
            0 -1 348 -1.0323725640773773e-02</internalNodes>
          <leafValues>
            6.1978363990783691e-01 -1.2531305849552155e-01</leafValues></_>
        <_>
          <internalNodes>
            0 -1 108 -5.8580131735652685e-04</internalNodes>
          <leafValues>
            2.7843889594078064e-01 -2.8498193621635437e-01</leafValues></_>
        <_>
          <internalNodes>
            0 -1 39 3.6401607096195221e-02</internalNodes>
          <leafValues>
            -1.8616527318954468e-01 5.3343600034713745e-01</leafValues></_>
        <_>
          <internalNodes>
            0 -1 137 -1.1931443586945534e-02</internalNodes>
          <leafValues>
            5.6664097309112549e-01 -1.5303760766983032e-01</leafValues></_>
        <_>
          <internalNodes>
            0 -1 251 4.8567901831120253e-04</internalNodes>
          <leafValues>
            1.8634246289730072e-01 -5.3228217363357544e-01</leafValues></_>
        <_>
          <internalNodes>
            0 -1 399 -5.6255932897329330e-02</internalNodes>
          <leafValues>
            1.0230080783367157e-01 -6.5775233507156372e-01</leafValues></_>
        <_>
          <internalNodes>
            0 -1 478 -2.2916607558727264e-03</internalNodes>
          <leafValues>
            -6.9658190011978149e-01 1.0547875612974167e-01</leafValues></_>
        <_>
          <internalNodes>
            0 -1 161 9.8445895127952099e-04</internalNodes>
          <leafValues>
            -2.3135133087635040e-01 3.3947870135307312e-01</leafValues></_></weakClassifiers></_>
    <!-- stage 17 -->
    <_>
      <maxWeakCount>18</maxWeakCount>
      <stageThreshold>-2.9286515712738037e-01</stageThreshold>
      <weakClassifiers>
        <_>
          <internalNodes>
            0 -1 453 -1.0930750286206603e-03</internalNodes>
          <leafValues>
            -3.7313431501388550e-01 6.6988211870193481e-01</leafValues></_>
        <_>
          <internalNodes>
            0 -1 413 3.5601372364908457e-03</internalNodes>
          <leafValues>
            2.8913739323616028e-01 -5.2287501096725464e-01</leafValues></_>
        <_>
          <internalNodes>
            0 -1 276 -9.2200130224227905e-02</internalNodes>
          <leafValues>
            7.3599487543106079e-01 -1.5582576394081116e-01</leafValues></_>
        <_>
          <internalNodes>
            0 -1 837 -7.9722125083208084e-03</internalNodes>
          <leafValues>
            -6.9239121675491333e-01 1.5320155024528503e-01</leafValues></_>
        <_>
          <internalNodes>
            0 -1 721 -5.3658830001950264e-03</internalNodes>
          <leafValues>
            -7.5773876905441284e-01 1.0630819201469421e-01</leafValues></_>
        <_>
          <internalNodes>
            0 -1 863 -9.6116191707551479e-04</internalNodes>
          <leafValues>
            -6.0054224729537964e-01 9.5316164195537567e-02</leafValues></_>
        <_>
          <internalNodes>
            0 -1 796 2.1127415820956230e-03</internalNodes>
          <leafValues>
            1.1671085655689240e-01 -7.2635400295257568e-01</leafValues></_>
        <_>
          <internalNodes>
            0 -1 422 1.4221999049186707e-01</internalNodes>
          <leafValues>
            -1.6353015601634979e-01 6.3633221387863159e-01</leafValues></_>
        <_>
          <internalNodes>
            0 -1 746 -1.0014208033680916e-02</internalNodes>
          <leafValues>
            2.5432947278022766e-01 -3.6609557271003723e-01</leafValues></_>
        <_>
          <internalNodes>
            0 -1 15 3.0464431270956993e-02</internalNodes>
          <leafValues>
            -2.3469243943691254e-01 5.1807898283004761e-01</leafValues></_>
        <_>
          <internalNodes>
            0 -1 476 -7.8668549656867981e-02</internalNodes>
          <leafValues>
            4.5560511946678162e-01 -2.2384399175643921e-01</leafValues></_>
        <_>
          <internalNodes>
            0 -1 482 -8.0169050488620996e-04</internalNodes>
          <leafValues>
            -5.4027116298675537e-01 1.7218716442584991e-01</leafValues></_>
        <_>
          <internalNodes>
            0 -1 345 -2.0595658570528030e-02</internalNodes>
          <leafValues>
            4.9355080723762512e-01 -1.9401542842388153e-01</leafValues></_>
        <_>
          <internalNodes>
            0 -1 483 -2.2187873255461454e-03</internalNodes>
          <leafValues>
            -5.5210041999816895e-01 1.6260884702205658e-01</leafValues></_>
        <_>
          <internalNodes>
            0 -1 679 3.7374287843704224e-02</internalNodes>
          <leafValues>
            -1.8645085394382477e-01 5.6384211778640747e-01</leafValues></_>
        <_>
          <internalNodes>
            0 -1 853 -1.4338346663862467e-03</internalNodes>
          <leafValues>
            -6.6334623098373413e-01 1.4895312488079071e-01</leafValues></_>
        <_>
          <internalNodes>
            0 -1 206 -1.1722576618194580e-01</internalNodes>
          <leafValues>
            6.4881652593612671e-01 -1.5871407091617584e-01</leafValues></_>
        <_>
          <internalNodes>
            0 -1 282 3.1827235943637788e-04</internalNodes>
          <leafValues>
            -2.0381891727447510e-01 4.8149561882019043e-01</leafValues></_></weakClassifiers></_>
    <!-- stage 18 -->
    <_>
      <maxWeakCount>20</maxWeakCount>
      <stageThreshold>-4.7839221358299255e-01</stageThreshold>
      <weakClassifiers>
        <_>
          <internalNodes>
            0 -1 294 3.7399600259959698e-03</internalNodes>
          <leafValues>
            6.6233766078948975e-01 -1.5789473056793213e-01</leafValues></_>
        <_>
          <internalNodes>
            0 -1 240 -7.0938724093139172e-03</internalNodes>
          <leafValues>
            -4.5101499557495117e-01 2.7608618140220642e-01</leafValues></_>
        <_>
          <internalNodes>
            0 -1 455 -9.0031735599040985e-02</internalNodes>
          <leafValues>
            9.2303651571273804e-01 -9.3362316489219666e-02</leafValues></_>
        <_>
          <internalNodes>
            0 -1 585 4.0032457560300827e-02</internalNodes>
          <leafValues>
            -1.8171861767768860e-01 5.7002854347229004e-01</leafValues></_>
        <_>
          <internalNodes>
            0 -1 34 -1.6566682606935501e-02</internalNodes>
          <leafValues>
            6.4334225654602051e-01 -1.0517461597919464e-01</leafValues></_>
        <_>
          <internalNodes>
            0 -1 634 -3.3406395465135574e-02</internalNodes>
          <leafValues>
            4.4476446509361267e-01 -1.5309327840805054e-01</leafValues></_>
        <_>
          <internalNodes>
            0 -1 827 5.5832182988524437e-03</internalNodes>
          <leafValues>
            -1.7032022774219513e-01 5.0540030002593994e-01</leafValues></_>
        <_>
          <internalNodes>
            0 -1 583 -3.9261963218450546e-02</internalNodes>
          <leafValues>
            6.4308542013168335e-01 -9.4155296683311462e-02</leafValues></_>
        <_>
          <internalNodes>
            0 -1 474 -2.9981430619955063e-02</internalNodes>
          <leafValues>
            4.8876795172691345e-01 -1.3100011646747589e-01</leafValues></_>
        <_>
          <internalNodes>
            0 -1 832 -2.4905111640691757e-03</internalNodes>
          <leafValues>
            6.5566509962081909e-01 -9.8005667328834534e-02</leafValues></_>
        <_>
          <internalNodes>
            0 -1 502 7.0817203959450126e-04</internalNodes>
          <leafValues>
            -2.3838111758232117e-01 3.0963182449340820e-01</leafValues></_>
        <_>
          <internalNodes>
            0 -1 795 -3.7093004211783409e-03</internalNodes>
          <leafValues>
            -6.3649189472198486e-01 1.0243560373783112e-01</leafValues></_>
        <_>
          <internalNodes>
            0 -1 255 2.0131025463342667e-02</internalNodes>
          <leafValues>
            -2.8617644309997559e-01 2.3994629085063934e-01</leafValues></_>
        <_>
          <internalNodes>
            0 -1 50 1.2020838260650635e-01</internalNodes>
          <leafValues>
            1.5967462956905365e-01 -5.8944588899612427e-01</leafValues></_>
        <_>
          <internalNodes>
            0 -1 358 1.8169067800045013e-02</internalNodes>
          <leafValues>
            8.4405787289142609e-02 -7.9976081848144531e-01</leafValues></_>
        <_>
          <internalNodes>
            0 -1 202 -1.3023750856518745e-02</internalNodes>
          <leafValues>
            5.9504562616348267e-01 -1.6337862610816956e-01</leafValues></_>
        <_>
          <internalNodes>
            0 -1 307 6.6596693359315395e-03</internalNodes>
          <leafValues>
            -2.5630202889442444e-01 3.3387255668640137e-01</leafValues></_>
        <_>
          <internalNodes>
            0 -1 412 -4.8685539513826370e-03</internalNodes>
          <leafValues>
            -6.2046009302139282e-01 1.4491979777812958e-01</leafValues></_>
        <_>
          <internalNodes>
            0 -1 18 -6.4060805016197264e-05</internalNodes>
          <leafValues>
            -3.1147775053977966e-01 2.4902279675006866e-01</leafValues></_>
        <_>
          <internalNodes>
            0 -1 169 4.0528168901801109e-03</internalNodes>
          <leafValues>
            -1.8620629608631134e-01 4.0991520881652832e-01</leafValues></_></weakClassifiers></_>
    <!-- stage 19 -->
    <_>
      <maxWeakCount>18</maxWeakCount>
      <stageThreshold>-5.1277232170104980e-01</stageThreshold>
      <weakClassifiers>
        <_>
          <internalNodes>
            0 -1 847 -5.8356719091534615e-03</internalNodes>
          <leafValues>
            -8.5000002384185791e-01 6.6041666269302368e-01</leafValues></_>
        <_>
          <internalNodes>
            0 -1 153 -1.0437889397144318e-01</internalNodes>
          <leafValues>
            6.3423389196395874e-01 -7.3609367012977600e-02</leafValues></_>
        <_>
          <internalNodes>
            0 -1 122 -1.0613703634589911e-03</internalNodes>
          <leafValues>
            2.7500534057617188e-01 -3.8855192065238953e-01</leafValues></_>
        <_>
          <internalNodes>
            0 -1 655 1.3774682302027941e-03</internalNodes>
          <leafValues>
            -2.7206811308860779e-01 3.6809387803077698e-01</leafValues></_>
        <_>
          <internalNodes>
            0 -1 727 -7.2463294491171837e-03</internalNodes>
          <leafValues>
            5.3145664930343628e-01 -2.0584522187709808e-01</leafValues></_>
        <_>
          <internalNodes>
            0 -1 493 5.7027883827686310e-02</internalNodes>
          <leafValues>
            -9.9649712443351746e-02 8.1171321868896484e-01</leafValues></_>
        <_>
          <internalNodes>
            0 -1 219 -9.1879792511463165e-02</internalNodes>
          <leafValues>
            7.2690021991729736e-01 -1.5145346522331238e-01</leafValues></_>
        <_>
          <internalNodes>
            0 -1 11 1.0633103549480438e-02</internalNodes>
          <leafValues>
            1.6057136654853821e-01 -7.2823780775070190e-01</leafValues></_>
        <_>
          <internalNodes>
            0 -1 797 2.6541625265963376e-04</internalNodes>
          <leafValues>
            -2.9664024710655212e-01 3.2949683070182800e-01</leafValues></_>
        <_>
          <internalNodes>
            0 -1 820 9.7790523432195187e-04</internalNodes>
          <leafValues>
            1.4935527741909027e-01 -6.2804269790649414e-01</leafValues></_>
        <_>
          <internalNodes>
            0 -1 53 5.5477819405496120e-03</internalNodes>
          <leafValues>
            -2.3274080455303192e-01 4.0141999721527100e-01</leafValues></_>
        <_>
          <internalNodes>
            0 -1 775 -1.2426419183611870e-02</internalNodes>
          <leafValues>
            5.8917444944381714e-01 -1.6567176580429077e-01</leafValues></_>
        <_>
          <internalNodes>
            0 -1 740 9.4780474901199341e-03</internalNodes>
          <leafValues>
            -1.1445343494415283e-01 6.5939146280288696e-01</leafValues></_>
        <_>
          <internalNodes>
            0 -1 805 -2.4193149060010910e-02</internalNodes>
          <leafValues>
            -2.7236756682395935e-01 3.0646342039108276e-01</leafValues></_>
        <_>
          <internalNodes>
            0 -1 280 -1.4040222764015198e-01</internalNodes>
          <leafValues>
            1.2975363433361053e-01 -7.0732170343399048e-01</leafValues></_>
        <_>
          <internalNodes>
            0 -1 487 -1.4097033999860287e-03</internalNodes>
          <leafValues>
            -7.1971052885055542e-01 9.8146118223667145e-02</leafValues></_>
        <_>
          <internalNodes>
            0 -1 138 -4.2109742760658264e-02</internalNodes>
          <leafValues>
            6.4033573865890503e-01 -1.4002233743667603e-01</leafValues></_>
        <_>
          <internalNodes>
            0 -1 834 2.4829958565533161e-03</internalNodes>
          <leafValues>
            -1.8615424633026123e-01 3.8895606994628906e-01</leafValues></_></weakClassifiers></_>
    <!-- stage 20 -->
    <_>
      <maxWeakCount>8</maxWeakCount>
      <stageThreshold>-2.5296485424041748e-01</stageThreshold>
      <weakClassifiers>
        <_>
          <internalNodes>
            0 -1 41 -3.2209213823080063e-02</internalNodes>
          <leafValues>
            -6.4705884456634521e-01 7.4164807796478271e-01</leafValues></_>
        <_>
          <internalNodes>
            0 -1 319 -9.4515550136566162e-01</internalNodes>
          <leafValues>
            -4.2136451601982117e-01 4.7631555795669556e-01</leafValues></_>
        <_>
          <internalNodes>
            0 -1 44 -6.9639696739614010e-03</internalNodes>
          <leafValues>
            6.3175290822982788e-01 -2.6480871438980103e-01</leafValues></_>
        <_>
          <internalNodes>
            0 -1 100 -4.6089813113212585e-03</internalNodes>
          <leafValues>
            4.9443802237510681e-01 -2.8891727328300476e-01</leafValues></_>
        <_>
          <internalNodes>
            0 -1 43 -1.0193892568349838e-01</internalNodes>
          <leafValues>
            3.0127695202827454e-01 -4.3148651719093323e-01</leafValues></_>
        <_>
          <internalNodes>
            0 -1 649 3.2644584774971008e-02</internalNodes>
          <leafValues>
            -2.8869608044624329e-01 5.4976671934127808e-01</leafValues></_>
        <_>
          <internalNodes>
            0 -1 829 8.6828898638486862e-03</internalNodes>
          <leafValues>
            -2.1915157139301300e-01 5.5630898475646973e-01</leafValues></_>
        <_>
          <internalNodes>
            0 -1 811 4.5352183282375336e-02</internalNodes>
          <leafValues>
            2.4104171991348267e-01 -5.9630709886550903e-01</leafValues></_></weakClassifiers></_>
    <!-- stage 21 -->
    <_>
      <maxWeakCount>13</maxWeakCount>
      <stageThreshold>-4.2257907986640930e-01</stageThreshold>
      <weakClassifiers>
        <_>
          <internalNodes>
            0 -1 844 3.3603713382035494e-04</internalNodes>
          <leafValues>
            2.1808511018753052e-01 8.3012819290161133e-01</leafValues></_>
        <_>
          <internalNodes>
            0 -1 120 -3.0664147925563157e-04</internalNodes>
          <leafValues>
            5.1227676868438721e-01 -2.5613033771514893e-01</leafValues></_>
        <_>
          <internalNodes>
            0 -1 325 2.4507171474397182e-03</internalNodes>
          <leafValues>
            -4.2288833856582642e-01 3.4536319971084595e-01</leafValues></_>
        <_>
          <internalNodes>
            0 -1 351 -1.4938107132911682e-01</internalNodes>
          <leafValues>
            -2.4597561359405518e-01 4.2348569631576538e-01</leafValues></_>
        <_>
          <internalNodes>
            0 -1 808 2.1071298979222775e-03</internalNodes>
          <leafValues>
            -2.6264363527297974e-01 5.4201626777648926e-01</leafValues></_>
        <_>
          <internalNodes>
            0 -1 807 -1.9409583183005452e-03</internalNodes>
          <leafValues>
            4.2150592803955078e-01 -2.3062761127948761e-01</leafValues></_>
        <_>
          <internalNodes>
            0 -1 830 6.7194941220805049e-04</internalNodes>
          <leafValues>
            -2.6034200191497803e-01 4.4317612051963806e-01</leafValues></_>
        <_>
          <internalNodes>
            0 -1 447 -8.2258984446525574e-02</internalNodes>
          <leafValues>
            1.4850161969661713e-01 -6.8432706594467163e-01</leafValues></_>
        <_>
          <internalNodes>
            0 -1 242 -6.5399371087551117e-03</internalNodes>
          <leafValues>
            8.0789470672607422e-01 -1.3603416085243225e-01</leafValues></_>
        <_>
          <internalNodes>
            0 -1 137 1.6974775120615959e-02</internalNodes>
          <leafValues>
            -1.4058136940002441e-01 5.2459484338760376e-01</leafValues></_>
        <_>
          <internalNodes>
            0 -1 80 -6.9394418969750404e-03</internalNodes>
          <leafValues>
            5.2734303474426270e-01 -1.8604502081871033e-01</leafValues></_>
        <_>
          <internalNodes>
            0 -1 408 -6.1395321972668171e-04</internalNodes>
          <leafValues>
            -5.9245884418487549e-01 1.5686267614364624e-01</leafValues></_>
        <_>
          <internalNodes>
            0 -1 388 -6.7634098231792450e-03</internalNodes>
          <leafValues>
            5.7314246892929077e-01 -1.7773982882499695e-01</leafValues></_></weakClassifiers></_>
    <!-- stage 22 -->
    <_>
      <maxWeakCount>18</maxWeakCount>
      <stageThreshold>-2.7431833744049072e-01</stageThreshold>
      <weakClassifiers>
        <_>
          <internalNodes>
            0 -1 666 -1.9258742034435272e-01</internalNodes>
          <leafValues>
            -1. 6.3432073593139648e-01</leafValues></_>
        <_>
          <internalNodes>
            0 -1 77 -3.5638650879263878e-03</internalNodes>
          <leafValues>
            6.3808745145797729e-01 -9.7524844110012054e-02</leafValues></_>
        <_>
          <internalNodes>
            0 -1 639 -4.9317157268524170e-01</internalNodes>
          <leafValues>
            -2.6495814323425293e-01 4.1813224554061890e-01</leafValues></_>
        <_>
          <internalNodes>
            0 -1 190 -2.2169281146489084e-04</internalNodes>
          <leafValues>
            2.7637791633605957e-01 -4.1844120621681213e-01</leafValues></_>
        <_>
          <internalNodes>
            0 -1 8 5.2267927676439285e-03</internalNodes>
          <leafValues>
            1.8746365606784821e-01 -5.8016598224639893e-01</leafValues></_>
        <_>
          <internalNodes>
            0 -1 557 5.4580476135015488e-03</internalNodes>
          <leafValues>
            -2.4337933957576752e-01 3.6680102348327637e-01</leafValues></_>
        <_>
          <internalNodes>
            0 -1 611 -4.3150512501597404e-03</internalNodes>
          <leafValues>
            -4.5410588383674622e-01 1.8691161274909973e-01</leafValues></_>
        <_>
          <internalNodes>
            0 -1 845 5.9702369617298245e-04</internalNodes>
          <leafValues>
            -3.4482285380363464e-01 2.3518629372119904e-01</leafValues></_>
        <_>
          <internalNodes>
            0 -1 232 4.1867764666676521e-03</internalNodes>
          <leafValues>
            -1.4183683693408966e-01 6.5535020828247070e-01</leafValues></_>
        <_>
          <internalNodes>
            0 -1 247 8.9373541995882988e-03</internalNodes>
          <leafValues>
            -1.2479238212108612e-01 5.6562501192092896e-01</leafValues></_>
        <_>
          <internalNodes>
            0 -1 503 -4.7199326218105853e-04</internalNodes>
          <leafValues>
            -5.1769191026687622e-01 1.8369641900062561e-01</leafValues></_>
        <_>
          <internalNodes>
            0 -1 355 -7.5000799261033535e-03</internalNodes>
          <leafValues>
            7.4616301059722900e-01 -1.2946656346321106e-01</leafValues></_>
        <_>
          <internalNodes>
            0 -1 424 -3.8364671170711517e-02</internalNodes>
          <leafValues>
            -1.8831482529640198e-01 4.2165553569793701e-01</leafValues></_>
        <_>
          <internalNodes>
            0 -1 217 8.9734523498918861e-05</internalNodes>
          <leafValues>
            -2.0644947886466980e-01 4.0790507197380066e-01</leafValues></_>
        <_>
          <internalNodes>
            0 -1 473 -5.0645500421524048e-02</internalNodes>
          <leafValues>
            7.6535844802856445e-01 -9.7733162343502045e-02</leafValues></_>
        <_>
          <internalNodes>
            0 -1 47 -4.8160158097743988e-02</internalNodes>
          <leafValues>
            7.3518085479736328e-01 -8.4002599120140076e-02</leafValues></_>
        <_>
          <internalNodes>
            0 -1 733 -6.3231773674488068e-04</internalNodes>
          <leafValues>
            -4.3685621023178101e-01 1.9818295538425446e-01</leafValues></_>
        <_>
          <internalNodes>
            0 -1 548 -7.0431944914162159e-04</internalNodes>
          <leafValues>
            -5.0261765718460083e-01 1.3264907896518707e-01</leafValues></_></weakClassifiers></_>
    <!-- stage 23 -->
    <_>
      <maxWeakCount>21</maxWeakCount>
      <stageThreshold>-2.5622692704200745e-01</stageThreshold>
      <weakClassifiers>
        <_>
          <internalNodes>
            0 -1 743 -9.2521123588085175e-03</internalNodes>
          <leafValues>
            6.9828569889068604e-01 -8.7999999523162842e-02</leafValues></_>
        <_>
          <internalNodes>
            0 -1 414 -2.6017550379037857e-02</internalNodes>
          <leafValues>
            4.0885904431343079e-01 -2.2902680933475494e-01</leafValues></_>
        <_>
          <internalNodes>
            0 -1 66 -1.3079647906124592e-03</internalNodes>
          <leafValues>
            2.5382608175277710e-01 -3.2832220196723938e-01</leafValues></_>
        <_>
          <internalNodes>
            0 -1 526 1.9942121580243111e-02</internalNodes>
          <leafValues>
            -1.4437022805213928e-01 6.6967433691024780e-01</leafValues></_>
        <_>
          <internalNodes>
            0 -1 281 1.3561753556132317e-02</internalNodes>
          <leafValues>
            1.7675954103469849e-01 -4.8086762428283691e-01</leafValues></_>
        <_>
          <internalNodes>
            0 -1 346 -8.6033588740974665e-04</internalNodes>
          <leafValues>
            -5.2966022491455078e-01 1.3065207004547119e-01</leafValues></_>
        <_>
          <internalNodes>
            0 -1 859 -1.8006891012191772e-02</internalNodes>
          <leafValues>
            -5.7016801834106445e-01 1.4464922249317169e-01</leafValues></_>
        <_>
          <internalNodes>
            0 -1 390 1.5126259531825781e-03</internalNodes>
          <leafValues>
            1.4158175885677338e-01 -6.2545150518417358e-01</leafValues></_>
        <_>
          <internalNodes>
            0 -1 854 -5.2856013644486666e-04</internalNodes>
          <leafValues>
            -4.5300734043121338e-01 1.5423262119293213e-01</leafValues></_>
        <_>
          <internalNodes>
            0 -1 817 1.9581687229219824e-04</internalNodes>
          <leafValues>
            2.3476655781269073e-01 -3.1667104363441467e-01</leafValues></_>
        <_>
          <internalNodes>
            0 -1 563 -8.8987927883863449e-03</internalNodes>
          <leafValues>
            5.0321018695831299e-01 -1.7308674752712250e-01</leafValues></_>
        <_>
          <internalNodes>
            0 -1 428 3.0945662729209289e-05</internalNodes>
          <leafValues>
            -2.0461393892765045e-01 3.4524527192115784e-01</leafValues></_>
        <_>
          <internalNodes>
            0 -1 271 -5.3008846938610077e-02</internalNodes>
          <leafValues>
            1.0334714502096176e-01 -6.7903238534927368e-01</leafValues></_>
        <_>
          <internalNodes>
            0 -1 333 -4.0409999201074243e-04</internalNodes>
          <leafValues>
            -4.5345413684844971e-01 1.5609160065650940e-01</leafValues></_>
        <_>
          <internalNodes>
            0 -1 503 -2.9708707006648183e-04</internalNodes>
          <leafValues>
            -4.7100031375885010e-01 1.6160948574542999e-01</leafValues></_>
        <_>
          <internalNodes>
            0 -1 783 -6.0042450204491615e-03</internalNodes>
          <leafValues>
            3.9731064438819885e-01 -1.9896101951599121e-01</leafValues></_>
        <_>
          <internalNodes>
            0 -1 603 -8.7996631918940693e-05</internalNodes>
          <leafValues>
            1.8112038075923920e-01 -4.9528896808624268e-01</leafValues></_>
        <_>
          <internalNodes>
            0 -1 695 -1.9096665084362030e-02</internalNodes>
          <leafValues>
            6.9866168498992920e-01 -1.2706203758716583e-01</leafValues></_>
        <_>
          <internalNodes>
            0 -1 218 1.8783377017825842e-03</internalNodes>
          <leafValues>
            -1.3789759576320648e-01 4.6583002805709839e-01</leafValues></_>
        <_>
          <internalNodes>
            0 -1 68 2.4510446935892105e-02</internalNodes>
          <leafValues>
            -1.2680189311504364e-01 6.4422798156738281e-01</leafValues></_>
        <_>
          <internalNodes>
            0 -1 404 1.8942166119813919e-02</internalNodes>
          <leafValues>
            -7.5477272272109985e-02 8.0982881784439087e-01</leafValues></_></weakClassifiers></_>
    <!-- stage 24 -->
    <_>
      <maxWeakCount>23</maxWeakCount>
      <stageThreshold>-5.0710552930831909e-01</stageThreshold>
      <weakClassifiers>
        <_>
          <internalNodes>
            0 -1 567 -4.9348130822181702e-02</internalNodes>
          <leafValues>
            -8.0952382087707520e-01 6.3023495674133301e-01</leafValues></_>
        <_>
          <internalNodes>
            0 -1 731 1.6318211564794183e-03</internalNodes>
          <leafValues>
            -9.9222578108310699e-02 5.5523496866226196e-01</leafValues></_>
        <_>
          <internalNodes>
            0 -1 322 7.4786646291613579e-04</internalNodes>
          <leafValues>
            -2.6147261261940002e-01 3.3013999462127686e-01</leafValues></_>
        <_>
          <internalNodes>
            0 -1 58 -9.3690492212772369e-02</internalNodes>
          <leafValues>
            -5.9985953569412231e-01 1.3416600227355957e-01</leafValues></_>
        <_>
          <internalNodes>
            0 -1 376 -5.0978281069546938e-04</internalNodes>
          <leafValues>
            -5.7210522890090942e-01 1.3326281309127808e-01</leafValues></_>
        <_>
          <internalNodes>
            0 -1 112 -1.2796043884009123e-03</internalNodes>
          <leafValues>
            3.3306407928466797e-01 -2.6934641599655151e-01</leafValues></_>
        <_>
          <internalNodes>
            0 -1 394 5.3165191784501076e-03</internalNodes>
          <leafValues>
            -2.2535297274589539e-01 3.9987453818321228e-01</leafValues></_>
        <_>
          <internalNodes>
            0 -1 336 5.1309913396835327e-04</internalNodes>
          <leafValues>
            -1.8399758636951447e-01 4.3024829030036926e-01</leafValues></_>
        <_>
          <internalNodes>
            0 -1 843 6.0305150691419840e-04</internalNodes>
          <leafValues>
            -2.9371273517608643e-01 2.6002153754234314e-01</leafValues></_>
        <_>
          <internalNodes>
            0 -1 30 8.8853321969509125e-02</internalNodes>
          <leafValues>
            1.0261279344558716e-01 -7.3403161764144897e-01</leafValues></_>
        <_>
          <internalNodes>
            0 -1 729 -1.2428818736225367e-03</internalNodes>
          <leafValues>
            4.0425112843513489e-01 -2.0169390738010406e-01</leafValues></_>
        <_>
          <internalNodes>
            0 -1 605 -8.3019034937024117e-03</internalNodes>
          <leafValues>
            1.9551153481006622e-01 -3.9117398858070374e-01</leafValues></_>
        <_>
          <internalNodes>
            0 -1 593 -5.7327572721987963e-04</internalNodes>
          <leafValues>
            3.0533757805824280e-01 -2.2269821166992188e-01</leafValues></_>
        <_>
          <internalNodes>
            0 -1 812 1.8624196527525783e-03</internalNodes>
          <leafValues>
            -1.3937376439571381e-01 5.4933178424835205e-01</leafValues></_>
        <_>
          <internalNodes>
            0 -1 770 -2.5520442053675652e-02</internalNodes>
          <leafValues>
            4.4558954238891602e-01 -1.5067385137081146e-01</leafValues></_>
        <_>
          <internalNodes>
            0 -1 78 9.9883796647191048e-03</internalNodes>
          <leafValues>
            -7.0685014128684998e-02 7.7776956558227539e-01</leafValues></_>
        <_>
          <internalNodes>
            0 -1 543 -6.2240613624453545e-04</internalNodes>
          <leafValues>
            -3.7436410784721375e-01 2.0893426239490509e-01</leafValues></_>
        <_>
          <internalNodes>
            0 -1 125 -7.2214500978589058e-03</internalNodes>
          <leafValues>
            6.2574744224548340e-01 -1.2143591046333313e-01</leafValues></_>
        <_>
          <internalNodes>
            0 -1 238 -1.1803634464740753e-02</internalNodes>
          <leafValues>
            -3.3887469768524170e-01 2.2285364568233490e-01</leafValues></_>
        <_>
          <internalNodes>
            0 -1 147 1.9305154681205750e-02</internalNodes>
          <leafValues>
            -1.6470807790756226e-01 5.0471162796020508e-01</leafValues></_>
        <_>
          <internalNodes>
            0 -1 607 3.0763288959860802e-03</internalNodes>
          <leafValues>
            -1.3841344416141510e-01 4.5529943704605103e-01</leafValues></_>
        <_>
          <internalNodes>
            0 -1 369 9.7662229090929031e-03</internalNodes>
          <leafValues>
            8.7025985121726990e-02 -7.5887101888656616e-01</leafValues></_>
        <_>
          <internalNodes>
            0 -1 467 3.0707966070622206e-03</internalNodes>
          <leafValues>
            -1.6142843663692474e-01 4.2745286226272583e-01</leafValues></_></weakClassifiers></_>
    <!-- stage 25 -->
    <_>
      <maxWeakCount>17</maxWeakCount>
      <stageThreshold>-2.8954452276229858e-01</stageThreshold>
      <weakClassifiers>
        <_>
          <internalNodes>
            0 -1 748 -7.0485323667526245e-03</internalNodes>
          <leafValues>
            -5.3191488981246948e-01 6.5582370758056641e-01</leafValues></_>
        <_>
          <internalNodes>
            0 -1 371 -9.6325024962425232e-02</internalNodes>
          <leafValues>
            9.5534676313400269e-01 1.2737770564854145e-02</leafValues></_>
        <_>
          <internalNodes>
            0 -1 774 3.9237454533576965e-02</internalNodes>
          <leafValues>
            -1.5794005990028381e-01 5.2074825763702393e-01</leafValues></_>
        <_>
          <internalNodes>
            0 -1 189 1.9469816470518708e-04</internalNodes>
          <leafValues>
            2.5034275650978088e-01 -4.5472621917724609e-01</leafValues></_>
        <_>
          <internalNodes>
            0 -1 324 1.9913150463253260e-03</internalNodes>
          <leafValues>
            -2.0630477368831635e-01 5.5859392881393433e-01</leafValues></_>
        <_>
          <internalNodes>
            0 -1 362 2.0152784418314695e-03</internalNodes>
          <leafValues>
            -1.5439325571060181e-01 4.8227742314338684e-01</leafValues></_>
        <_>
          <internalNodes>
            0 -1 253 -1.1894438415765762e-02</internalNodes>
          <leafValues>
            7.6174706220626831e-01 -1.3360142707824707e-01</leafValues></_>
        <_>
          <internalNodes>
            0 -1 815 -4.6478281728923321e-03</internalNodes>
          <leafValues>
            -7.6371961832046509e-01 1.2144409120082855e-01</leafValues></_>
        <_>
          <internalNodes>
            0 -1 180 -7.8316796571016312e-03</internalNodes>
          <leafValues>
            -7.1415549516677856e-01 1.0991777479648590e-01</leafValues></_>
        <_>
          <internalNodes>
            0 -1 127 8.5599254816770554e-03</internalNodes>
          <leafValues>
            -1.7679837346076965e-01 4.7625562548637390e-01</leafValues></_>
        <_>
          <internalNodes>
            0 -1 523 -9.8457653075456619e-04</internalNodes>
          <leafValues>
            -6.5659022331237793e-01 1.3344816863536835e-01</leafValues></_>
        <_>
          <internalNodes>
            0 -1 542 -7.9980026930570602e-04</internalNodes>
          <leafValues>
            -4.1650116443634033e-01 1.8080846965312958e-01</leafValues></_>
        <_>
          <internalNodes>
            0 -1 809 2.1936274133622646e-03</internalNodes>
          <leafValues>
            -2.0280104875564575e-01 3.6043033003807068e-01</leafValues></_>
        <_>
          <internalNodes>
            0 -1 380 1.9231295445933938e-03</internalNodes>
          <leafValues>
            1.2209475785493851e-01 -6.3480556011199951e-01</leafValues></_>
        <_>
          <internalNodes>
            0 -1 409 6.2203512061387300e-04</internalNodes>
          <leafValues>
            1.1788067221641541e-01 -5.4200094938278198e-01</leafValues></_>
        <_>
          <internalNodes>
            0 -1 48 3.0135801061987877e-03</internalNodes>
          <leafValues>
            -2.1251034736633301e-01 4.0777131915092468e-01</leafValues></_>
        <_>
          <internalNodes>
            0 -1 789 -1.8009451450780034e-03</internalNodes>
          <leafValues>
            -6.5403658151626587e-01 1.2643814086914063e-01</leafValues></_></weakClassifiers></_>
    <!-- stage 26 -->
    <_>
      <maxWeakCount>23</maxWeakCount>
      <stageThreshold>-3.8770318031311035e-01</stageThreshold>
      <weakClassifiers>
        <_>
          <internalNodes>
            0 -1 690 1.3774536550045013e-02</internalNodes>
          <leafValues>
            6.6311299800872803e-01 -3.5483869910240173e-01</leafValues></_>
        <_>
          <internalNodes>
            0 -1 752 -8.6051359539851546e-04</internalNodes>
          <leafValues>
            4.2284858226776123e-01 -1.3991530239582062e-01</leafValues></_>
        <_>
          <internalNodes>
            0 -1 113 -2.5814384571276605e-04</internalNodes>
          <leafValues>
            2.2313696146011353e-01 -3.5552698373794556e-01</leafValues></_>
        <_>
          <internalNodes>
            0 -1 602 4.3831426650285721e-02</internalNodes>
          <leafValues>
            -2.2785907983779907e-01 3.3836591243743896e-01</leafValues></_>
        <_>
          <internalNodes>
            0 -1 651 2.2709386423230171e-02</internalNodes>
          <leafValues>
            -2.4475754797458649e-01 3.4799450635910034e-01</leafValues></_>
        <_>
          <internalNodes>
            0 -1 840 2.8670718893408775e-03</internalNodes>
          <leafValues>
            -2.0238602161407471e-01 4.0634447336196899e-01</leafValues></_>
        <_>
          <internalNodes>
            0 -1 288 4.7828820534050465e-03</internalNodes>
          <leafValues>
            -2.2154238820075989e-01 3.2133924961090088e-01</leafValues></_>
        <_>
          <internalNodes>
            0 -1 692 1.2678308412432671e-02</internalNodes>
          <leafValues>
            1.3751074671745300e-01 -6.3206356763839722e-01</leafValues></_>
        <_>
          <internalNodes>
            0 -1 337 -2.8513792902231216e-02</internalNodes>
          <leafValues>
            -4.3901064991950989e-01 1.7035618424415588e-01</leafValues></_>
        <_>
          <internalNodes>
            0 -1 785 1.6027141362428665e-02</internalNodes>
          <leafValues>
            -1.4542669057846069e-01 4.2310196161270142e-01</leafValues></_>
        <_>
          <internalNodes>
            0 -1 464 3.3081969013437629e-04</internalNodes>
          <leafValues>
            -2.6857954263687134e-01 2.8461733460426331e-01</leafValues></_>
        <_>
          <internalNodes>
            0 -1 38 2.0809540525078773e-02</internalNodes>
          <leafValues>
            -1.1600013077259064e-01 5.6796371936798096e-01</leafValues></_>
        <_>
          <internalNodes>
            0 -1 266 -5.0117917358875275e-02</internalNodes>
          <leafValues>
            3.5479491949081421e-01 -1.8530373275279999e-01</leafValues></_>
        <_>
          <internalNodes>
            0 -1 24 -7.7627906575798988e-03</internalNodes>
          <leafValues>
            -5.6232094764709473e-01 1.2383136898279190e-01</leafValues></_>
        <_>
          <internalNodes>
            0 -1 25 8.3802063018083572e-03</internalNodes>
          <leafValues>
            -1.9520309567451477e-01 4.9232512712478638e-01</leafValues></_>
        <_>
          <internalNodes>
            0 -1 86 -4.5514586381614208e-03</internalNodes>
          <leafValues>
            5.4548633098602295e-01 -1.2561143934726715e-01</leafValues></_>
        <_>
          <internalNodes>
            0 -1 726 -4.1959848022088408e-04</internalNodes>
          <leafValues>
            3.3725351095199585e-01 -2.0499688386917114e-01</leafValues></_>
        <_>
          <internalNodes>
            0 -1 417 6.6488794982433319e-04</internalNodes>
          <leafValues>
            1.4325161278247833e-01 -5.1869642734527588e-01</leafValues></_>
        <_>
          <internalNodes>
            0 -1 421 4.0522380731999874e-04</internalNodes>
          <leafValues>
            -2.4486979842185974e-01 2.8518730401992798e-01</leafValues></_>
        <_>
          <internalNodes>
            0 -1 576 1.2357210507616401e-03</internalNodes>
          <leafValues>
            -2.1833905577659607e-01 3.3477619290351868e-01</leafValues></_>
        <_>
          <internalNodes>
            0 -1 709 1.1688636615872383e-02</internalNodes>
          <leafValues>
            -1.3587169349193573e-01 4.9524152278900146e-01</leafValues></_>
        <_>
          <internalNodes>
            0 -1 591 3.4104436635971069e-03</internalNodes>
          <leafValues>
            -2.2842450439929962e-01 3.2948365807533264e-01</leafValues></_>
        <_>
          <internalNodes>
            0 -1 44 2.8272699564695358e-03</internalNodes>
          <leafValues>
            -1.5656810998916626e-01 4.5246040821075439e-01</leafValues></_></weakClassifiers></_>
    <!-- stage 27 -->
    <_>
      <maxWeakCount>21</maxWeakCount>
      <stageThreshold>-3.8573777675628662e-01</stageThreshold>
      <weakClassifiers>
        <_>
          <internalNodes>
            0 -1 170 -5.5834077298641205e-02</internalNodes>
          <leafValues>
            -2.6470589637756348e-01 6.6309010982513428e-01</leafValues></_>
        <_>
          <internalNodes>
            0 -1 214 -7.1463443338871002e-02</internalNodes>
          <leafValues>
            4.1070240736007690e-01 -2.0908214151859283e-01</leafValues></_>
        <_>
          <internalNodes>
            0 -1 243 -2.4817311204969883e-03</internalNodes>
          <leafValues>
            2.8151968121528625e-01 -2.6097476482391357e-01</leafValues></_>
        <_>
          <internalNodes>
            0 -1 297 3.0149608850479126e-02</internalNodes>
          <leafValues>
            -9.6335403621196747e-02 8.7084865570068359e-01</leafValues></_>
        <_>
          <internalNodes>
            0 -1 311 7.2511592879891396e-03</internalNodes>
          <leafValues>
            -1.8909242749214172e-01 4.2966082692146301e-01</leafValues></_>
        <_>
          <internalNodes>
            0 -1 95 -7.7120768837630749e-03</internalNodes>
          <leafValues>
            5.6132441759109497e-01 -1.1658132821321487e-01</leafValues></_>
        <_>
          <internalNodes>
            0 -1 441 3.7866798229515553e-03</internalNodes>
          <leafValues>
            8.7169662117958069e-02 -7.6902896165847778e-01</leafValues></_>
        <_>
          <internalNodes>
            0 -1 528 -3.3965565264225006e-02</internalNodes>
          <leafValues>
            8.5334074497222900e-01 -9.7372867166996002e-02</leafValues></_>
        <_>
          <internalNodes>
            0 -1 444 -1.3011358678340912e-02</internalNodes>
          <leafValues>
            7.4305677413940430e-01 -9.1430261731147766e-02</leafValues></_>
        <_>
          <internalNodes>
            0 -1 504 -2.5779232382774353e-02</internalNodes>
          <leafValues>
            -3.5903149843215942e-01 2.2555811703205109e-01</leafValues></_>
        <_>
          <internalNodes>
            0 -1 852 -3.8240912836045027e-03</internalNodes>
          <leafValues>
            -4.7060981392860413e-01 1.5880428254604340e-01</leafValues></_>
        <_>
          <internalNodes>
            0 -1 439 -2.3518828675150871e-04</internalNodes>
          <leafValues>
            -3.2238963246345520e-01 1.8841052055358887e-01</leafValues></_>
        <_>
          <internalNodes>
            0 -1 301 2.6693583931773901e-03</internalNodes>
          <leafValues>
            -1.5069574117660522e-01 4.2832314968109131e-01</leafValues></_>
        <_>
          <internalNodes>
            0 -1 339 4.3170392513275146e-02</internalNodes>
          <leafValues>
            1.1278744041919708e-01 -5.0270372629165649e-01</leafValues></_>
        <_>
          <internalNodes>
            0 -1 429 -4.6314664185047150e-02</internalNodes>
          <leafValues>
            8.2129174470901489e-01 -8.9576341211795807e-02</leafValues></_>
        <_>
          <internalNodes>
            0 -1 5 4.3918866664171219e-02</internalNodes>
          <leafValues>
            1.1039450019598007e-01 -7.2157829999923706e-01</leafValues></_>
        <_>
          <internalNodes>
            0 -1 568 4.0384917519986629e-04</internalNodes>
          <leafValues>
            -2.2524595260620117e-01 2.9201236367225647e-01</leafValues></_>
        <_>
          <internalNodes>
            0 -1 396 -4.0244415402412415e-02</internalNodes>
          <leafValues>
            6.1150592565536499e-01 -1.1613071709871292e-01</leafValues></_>
        <_>
          <internalNodes>
            0 -1 449 -3.2186991302296519e-04</internalNodes>
          <leafValues>
            -4.2729881405830383e-01 1.7826642096042633e-01</leafValues></_>
        <_>
          <internalNodes>
            0 -1 33 -3.5654052626341581e-03</internalNodes>
          <leafValues>
            -5.6457269191741943e-01 1.1674137413501740e-01</leafValues></_>
        <_>
          <internalNodes>
            0 -1 298 -5.8225484099239111e-04</internalNodes>
          <leafValues>
            -4.9496954679489136e-01 1.4227205514907837e-01</leafValues></_></weakClassifiers></_>
    <!-- stage 28 -->
    <_>
      <maxWeakCount>25</maxWeakCount>
      <stageThreshold>-4.3556475639343262e-01</stageThreshold>
      <weakClassifiers>
        <_>
          <internalNodes>
            0 -1 130 8.2132944953627884e-05</internalNodes>
          <leafValues>
            7.1755725145339966e-01 1.6822430491447449e-01</leafValues></_>
        <_>
          <internalNodes>
            0 -1 133 -9.5212098676711321e-04</internalNodes>
          <leafValues>
            3.6277419328689575e-01 -1.9402588903903961e-01</leafValues></_>
        <_>
          <internalNodes>
            0 -1 793 1.4804437523707747e-04</internalNodes>
          <leafValues>
            -2.6428273320198059e-01 2.8283214569091797e-01</leafValues></_>
        <_>
          <internalNodes>
            0 -1 230 -1.5813359059393406e-03</internalNodes>
          <leafValues>
            -3.0097949504852295e-01 2.5225424766540527e-01</leafValues></_>
        <_>
          <internalNodes>
            0 -1 372 2.2465814836323261e-03</internalNodes>
          <leafValues>
            1.2035030871629715e-01 -6.0239005088806152e-01</leafValues></_>
        <_>
          <internalNodes>
            0 -1 139 -4.2534776031970978e-02</internalNodes>
          <leafValues>
            -1.7497152090072632e-01 4.5695987343788147e-01</leafValues></_>
        <_>
          <internalNodes>
            0 -1 484 1.2311675399541855e-01</internalNodes>
          <leafValues>
            -1.2938818335533142e-01 8.3781105279922485e-01</leafValues></_>
        <_>
          <internalNodes>
            0 -1 70 5.8202091604471207e-03</internalNodes>
          <leafValues>
            -1.3534227013587952e-01 4.9352461099624634e-01</leafValues></_>
        <_>
          <internalNodes>
            0 -1 765 -1.2162463972344995e-03</internalNodes>
          <leafValues>
            -3.6501491069793701e-01 1.7832356691360474e-01</leafValues></_>
        <_>
          <internalNodes>
            0 -1 754 -5.3079323843121529e-03</internalNodes>
          <leafValues>
            -6.8210589885711670e-01 9.0605042874813080e-02</leafValues></_>
        <_>
          <internalNodes>
            0 -1 486 -3.4030596725642681e-04</internalNodes>
          <leafValues>
            -3.9164626598358154e-01 1.7089363932609558e-01</leafValues></_>
        <_>
          <internalNodes>
            0 -1 4 -2.8544140513986349e-03</internalNodes>
          <leafValues>
            -5.2709329128265381e-01 1.1277084797620773e-01</leafValues></_>
        <_>
          <internalNodes>
            0 -1 233 2.9939599335193634e-02</internalNodes>
          <leafValues>
            7.9328142106533051e-02 -7.3002463579177856e-01</leafValues></_>
        <_>
          <internalNodes>
            0 -1 377 -2.7464705635793507e-04</internalNodes>
          <leafValues>
            -3.6600765585899353e-01 1.5720811486244202e-01</leafValues></_>
        <_>
          <internalNodes>
            0 -1 208 -8.0731762573122978e-03</internalNodes>
          <leafValues>
            6.6330355405807495e-01 -9.9709637463092804e-02</leafValues></_>
        <_>
          <internalNodes>
            0 -1 403 1.7407163977622986e-04</internalNodes>
          <leafValues>
            -2.4745990335941315e-01 3.3130136132240295e-01</leafValues></_>
        <_>
          <internalNodes>
            0 -1 375 1.2314703781157732e-03</internalNodes>
          <leafValues>
            -1.3934879004955292e-01 4.6988967061042786e-01</leafValues></_>
        <_>
          <internalNodes>
            0 -1 366 -9.6910642459988594e-03</internalNodes>
          <leafValues>
            2.1376444399356842e-01 -3.5282206535339355e-01</leafValues></_>
        <_>
          <internalNodes>
            0 -1 749 1.0650537908077240e-02</internalNodes>
          <leafValues>
            -2.3483733832836151e-01 3.0881637334823608e-01</leafValues></_>
        <_>
          <internalNodes>
            0 -1 787 -1.6431204974651337e-02</internalNodes>
          <leafValues>
            5.8564591407775879e-01 -9.9151603877544403e-02</leafValues></_>
        <_>
          <internalNodes>
            0 -1 350 -1.7914317548274994e-02</internalNodes>
          <leafValues>
            4.1207426786422729e-01 -1.6789145767688751e-01</leafValues></_>
        <_>
          <internalNodes>
            0 -1 384 1.2048082426190376e-03</internalNodes>
          <leafValues>
            1.1872513592243195e-01 -5.8352112770080566e-01</leafValues></_>
        <_>
          <internalNodes>
            0 -1 572 -1.6196062788367271e-02</internalNodes>
          <leafValues>
            7.4130249023437500e-01 -9.3957304954528809e-02</leafValues></_>
        <_>
          <internalNodes>
            0 -1 91 3.4944444894790649e-02</internalNodes>
          <leafValues>
            1.1061406135559082e-01 -6.9012892246246338e-01</leafValues></_>
        <_>
          <internalNodes>
            0 -1 704 -2.1017035469412804e-03</internalNodes>
          <leafValues>
            3.4141978621482849e-01 -1.7967104911804199e-01</leafValues></_></weakClassifiers></_>
    <!-- stage 29 -->
    <_>
      <maxWeakCount>27</maxWeakCount>
      <stageThreshold>-4.6573984622955322e-01</stageThreshold>
      <weakClassifiers>
        <_>
          <internalNodes>
            0 -1 479 -1.6312856227159500e-02</internalNodes>
          <leafValues>
            -4.2857143282890320e-01 6.3730567693710327e-01</leafValues></_>
        <_>
          <internalNodes>
            0 -1 54 -8.4775192663073540e-03</internalNodes>
          <leafValues>
            5.1918405294418335e-01 -7.7052630484104156e-02</leafValues></_>
        <_>
          <internalNodes>
            0 -1 272 6.7826835438609123e-03</internalNodes>
          <leafValues>
            -2.2934521734714508e-01 3.0905699729919434e-01</leafValues></_>
        <_>
          <internalNodes>
            0 -1 670 -1.5609422698616982e-03</internalNodes>
          <leafValues>
            2.2756387293338776e-01 -3.1051930785179138e-01</leafValues></_>
        <_>
          <internalNodes>
            0 -1 540 1.1362702585756779e-02</internalNodes>
          <leafValues>
            -2.8119608759880066e-01 2.4882258474826813e-01</leafValues></_>
        <_>
          <internalNodes>
            0 -1 84 -5.0834454596042633e-03</internalNodes>
          <leafValues>
            5.5057674646377563e-01 -1.2943077087402344e-01</leafValues></_>
        <_>
          <internalNodes>
            0 -1 93 3.5056830383837223e-03</internalNodes>
          <leafValues>
            1.0756726562976837e-01 -6.0538887977600098e-01</leafValues></_>
        <_>
          <internalNodes>
            0 -1 207 4.6677365899085999e-03</internalNodes>
          <leafValues>
            -1.7673891782760620e-01 4.3618246912956238e-01</leafValues></_>
        <_>
          <internalNodes>
            0 -1 623 -9.6429680706933141e-04</internalNodes>
          <leafValues>
            -6.1551016569137573e-01 1.0416667908430099e-01</leafValues></_>
        <_>
          <internalNodes>
            0 -1 534 4.7565408051013947e-02</internalNodes>
          <leafValues>
            -1.1136484146118164e-01 5.8752810955047607e-01</leafValues></_>
        <_>
          <internalNodes>
            0 -1 722 -1.9746161997318268e-02</internalNodes>
          <leafValues>
            4.2894878983497620e-01 -2.0619319379329681e-01</leafValues></_>
        <_>
          <internalNodes>
            0 -1 753 -4.7705909237265587e-03</internalNodes>
          <leafValues>
            -6.9656085968017578e-01 9.7869753837585449e-02</leafValues></_>
        <_>
          <internalNodes>
            0 -1 604 1.1735485866665840e-02</internalNodes>
          <leafValues>
            -1.7594258487224579e-01 4.0314859151840210e-01</leafValues></_>
        <_>
          <internalNodes>
            0 -1 165 -1.2968029826879501e-02</internalNodes>
          <leafValues>
            2.9705506563186646e-01 -2.1680322289466858e-01</leafValues></_>
        <_>
          <internalNodes>
            0 -1 575 2.5874345737975091e-05</internalNodes>
          <leafValues>
            -1.9904887676239014e-01 3.2346811890602112e-01</leafValues></_>
        <_>
          <internalNodes>
            0 -1 8 -6.2604499980807304e-03</internalNodes>
          <leafValues>
            -6.9376307725906372e-01 1.0342945903539658e-01</leafValues></_>
        <_>
          <internalNodes>
            0 -1 664 -1.0696057230234146e-02</internalNodes>
          <leafValues>
            -6.4122205972671509e-01 8.8606886565685272e-02</leafValues></_>
        <_>
          <internalNodes>
            0 -1 831 3.9118347922340035e-04</internalNodes>
          <leafValues>
            -1.9678311049938202e-01 3.1555774807929993e-01</leafValues></_>
        <_>
          <internalNodes>
            0 -1 626 -7.1646660217083991e-05</internalNodes>
          <leafValues>
            2.4657028913497925e-01 -2.5445947051048279e-01</leafValues></_>
        <_>
          <internalNodes>
            0 -1 343 -4.6556200832128525e-03</internalNodes>
          <leafValues>
            3.7798747420310974e-01 -1.5749447047710419e-01</leafValues></_>
        <_>
          <internalNodes>
            0 -1 694 -2.0949890837073326e-02</internalNodes>
          <leafValues>
            4.2311799526214600e-01 -1.6371090710163116e-01</leafValues></_>
        <_>
          <internalNodes>
            0 -1 196 -5.8030135929584503e-02</internalNodes>
          <leafValues>
            3.5261332988739014e-01 -1.8253608047962189e-01</leafValues></_>
        <_>
          <internalNodes>
            0 -1 552 -4.2185205966234207e-03</internalNodes>
          <leafValues>
            -3.9610189199447632e-01 1.5700756013393402e-01</leafValues></_>
        <_>
          <internalNodes>
            0 -1 790 1.2257054913789034e-03</internalNodes>
          <leafValues>
            -1.6470018029212952e-01 3.7066230177879333e-01</leafValues></_>
        <_>
          <internalNodes>
            0 -1 662 -1.6721533611416817e-02</internalNodes>
          <leafValues>
            8.6626254022121429e-02 -7.2069704532623291e-01</leafValues></_>
        <_>
          <internalNodes>
            0 -1 134 2.1278646308928728e-03</internalNodes>
          <leafValues>
            1.0479380935430527e-01 -5.1481068134307861e-01</leafValues></_>
        <_>
          <internalNodes>
            0 -1 431 -1.1641823220998049e-03</internalNodes>
          <leafValues>
            -2.6751413941383362e-01 2.2946362197399139e-01</leafValues></_></weakClassifiers></_>
    <!-- stage 30 -->
    <_>
      <maxWeakCount>23</maxWeakCount>
      <stageThreshold>-4.0586322546005249e-01</stageThreshold>
      <weakClassifiers>
